tree
version=v3
num_class=1
num_tree_per_iteration=1
label_index=0
max_feature_idx=964
objective=regression
feature_names=F0_query_dim0 F0_query_dim1 F0_query_dim2 F0_query_dim3 F0_query_dim4 F0_query_dim5 F0_query_dim6 F0_query_dim7 F0_query_dim8 F0_query_dim9 F0_query_dim10 F0_query_dim11 F0_query_dim12 F0_query_dim13 F0_query_dim14 F0_query_dim15 F0_query_dim16 F0_query_dim17 F0_query_dim18 F0_query_dim19 F0_query_dim20 F0_query_dim21 F0_query_dim22 F0_query_dim23 F0_query_dim24 F0_query_dim25 F0_query_dim26 F0_query_dim27 F0_query_dim28 F0_query_dim29 F0_query_dim30 F0_query_dim31 F0_query_dim32 F0_query_dim33 F0_query_dim34 F0_query_dim35 F0_query_dim36 F0_query_dim37 F0_query_dim38 F0_query_dim39 F0_query_dim40 F0_query_dim41 F0_query_dim42 F0_query_dim43 F0_query_dim44 F0_query_dim45 F0_query_dim46 F0_query_dim47 F0_query_dim48 F0_query_dim49 F0_query_dim50 F0_query_dim51 F0_query_dim52 F0_query_dim53 F0_query_dim54 F0_query_dim55 F0_query_dim56 F0_query_dim57 F0_query_dim58 F0_query_dim59 F0_query_dim60 F0_query_dim61 F0_query_dim62 F0_query_dim63 F0_query_dim64 F0_query_dim65 F0_query_dim66 F0_query_dim67 F0_query_dim68 F0_query_dim69 F0_query_dim70 F0_query_dim71 F0_query_dim72 F0_query_dim73 F0_query_dim74 F0_query_dim75 F0_query_dim76 F0_query_dim77 F0_query_dim78 F0_query_dim79 F0_query_dim80 F0_query_dim81 F0_query_dim82 F0_query_dim83 F0_query_dim84 F0_query_dim85 F0_query_dim86 F0_query_dim87 F0_query_dim88 F0_query_dim89 F0_query_dim90 F0_query_dim91 F0_query_dim92 F0_query_dim93 F0_query_dim94 F0_query_dim95 F0_query_dim96 F0_query_dim97 F0_query_dim98 F0_query_dim99 F0_query_dim100 F0_query_dim101 F0_query_dim102 F0_query_dim103 F0_query_dim104 F0_query_dim105 F0_query_dim106 F0_query_dim107 F0_query_dim108 F0_query_dim109 F0_query_dim110 F0_query_dim111 F0_query_dim112 F0_query_dim113 F0_query_dim114 F0_query_dim115 F0_query_dim116 F0_query_dim117 F0_query_dim118 F0_query_dim119 F0_query_dim120 F0_query_dim121 F0_query_dim122 F0_query_dim123 F0_query_dim124 F0_query_dim125 F0_query_dim126 F0_query_dim127 F0_query_dim128 F0_query_dim129 F0_query_dim130 F0_query_dim131 F0_query_dim132 F0_query_dim133 F0_query_dim134 F0_query_dim135 F0_query_dim136 F0_query_dim137 F0_query_dim138 F0_query_dim139 F0_query_dim140 F0_query_dim141 F0_query_dim142 F0_query_dim143 F0_query_dim144 F0_query_dim145 F0_query_dim146 F0_query_dim147 F0_query_dim148 F0_query_dim149 F0_query_dim150 F0_query_dim151 F0_query_dim152 F0_query_dim153 F0_query_dim154 F0_query_dim155 F0_query_dim156 F0_query_dim157 F0_query_dim158 F0_query_dim159 F0_query_dim160 F0_query_dim161 F0_query_dim162 F0_query_dim163 F0_query_dim164 F0_query_dim165 F0_query_dim166 F0_query_dim167 F0_query_dim168 F0_query_dim169 F0_query_dim170 F0_query_dim171 F0_query_dim172 F0_query_dim173 F0_query_dim174 F0_query_dim175 F0_query_dim176 F0_query_dim177 F0_query_dim178 F0_query_dim179 F0_query_dim180 F0_query_dim181 F0_query_dim182 F0_query_dim183 F0_query_dim184 F0_query_dim185 F0_query_dim186 F0_query_dim187 F0_query_dim188 F0_query_dim189 F0_query_dim190 F0_query_dim191 F0_query_dim192 F0_query_dim193 F0_query_dim194 F0_query_dim195 F0_query_dim196 F0_query_dim197 F0_query_dim198 F0_query_dim199 F0_query_dim200 F0_query_dim201 F0_query_dim202 F0_query_dim203 F0_query_dim204 F0_query_dim205 F0_query_dim206 F0_query_dim207 F0_query_dim208 F0_query_dim209 F0_query_dim210 F0_query_dim211 F0_query_dim212 F0_query_dim213 F0_query_dim214 F0_query_dim215 F0_query_dim216 F0_query_dim217 F0_query_dim218 F0_query_dim219 F0_query_dim220 F0_query_dim221 F0_query_dim222 F0_query_dim223 F0_query_dim224 F0_query_dim225 F0_query_dim226 F0_query_dim227 F0_query_dim228 F0_query_dim229 F0_query_dim230 F0_query_dim231 F0_query_dim232 F0_query_dim233 F0_query_dim234 F0_query_dim235 F0_query_dim236 F0_query_dim237 F0_query_dim238 F0_query_dim239 F0_query_dim240 F0_query_dim241 F0_query_dim242 F0_query_dim243 F0_query_dim244 F0_query_dim245 F0_query_dim246 F0_query_dim247 F0_query_dim248 F0_query_dim249 F0_query_dim250 F0_query_dim251 F0_query_dim252 F0_query_dim253 F0_query_dim254 F0_query_dim255 F0_query_dim256 F0_query_dim257 F0_query_dim258 F0_query_dim259 F0_query_dim260 F0_query_dim261 F0_query_dim262 F0_query_dim263 F0_query_dim264 F0_query_dim265 F0_query_dim266 F0_query_dim267 F0_query_dim268 F0_query_dim269 F0_query_dim270 F0_query_dim271 F0_query_dim272 F0_query_dim273 F0_query_dim274 F0_query_dim275 F0_query_dim276 F0_query_dim277 F0_query_dim278 F0_query_dim279 F0_query_dim280 F0_query_dim281 F0_query_dim282 F0_query_dim283 F0_query_dim284 F0_query_dim285 F0_query_dim286 F0_query_dim287 F0_query_dim288 F0_query_dim289 F0_query_dim290 F0_query_dim291 F0_query_dim292 F0_query_dim293 F0_query_dim294 F0_query_dim295 F0_query_dim296 F0_query_dim297 F0_query_dim298 F0_query_dim299 F0_query_dim300 F0_query_dim301 F0_query_dim302 F0_query_dim303 F0_query_dim304 F0_query_dim305 F0_query_dim306 F0_query_dim307 F0_query_dim308 F0_query_dim309 F0_query_dim310 F0_query_dim311 F0_query_dim312 F0_query_dim313 F0_query_dim314 F0_query_dim315 F0_query_dim316 F0_query_dim317 F0_query_dim318 F0_query_dim319 F0_query_dim320 F0_query_dim321 F0_query_dim322 F0_query_dim323 F0_query_dim324 F0_query_dim325 F0_query_dim326 F0_query_dim327 F0_query_dim328 F0_query_dim329 F0_query_dim330 F0_query_dim331 F0_query_dim332 F0_query_dim333 F0_query_dim334 F0_query_dim335 F0_query_dim336 F0_query_dim337 F0_query_dim338 F0_query_dim339 F0_query_dim340 F0_query_dim341 F0_query_dim342 F0_query_dim343 F0_query_dim344 F0_query_dim345 F0_query_dim346 F0_query_dim347 F0_query_dim348 F0_query_dim349 F0_query_dim350 F0_query_dim351 F0_query_dim352 F0_query_dim353 F0_query_dim354 F0_query_dim355 F0_query_dim356 F0_query_dim357 F0_query_dim358 F0_query_dim359 F0_query_dim360 F0_query_dim361 F0_query_dim362 F0_query_dim363 F0_query_dim364 F0_query_dim365 F0_query_dim366 F0_query_dim367 F0_query_dim368 F0_query_dim369 F0_query_dim370 F0_query_dim371 F0_query_dim372 F0_query_dim373 F0_query_dim374 F0_query_dim375 F0_query_dim376 F0_query_dim377 F0_query_dim378 F0_query_dim379 F0_query_dim380 F0_query_dim381 F0_query_dim382 F0_query_dim383 F0_query_dim384 F0_query_dim385 F0_query_dim386 F0_query_dim387 F0_query_dim388 F0_query_dim389 F0_query_dim390 F0_query_dim391 F0_query_dim392 F0_query_dim393 F0_query_dim394 F0_query_dim395 F0_query_dim396 F0_query_dim397 F0_query_dim398 F0_query_dim399 F0_query_dim400 F0_query_dim401 F0_query_dim402 F0_query_dim403 F0_query_dim404 F0_query_dim405 F0_query_dim406 F0_query_dim407 F0_query_dim408 F0_query_dim409 F0_query_dim410 F0_query_dim411 F0_query_dim412 F0_query_dim413 F0_query_dim414 F0_query_dim415 F0_query_dim416 F0_query_dim417 F0_query_dim418 F0_query_dim419 F0_query_dim420 F0_query_dim421 F0_query_dim422 F0_query_dim423 F0_query_dim424 F0_query_dim425 F0_query_dim426 F0_query_dim427 F0_query_dim428 F0_query_dim429 F0_query_dim430 F0_query_dim431 F0_query_dim432 F0_query_dim433 F0_query_dim434 F0_query_dim435 F0_query_dim436 F0_query_dim437 F0_query_dim438 F0_query_dim439 F0_query_dim440 F0_query_dim441 F0_query_dim442 F0_query_dim443 F0_query_dim444 F0_query_dim445 F0_query_dim446 F0_query_dim447 F0_query_dim448 F0_query_dim449 F0_query_dim450 F0_query_dim451 F0_query_dim452 F0_query_dim453 F0_query_dim454 F0_query_dim455 F0_query_dim456 F0_query_dim457 F0_query_dim458 F0_query_dim459 F0_query_dim460 F0_query_dim461 F0_query_dim462 F0_query_dim463 F0_query_dim464 F0_query_dim465 F0_query_dim466 F0_query_dim467 F0_query_dim468 F0_query_dim469 F0_query_dim470 F0_query_dim471 F0_query_dim472 F0_query_dim473 F0_query_dim474 F0_query_dim475 F0_query_dim476 F0_query_dim477 F0_query_dim478 F0_query_dim479 F0_query_dim480 F0_query_dim481 F0_query_dim482 F0_query_dim483 F0_query_dim484 F0_query_dim485 F0_query_dim486 F0_query_dim487 F0_query_dim488 F0_query_dim489 F0_query_dim490 F0_query_dim491 F0_query_dim492 F0_query_dim493 F0_query_dim494 F0_query_dim495 F0_query_dim496 F0_query_dim497 F0_query_dim498 F0_query_dim499 F0_query_dim500 F0_query_dim501 F0_query_dim502 F0_query_dim503 F0_query_dim504 F0_query_dim505 F0_query_dim506 F0_query_dim507 F0_query_dim508 F0_query_dim509 F0_query_dim510 F0_query_dim511 F0_query_dim512 F0_query_dim513 F0_query_dim514 F0_query_dim515 F0_query_dim516 F0_query_dim517 F0_query_dim518 F0_query_dim519 F0_query_dim520 F0_query_dim521 F0_query_dim522 F0_query_dim523 F0_query_dim524 F0_query_dim525 F0_query_dim526 F0_query_dim527 F0_query_dim528 F0_query_dim529 F0_query_dim530 F0_query_dim531 F0_query_dim532 F0_query_dim533 F0_query_dim534 F0_query_dim535 F0_query_dim536 F0_query_dim537 F0_query_dim538 F0_query_dim539 F0_query_dim540 F0_query_dim541 F0_query_dim542 F0_query_dim543 F0_query_dim544 F0_query_dim545 F0_query_dim546 F0_query_dim547 F0_query_dim548 F0_query_dim549 F0_query_dim550 F0_query_dim551 F0_query_dim552 F0_query_dim553 F0_query_dim554 F0_query_dim555 F0_query_dim556 F0_query_dim557 F0_query_dim558 F0_query_dim559 F0_query_dim560 F0_query_dim561 F0_query_dim562 F0_query_dim563 F0_query_dim564 F0_query_dim565 F0_query_dim566 F0_query_dim567 F0_query_dim568 F0_query_dim569 F0_query_dim570 F0_query_dim571 F0_query_dim572 F0_query_dim573 F0_query_dim574 F0_query_dim575 F0_query_dim576 F0_query_dim577 F0_query_dim578 F0_query_dim579 F0_query_dim580 F0_query_dim581 F0_query_dim582 F0_query_dim583 F0_query_dim584 F0_query_dim585 F0_query_dim586 F0_query_dim587 F0_query_dim588 F0_query_dim589 F0_query_dim590 F0_query_dim591 F0_query_dim592 F0_query_dim593 F0_query_dim594 F0_query_dim595 F0_query_dim596 F0_query_dim597 F0_query_dim598 F0_query_dim599 F0_query_dim600 F0_query_dim601 F0_query_dim602 F0_query_dim603 F0_query_dim604 F0_query_dim605 F0_query_dim606 F0_query_dim607 F0_query_dim608 F0_query_dim609 F0_query_dim610 F0_query_dim611 F0_query_dim612 F0_query_dim613 F0_query_dim614 F0_query_dim615 F0_query_dim616 F0_query_dim617 F0_query_dim618 F0_query_dim619 F0_query_dim620 F0_query_dim621 F0_query_dim622 F0_query_dim623 F0_query_dim624 F0_query_dim625 F0_query_dim626 F0_query_dim627 F0_query_dim628 F0_query_dim629 F0_query_dim630 F0_query_dim631 F0_query_dim632 F0_query_dim633 F0_query_dim634 F0_query_dim635 F0_query_dim636 F0_query_dim637 F0_query_dim638 F0_query_dim639 F0_query_dim640 F0_query_dim641 F0_query_dim642 F0_query_dim643 F0_query_dim644 F0_query_dim645 F0_query_dim646 F0_query_dim647 F0_query_dim648 F0_query_dim649 F0_query_dim650 F0_query_dim651 F0_query_dim652 F0_query_dim653 F0_query_dim654 F0_query_dim655 F0_query_dim656 F0_query_dim657 F0_query_dim658 F0_query_dim659 F0_query_dim660 F0_query_dim661 F0_query_dim662 F0_query_dim663 F0_query_dim664 F0_query_dim665 F0_query_dim666 F0_query_dim667 F0_query_dim668 F0_query_dim669 F0_query_dim670 F0_query_dim671 F0_query_dim672 F0_query_dim673 F0_query_dim674 F0_query_dim675 F0_query_dim676 F0_query_dim677 F0_query_dim678 F0_query_dim679 F0_query_dim680 F0_query_dim681 F0_query_dim682 F0_query_dim683 F0_query_dim684 F0_query_dim685 F0_query_dim686 F0_query_dim687 F0_query_dim688 F0_query_dim689 F0_query_dim690 F0_query_dim691 F0_query_dim692 F0_query_dim693 F0_query_dim694 F0_query_dim695 F0_query_dim696 F0_query_dim697 F0_query_dim698 F0_query_dim699 F0_query_dim700 F0_query_dim701 F0_query_dim702 F0_query_dim703 F0_query_dim704 F0_query_dim705 F0_query_dim706 F0_query_dim707 F0_query_dim708 F0_query_dim709 F0_query_dim710 F0_query_dim711 F0_query_dim712 F0_query_dim713 F0_query_dim714 F0_query_dim715 F0_query_dim716 F0_query_dim717 F0_query_dim718 F0_query_dim719 F0_query_dim720 F0_query_dim721 F0_query_dim722 F0_query_dim723 F0_query_dim724 F0_query_dim725 F0_query_dim726 F0_query_dim727 F0_query_dim728 F0_query_dim729 F0_query_dim730 F0_query_dim731 F0_query_dim732 F0_query_dim733 F0_query_dim734 F0_query_dim735 F0_query_dim736 F0_query_dim737 F0_query_dim738 F0_query_dim739 F0_query_dim740 F0_query_dim741 F0_query_dim742 F0_query_dim743 F0_query_dim744 F0_query_dim745 F0_query_dim746 F0_query_dim747 F0_query_dim748 F0_query_dim749 F0_query_dim750 F0_query_dim751 F0_query_dim752 F0_query_dim753 F0_query_dim754 F0_query_dim755 F0_query_dim756 F0_query_dim757 F0_query_dim758 F0_query_dim759 F0_query_dim760 F0_query_dim761 F0_query_dim762 F0_query_dim763 F0_query_dim764 F0_query_dim765 F0_query_dim766 F0_query_dim767 F0_query_dim768 F0_query_dim769 F0_query_dim770 F0_query_dim771 F0_query_dim772 F0_query_dim773 F0_query_dim774 F0_query_dim775 F0_query_dim776 F0_query_dim777 F0_query_dim778 F0_query_dim779 F0_query_dim780 F0_query_dim781 F0_query_dim782 F0_query_dim783 F0_query_dim784 F0_query_dim785 F0_query_dim786 F0_query_dim787 F0_query_dim788 F0_query_dim789 F0_query_dim790 F0_query_dim791 F0_query_dim792 F0_query_dim793 F0_query_dim794 F0_query_dim795 F0_query_dim796 F0_query_dim797 F0_query_dim798 F0_query_dim799 F0_query_dim800 F0_query_dim801 F0_query_dim802 F0_query_dim803 F0_query_dim804 F0_query_dim805 F0_query_dim806 F0_query_dim807 F0_query_dim808 F0_query_dim809 F0_query_dim810 F0_query_dim811 F0_query_dim812 F0_query_dim813 F0_query_dim814 F0_query_dim815 F0_query_dim816 F0_query_dim817 F0_query_dim818 F0_query_dim819 F0_query_dim820 F0_query_dim821 F0_query_dim822 F0_query_dim823 F0_query_dim824 F0_query_dim825 F0_query_dim826 F0_query_dim827 F0_query_dim828 F0_query_dim829 F0_query_dim830 F0_query_dim831 F0_query_dim832 F0_query_dim833 F0_query_dim834 F0_query_dim835 F0_query_dim836 F0_query_dim837 F0_query_dim838 F0_query_dim839 F0_query_dim840 F0_query_dim841 F0_query_dim842 F0_query_dim843 F0_query_dim844 F0_query_dim845 F0_query_dim846 F0_query_dim847 F0_query_dim848 F0_query_dim849 F0_query_dim850 F0_query_dim851 F0_query_dim852 F0_query_dim853 F0_query_dim854 F0_query_dim855 F0_query_dim856 F0_query_dim857 F0_query_dim858 F0_query_dim859 F0_query_dim860 F0_query_dim861 F0_query_dim862 F0_query_dim863 F0_query_dim864 F0_query_dim865 F0_query_dim866 F0_query_dim867 F0_query_dim868 F0_query_dim869 F0_query_dim870 F0_query_dim871 F0_query_dim872 F0_query_dim873 F0_query_dim874 F0_query_dim875 F0_query_dim876 F0_query_dim877 F0_query_dim878 F0_query_dim879 F0_query_dim880 F0_query_dim881 F0_query_dim882 F0_query_dim883 F0_query_dim884 F0_query_dim885 F0_query_dim886 F0_query_dim887 F0_query_dim888 F0_query_dim889 F0_query_dim890 F0_query_dim891 F0_query_dim892 F0_query_dim893 F0_query_dim894 F0_query_dim895 F0_query_dim896 F0_query_dim897 F0_query_dim898 F0_query_dim899 F0_query_dim900 F0_query_dim901 F0_query_dim902 F0_query_dim903 F0_query_dim904 F0_query_dim905 F0_query_dim906 F0_query_dim907 F0_query_dim908 F0_query_dim909 F0_query_dim910 F0_query_dim911 F0_query_dim912 F0_query_dim913 F0_query_dim914 F0_query_dim915 F0_query_dim916 F0_query_dim917 F0_query_dim918 F0_query_dim919 F0_query_dim920 F0_query_dim921 F0_query_dim922 F0_query_dim923 F0_query_dim924 F0_query_dim925 F0_query_dim926 F0_query_dim927 F0_query_dim928 F0_query_dim929 F0_query_dim930 F0_query_dim931 F0_query_dim932 F0_query_dim933 F0_query_dim934 F0_query_dim935 F0_query_dim936 F0_query_dim937 F0_query_dim938 F0_query_dim939 F0_query_dim940 F0_query_dim941 F0_query_dim942 F0_query_dim943 F0_query_dim944 F0_query_dim945 F0_query_dim946 F0_query_dim947 F0_query_dim948 F0_query_dim949 F0_query_dim950 F0_query_dim951 F0_query_dim952 F0_query_dim953 F0_query_dim954 F0_query_dim955 F0_query_dim956 F0_query_dim957 F0_query_dim958 F0_query_dim959 F1_d_start F2_d_1st F3_d_10th F4_1st_to_start F5_10th_to_start
feature_infos=[0:0.75290000438690186] [0:1.3299000263214111] [0:1.1627000570297241] [0:0.74830001592636108] [0:0.81419998407363892] [0:0.91280001401901245] [0:1.4473999738693237] [0:1.2793999910354614] [0:0.75389999151229858] [0:1.1315000057220459] [0:1.2178000211715698] [0:0.76550000905990601] [0:0.87209999561309814] [0:0.97689998149871826] [0:1.1150000095367432] [0:1.0156999826431274] [0:0.79070001840591431] [0:0.65609997510910034] [0:0.59719997644424438] [0:0.60290002822875977] [0:0.60939997434616089] [0:0.72970002889633179] [0:0.80620002746582031] [0:0.66720002889633179] [0:0.66200000047683716] [0:0.74970000982284546] [0:0.76429998874664307] [0:0.76560002565383911] [0:0.63739997148513794] [0:0.59780001640319824] [0:0.69900000095367432] [0:0.61919999122619629] [0:0.6273999810218811] [0:0.49579998850822449] [0:0.63239997625350952] [0:0.6589999794960022] [0:0.49970000982284546] [0:0.72049999237060547] [0:0.52600002288818359] [0:0.55320000648498535] [0:0.53469997644424438] [0:0.5690000057220459] [0:0.63669997453689575] [0:0.48629999160766602] [0:0.66030001640319824] [0:0.57529997825622559] [0:0.59350001811981201] [0:0.55870002508163452] [0:0.74220001697540283] [0:0.95889997482299805] [0:0.59179997444152832] [0:0.68260002136230469] [0:0.66530001163482666] [0:0.75069999694824219] [0:0.65729999542236328] [0:0.6898999810218811] [0:0.67890000343322754] [0:0.61180001497268677] [0:0.63289999961853027] [0:0.66930001974105835] [0:0.50859999656677246] [0:0.54839998483657837] [0:0.54009997844696045] [0:0.48899999260902405] [0:0.95690000057220459] [0:0.8586999773979187] [0:1.2421000003814697] [0:0.96050000190734863] [0:1.2848000526428223] [0:1.1669000387191772] [0:1.260699987411499] [0:1.1023000478744507] [0:1.2836999893188477] [0:1.1119999885559082] [0:1.2589000463485718] [0:1.0910999774932861] [0:0.92849999666213989] [0:0.83350002765655518] [0:1.2259999513626099] [0:0.92650002241134644] [0:0.57370001077651978] [0:0.54970002174377441] [0:0.5680999755859375] [0:0.60860002040863037] [0:0.60930001735687256] [0:0.72399997711181641] [0:0.63080000877380371] [0:0.60399997234344482] [0:0.61710000038146973] [0:0.6283000111579895] [0:0.74260002374649048] [0:0.63660001754760742] [0:0.76829999685287476] [0:0.54259997606277466] [0:0.60000002384185791] [0:0.63499999046325684] [0:0.64869999885559082] [0:0.58230000734329224] [0:0.60659998655319214] [0:0.51920002698898315] [0:0.607200026512146] [0:0.56080001592636108] [0:0.59719997644424438] [0:0.62900000810623169] [0:0.60570001602172852] [0:0.67869997024536133] [0:0.63319998979568481] [0:0.55000001192092896] [0:0.57700002193450928] [0:0.54199999570846558] [0:0.63489997386932373] [0:0.65049999952316284] [0:0.67489999532699585] [0:0.63969999551773071] [0:0.53939998149871826] [0:0.58359998464584351] [0:0.65289998054504395] [0:0.66280001401901245] [0:0.67979997396469116] [0:0.61540001630783081] [0:0.72600001096725464] [0:0.61640000343322754] [0:0.60030001401901245] [0:0.60920000076293945] [0:0.79280000925064087] [0:0.62769997119903564] [0:0.74800002574920654] [0:0.5690000057220459] [0:0.93059998750686646] [0:0.99360001087188721] [0:0.96990001201629639] [0:1.0152000188827515] [0:0.89529997110366821] [0:0.95359998941421509] [0:1.2381000518798828] [0:0.94779998064041138] [0:0.85329997539520264] [0:0.90630000829696655] [0:1.1244000196456909] [0:0.85780000686645508] [0:0.8156999945640564] [0:0.97649997472763062] [0:0.93800002336502075] [0:0.76709997653961182] [0:0.82800000905990601] [0:0.64560002088546753] [0:0.83170002698898315] [0:0.59850001335144043] [0:0.70929998159408569] [0:0.76279997825622559] [0:0.819100022315979] [0:0.90219998359680176] [0:0.69499999284744263] [0:0.77869999408721924] [0:0.6906999945640564] [0:0.93239998817443848] [0:0.60369998216629028] [0:0.76029998064041138] [0:0.64050000905990601] [0:0.70249998569488525] [0:0.59899997711181641] [0:0.55010002851486206] [0:0.92430001497268677] [0:0.74159997701644897] [0:0.57859998941421509] [0:0.93140000104904175] [0:0.61809998750686646] [0:0.59390002489089966] [0:0.63630002737045288] [0:0.71469998359680176] [0:0.64660000801086426] [0:0.51940000057220459] [0:0.60820001363754272] [0:0.65149998664855957] [0:0.54579997062683105] [0:0.57099997997283936] [0:0.64939999580383301] [0:1.0398000478744507] [0:0.80110001564025879] [0:0.66119998693466187] [0:0.71880000829696655] [0:1.0326000452041626] [0:0.91390001773834229] [0:0.7159000039100647] [0:0.82120001316070557] [0:0.68760001659393311] [0:0.61619997024536133] [0:0.60850000381469727] [0:0.63990002870559692] [0:0.65890002250671387] [0:0.5746999979019165] [0:0.62690001726150513] [0:0.86320000886917114] [0:1.1555999517440796] [0:1.0098999738693237] [0:0.9187999963760376] [0:1.0848000049591064] [0:1.2354999780654907] [0:1.0269999504089355] [0:1.0398999452590942] [0:1.0893000364303589] [0:1.246399998664856] [0:1.0217000246047974] [0:0.97200000286102295] [0:0.85039997100830078] [0:1.222599983215332] [0:1.0109000205993652] [0:0.83619999885559082] [0:0.56599998474121094] [0:0.82679998874664307] [0:0.61479997634887695] [0:0.63419997692108154] [0:0.80119997262954712] [0:0.82679998874664307] [0:0.70749998092651367] [0:0.65590000152587891] [0:0.66740000247955322] [0:0.66960000991821289] [0:0.83380001783370972] [0:0.77249997854232788] [0:0.65640002489089966] [0:0.56419998407363892] [0:0.607200026512146] [0:0.58740001916885376] [0:0.62709999084472656] [0:0.70679998397827148] [0:0.63230001926422119] [0:0.54259997606277466] [0:0.66900002956390381] [0:0.67129999399185181] [0:0.79780000448226929] [0:0.65539997816085815] [0:0.60439997911453247] [0:0.96569997072219849] [0:0.82609999179840088] [0:0.69169998168945312] [0:0.56339997053146362] [0:0.68500000238418579] [0:0.7150999903678894] [0:0.78390002250671387] [0:0.61210000514984131] [0:0.70910000801086426] [0:0.56730002164840698] [0:0.65460002422332764] [0:0.71700000762939453] [0:0.70139998197555542] [0:0.78280001878738403] [0:0.7378000020980835] [0:0.56300002336502075] [0:0.57520002126693726] [0:0.87360000610351562] [0:0.81699997186660767] [0:0.65450000762939453] [0:0.63950002193450928] [0:0.8091999888420105] [0:0.61059999465942383] [0:0.56929999589920044] [0:0.75080001354217529] [0:0.79589998722076416] [0:0.66729998588562012] [0:0.66280001401901245] [0:0.76279997825622559] [0:0.68409997224807739] [0:0.6435999870300293] [0:0.555899977684021] [0:0.7444000244140625] [0:0.72219997644424438] [0:0.65410000085830688] [0:0.56529998779296875] [0:0.72310000658035278] [0:0.70959997177124023] [0:0.5810999870300293] [0:0.43509998917579651] [0:0.51740002632141113] [0:0.59759998321533203] [0:0.56410002708435059] [0:0.48679998517036438] [0:0.67549997568130493] [0:0.694100022315979] [0:0.52149999141693115] [0:0.69760000705718994] [0:0.89300000667572021] [0:0.80400002002716064] [0:0.55119997262954712] [0:0.58869999647140503] [0:0.72170001268386841] [0:0.64240002632141113] [0:0.50529998540878296] [0:0.59769999980926514] [0:0.63520002365112305] [0:0.66039997339248657] [0:0.76819998025894165] [0:0.73040002584457397] [0:0.74720001220703125] [0:0.821399986743927] [0:0.81279999017715454] [0:0.75499999523162842] [0:0.8158000111579895] [0:0.81160002946853638] [0:0.8256000280380249] [0:0.74390000104904175] [0:0.64380002021789551] [0:0.68290001153945923] [0:0.66170001029968262] [0:0.60390001535415649] [0:0.54180002212524414] [0:0.65810000896453857] [0:0.48539999127388] [0:0.57440000772476196] [0:0.60920000076293945] [0:0.56260001659393311] [0:0.49500000476837158] [0:0.49160000681877136] [0:0.72939997911453247] [0:0.75300002098083496] [0:0.5845000147819519] [0:0.45910000801086426] [0:0.57810002565383911] [0:0.6348000168800354] [0:0.59020000696182251] [0:0.67930001020431519] [0:0.79839998483657837] [0:0.83929997682571411] [0:0.78769999742507935] [0:0.7159000039100647] [0:0.78519999980926514] [0:0.79570001363754272] [0:0.67220002412796021] [0:0.77149999141693115] [0:0.69609999656677246] [0:1.0987000465393066] [0:0.67170000076293945] [0:0.76810002326965332] [0:0.69150000810623169] [0:0.76200002431869507] [0:0.87230002880096436] [0:0.74610000848770142] [0:0.68320000171661377] [0:0.74379998445510864] [0:0.74500000476837158] [0:0.55239999294281006] [0:0.56480002403259277] [0:0.55089998245239258] [0:0.52920001745223999] [0:0.62660002708435059] [0:0.71329998970031738] [0:0.55129998922348022] [0:0.60729998350143433] [0:0.65979999303817749] [0:0.7159000039100647] [0:0.67479997873306274] [0:0.60140001773834229] [0:0.74049997329711914] [0:0.62489998340606689] [0:0.76719999313354492] [0:0.84229999780654907] [0:0.52249997854232788] [0:0.60559999942779541] [0:0.54629999399185181] [0:0.66820001602172852] [0:0.96280002593994141] [0:0.56699997186660767] [0:0.5031999945640564] [0:0.78270000219345093] [0:0.88349997997283936] [0:0.77660000324249268] [0:0.74250000715255737] [0:0.83630001544952393] [0:0.94849997758865356] [0:1.0895999670028687] [0:0.53579998016357422] [0:0.5843999981880188] [0:0.85089999437332153] [0:0.74900001287460327] [0:0.57289999723434448] [0:0.63630002737045288] [0:0.65499997138977051] [0:0.58289998769760132] [0:0.59729999303817749] [0:0.47659999132156372] [0:0.56089997291564941] [0:0.47960001230239868] [0:0.46779999136924744] [0:0.55830001831054688] [0:1.2070000171661377] [0:0.84030002355575562] [0:1.0321999788284302] [0:0.81059998273849487] [0:1.527400016784668] [0:1.1835000514984131] [0:1.0305999517440796] [0:0.91019999980926514] [0:1.1086000204086304] [0:1.1842999458312988] [0:1.0317000150680542] [0:0.9211999773979187] [0:0.94559997320175171] [0:0.94099998474121094] [0:1.0339000225067139] [0:0.94300001859664917] [0:0.57599997520446777] [0:0.52499997615814209] [0:0.49020001292228699] [0:0.58630001544952393] [0:0.65630000829696655] [0:0.59780001640319824] [0:0.57599997520446777] [0:0.5163000226020813] [0:0.48019999265670776] [0:0.59680002927780151] [0:0.53689998388290405] [0:0.62790000438690186] [0:0.47830000519752502] [0:0.51190000772476196] [0:0.60350000858306885] [0:0.54960000514984131] [0:0.59560000896453857] [0:0.65230000019073486] [0:0.60039997100830078] [0:0.46340000629425049] [0:0.56300002336502075] [0:0.65939998626708984] [0:0.69230002164840698] [0:0.55309998989105225] [0:0.49279999732971191] [0:0.46279999613761902] [0:0.52230000495910645] [0:0.48910000920295715] [0:0.45249998569488525] [0:0.5899999737739563] [0:0.56940001249313354] [0:0.60449999570846558] [0:0.508899986743927] [0:0.67869997024536133] [0:0.63169997930526733] [0:0.58249998092651367] [0:0.46369999647140503] [0:0.63099998235702515] [0:0.68010002374649048] [0:0.56610000133514404] [0:0.5877000093460083] [0:0.57080000638961792] [0:0.71219998598098755] [0:0.84619998931884766] [0:0.52730000019073486] [0:0.70370000600814819] [0:0.72100001573562622] [0:0.65829998254776001] [0:0.66960000991821289] [0:0.71100002527236938] [0:0.87870001792907715] [0:0.63330000638961792] [0:0.61989998817443848] [0:0.81300002336502075] [0:0.76440000534057617] [0:0.69809997081756592] [0:0.58840000629425049] [0:0.81410002708435059] [0:0.73769998550415039] [0:0.64829999208450317] [0:0.85519999265670776] [0:0.85809999704360962] [0:0.75440001487731934] [0:0.71039998531341553] [0:0.57039999961853027] [0:0.56879997253417969] [0:0.74080002307891846] [0:0.84170001745223999] [0:0.48949998617172241] [0:0.65590000152587891] [0:0.63300001621246338] [0:0.49149999022483826] [0:0.62959998846054077] [0:0.68229997158050537] [0:0.71549999713897705] [0:0.59549999237060547] [0:0.62639999389648438] [0:0.75999999046325684] [0:0.70469999313354492] [0:0.60060000419616699] [0:0.71560001373291016] [0:0.61710000038146973] [0:0.88309997320175171] [0:0.6906999945640564] [0:0.59890002012252808] [0:0.64020001888275146] [0:0.66329997777938843] [0:0.61470001935958862] [0:0.88980001211166382] [0:0.77869999408721924] [0:0.92710000276565552] [0:0.82630002498626709] [0:0.77920001745223999] [0:0.89069998264312744] [0:0.84320002794265747] [0:0.74870002269744873] [0:0.65429997444152832] [0:1.2136000394821167] [0:0.95130002498626709] [0:0.67070001363754272] [0:0.61979997158050537] [0:1.2005000114440918] [0:0.73250001668930054] [0:0.72979998588562012] [0:0.57840001583099365] [0:0.54409998655319214] [0:0.51709997653961182] [0:0.67350000143051147] [0:0.54850000143051147] [0:0.63669997453689575] [0:0.55299997329711914] [0:0.59429997205734253] [0:0.88400000333786011] [0:0.99559998512268066] [0:0.75] [0:0.74769997596740723] [0:0.88969999551773071] [0:1.2973999977111816] [0:0.79070001840591431] [0:0.85920000076293945] [0:0.86260002851486206] [0:0.88169997930526733] [0:0.88279998302459717] [0:0.89770001173019409] [0:0.97960001230239868] [0:0.78159999847412109] [0:0.7468000054359436] [0:0.76730000972747803] [0:0.62319999933242798] [0:0.58649998903274536] [0:0.48149999976158142] [0:0.69760000705718994] [0:0.68599998950958252] [0:0.58050000667572021] [0:0.61349999904632568] [0:0.62959998846054077] [0:0.54670000076293945] [0:0.55559998750686646] [0:0.60710000991821289] [0:0.61140000820159912] [0:0.52289998531341553] [0:0.50760000944137573] [0:0.57370001077651978] [0:0.62389999628067017] [0:0.57489997148513794] [0:0.58950001001358032] [0:0.48989999294281006] [0:0.55239999294281006] [0:0.5404999852180481] [0:0.74690002202987671] [0:0.60449999570846558] [0:0.50129997730255127] [0:0.58350002765655518] [0:0.60809999704360962] [0:0.63300001621246338] [0:0.58910000324249268] [0:0.51599997282028198] [0:0.55640000104904175] [0:0.52920001745223999] [0:0.72089999914169312] [0:0.50550001859664917] [0:0.75800001621246338] [0:0.55369997024536133] [0:0.55449998378753662] [0:0.60170000791549683] [0:0.82429999113082886] [0:0.68059998750686646] [0:0.59939998388290405] [0:0.53070002794265747] [0:0.55080002546310425] [0:0.71240001916885376] [0:0.62639999389648438] [0:0.54890000820159912] [0:0.51340001821517944] [0:0.68959999084472656] [0:0.51829999685287476] [0:0.54839998483657837] [0:0.74779999256134033] [0:0.69389998912811279] [0:0.54680001735687256] [0:0.58069998025894165] [0:0.60879999399185181] [0:0.63830000162124634] [0:0.53030002117156982] [0:0.59859997034072876] [0:0.72670000791549683] [0:0.68839997053146362] [0:0.56950002908706665] [0:0.55409997701644897] [0:0.75929999351501465] [0:0.67799997329711914] [0:0.46169999241828918] [0:0.54589998722076416] [0:0.50739997625350952] [0:0.53350001573562622] [0:0.50520002841949463] [0:0.55549997091293335] [0:0.4627000093460083] [0:0.68500000238418579] [0:0.43819999694824219] [0:0.44539999961853027] [0:0.52569997310638428] [0:0.54079997539520264] [0:0.4375] [0:0.51749998331069946] [0:0.46660000085830688] [0:0.5658000111579895] [0:0.4627000093460083] [0:0.80330002307891846] [0:0.93169999122619629] [0:0.66960000991821289] [0:0.5877000093460083] [0:0.7192000150680542] [0:0.66860002279281616] [0:0.68489998579025269] [0:0.65119999647140503] [0:0.64730000495910645] [0:0.63940000534057617] [0:0.633899986743927] [0:0.64550000429153442] [0:0.59350001811981201] [0:0.61360001564025879] [0:0.56300002336502075] [0:0.61650002002716064] [0:0.50529998540878296] [0:0.50929999351501465] [0:0.45379999279975891] [0:0.43470001220703125] [0:0.52679997682571411] [0:0.5746999979019165] [0:0.53579998016357422] [0:0.54269999265670776] [0:0.43540000915527344] [0:0.53649997711181641] [0:0.59769999980926514] [0:0.51230001449584961] [0:0.45879998803138733] [0:0.46529999375343323] [0:0.57709997892379761] [0:0.61030000448226929] [0:0.70240002870559692] [0:0.88510000705718994] [0:0.85140001773834229] [0:0.70209997892379761] [0:0.69419997930526733] [0:0.85530000925064087] [0:0.81309998035430908] [0:0.74210000038146973] [0:0.96429997682571411] [0:0.83730000257492065] [0:0.91130000352859497] [0:0.77469998598098755] [0:0.7685999870300293] [0:0.80419999361038208] [0:0.81779998540878296] [0:0.76059997081756592] [0:0.5471000075340271] [0:0.71380001306533813] [0:0.56449997425079346] [0:0.79610002040863037] [0:0.49729999899864197] [0:0.61000001430511475] [0:0.52600002288818359] [0:0.53799998760223389] [0:0.63559997081756592] [0:0.58939999341964722] [0:0.83060002326965332] [0:0.53600001335144043] [0:0.60049998760223389] [0:0.52789998054504395] [0:0.60559999942779541] [0:0.48249998688697815] [0:0.58859997987747192] [0:0.51109999418258667] [0:0.56999999284744263] [0:0.59340000152587891] [0:0.51239997148513794] [0:0.62349998950958252] [0:0.55199998617172241] [0:0.59729999303817749] [0:0.64139997959136963] [0:0.63470000028610229] [0:0.63929998874664307] [0:0.54479998350143433] [0:0.61970001459121704] [0:0.57910001277923584] [0:0.56379997730255127] [0:0.64840000867843628] [0:0.74250000715255737] [0:0.74400001764297485] [0:0.5942000150680542] [0:0.62989997863769531] [0:0.58950001001358032] [0:0.61299997568130493] [0:0.61629998683929443] [0:0.64490002393722534] [0:0.60570001602172852] [0:0.56540000438690186] [0:0.55870002508163452] [0:0.53769999742507935] [0:0.55010002851486206] [0:0.55430001020431519] [0:0.61570000648498535] [0:0.5131000280380249] [0:0.87999999523162842] [0:0.80519998073577881] [0:0.70020002126693726] [0:0.81360000371932983] [0:0.87089997529983521] [0:0.87809997797012329] [0:0.98030000925064087] [0:0.91540002822875977] [0:1.0658999681472778] [0:0.86710000038146973] [0:0.90420001745223999] [0:0.88080000877380371] [0:0.86650002002716064] [0:0.75279998779296875] [0:0.82700002193450928] [0:0.83329999446868896] [0:0.55220001935958862] [0:0.57209998369216919] [0:0.59820002317428589] [0:0.50739997625350952] [0:0.57950001955032349] [0:0.66530001163482666] [0:0.60439997911453247] [0:0.63660001754760742] [0:0.63760000467300415] [0:0.60399997234344482] [0:0.61619997024536133] [0:0.70230001211166382] [0:0.52590000629425049] [0:0.54869997501373291] [0:0.7752000093460083] [0:0.7160000205039978] [0:0.61710000038146973] [0:0.53839999437332153] [0:0.62099999189376831] [0:0.50190001726150513] [0:0.51800000667572021] [0:0.5788000226020813] [0:0.72759997844696045] [0:0.60939997434616089] [0:0.49309998750686646] [0:0.61449998617172241] [0:0.61760002374649048] [0:0.56199997663497925] [0:0.45350000262260437] [0:0.48539999127388] [0:0.58050000667572021] [0:0.53570002317428589] [0:0.80540001392364502] [0:0.64010000228881836] [0:0.55680000782012939] [0:0.53649997711181641] [0:0.63819998502731323] [0:0.61680001020431519] [0:0.60229998826980591] [0:0.4763999879360199] [0:0.56260001659393311] [0:0.60159999132156372] [0:0.57800000905990601] [0:0.53700000047683716] [0:0.57410001754760742] [0:0.76969999074935913] [0:0.71640002727508545] [0:0.54979997873306274] [0:0.79180002212524414] [0:0.91089999675750732] [0:0.87300002574920654] [0:0.81330001354217529] [0:0.85479998588562012] [0:0.89490002393722534] [0:0.93349999189376831] [0:0.81919997930526733] [0:0.83389997482299805] [0:0.88919997215270996] [0:0.92760002613067627] [0:0.84179997444152832] [0:0.92330002784729004] [0:0.99879997968673706] [0:0.93000000715255737] [0:0.93400001525878906] [0:0.53439998626708984] [0:0.70690000057220459] [0:0.70759999752044678] [0:0.7271999716758728] [0:0.63440001010894775] [0:0.65710002183914185] [0:0.7565000057220459] [0:0.65069997310638428] [0:0.60619997978210449] [0:0.65280002355575562] [0:0.71700000762939453] [0:0.63109999895095825] [0:0.57260000705718994] [0:0.62650001049041748] [0:0.77670001983642578] [0:0.57270002365112305] [0:0.7214999794960022] [0:0.56749999523162842] [0:0.91140002012252808] [0:0.73650002479553223] [0:0.54739999771118164] [0:0.93540000915527344] [0:0.66449999809265137] [0:0.60409998893737793] [0:0.65390002727508545] [0:0.75459998846054077] [0:0.91750001907348633] [0:0.59219998121261597] [0:0.59530001878738403] [0:0.66159999370574951] [0:0.61790001392364502] [0:0.54720002412796021] [0:0.54930001497268677] [0:0.9440000057220459] [0:0.84520000219345093] [0:0.65469998121261597] [0:0.63520002365112305] [0:0.78130000829696655] [0:1.0615999698638916] [0:0.75770002603530884] [0:0.57510000467300415] [0:0.61210000514984131] [0:0.63620001077651978] [0:0.60799998044967651] [0:0.59049999713897705] [0:0.694100022315979] [0:0.7336999773979187] [0:0.52100002765655518] [0:0.88730001449584961] [0:0.85269999504089355] [0:0.87070000171661377] [0:0.90390002727508545] [0:1.0061999559402466] [0:0.89139997959136963] [0:0.94760000705718994] [0:0.91210001707077026] [0:0.98180001974105835] [0:1.003600001335144] [0:0.96630001068115234] [0:0.97060000896453857] [0:0.94440001249313354] [0:0.9122999906539917] [0:0.92820000648498535] [0:0.96890002489089966] [0:0.60180002450942993] [0:0.52359998226165771] [0:0.6711999773979187] [0:0.59399998188018799] [0:0.71880000829696655] [0:0.73890000581741333] [0:0.68000000715255737] [0:0.63630002737045288] [0:0.73589998483657837] [0:0.65439999103546143] [0:0.70349997282028198] [0:0.71909999847412109] [0:0.56760001182556152] [0:0.66339999437332153] [0:0.61720001697540283] [0:0.55729997158050537] [0:0.71310001611709595] [0:0.52340000867843628] [0:0.68169999122619629] [0:0.52590000629425049] [0:0.59600001573562622] [0:0.63550001382827759] [0:1.0749000310897827] [0:0.69029998779296875] [0:0.60610002279281616] [0:0.60290002822875977] [0:0.78039997816085815] [0:0.55419999361038208] [0:0.55729997158050537] [0:0.64259999990463257] [0:0.67479997873306274] [0:0.76510000228881836] [0:0.62120002508163452] [0:0.705299973487854] [0:0.66869997978210449] [0:0.60269999504089355] [0:0.5745999813079834] [0:0.60839998722076416] [0:1.0752999782562256] [0:0.57899999618530273] [0:0.6753000020980835] [0:0.73360002040863037] [0:0.6711999773979187] [0:0.63419997692108154] [0:0.53090000152587891] [0:0.76740002632141113] [0:0.59589999914169312] [0:0.59049999713897705] [0:0.67949998378753662] [0:0.72049999237060547] [0:0.95679998397827148] [0:0.61440002918243408] [0:0.60159999132156372] [0:0.67159998416900635] [0:0.79490000009536743] [0:0.8320000171661377] [0:0.50190001726150513] [0:0.76270002126693726] [0:0.78229999542236328] [0:0.60060000419616699] [0:0.57050001621246338] [0:0.81599998474121094] [0:0.81410002708435059] [0:0.59799998998641968] [0:0.55339998006820679] [0:0.49900001287460327] [0:0.49529999494552612] [0:0.51109999418258667] [0:0.56120002269744873] [0:0.7663000226020813] [0:0.51010000705718994] [0:0.49919998645782471] [0:0.5404999852180481] [0:0.6524999737739563] [0:0.71369999647140503] [0:0.50389999151229858] [0:0.5461999773979187] [0:0.4830000102519989] [0:0.53159999847412109] [0:0.46560001373291016] [0:0.6128000020980835] [0:0.67189997434616089] [0:0.73019999265670776] [0:0.62379997968673706] [0:0.72320002317428589] [0:0.7149999737739563] [0:0.73290002346038818] [0:0.8375999927520752] [0:0.76010000705718994] [0:0.71960002183914185] [0:0.73570001125335693] [0:0.85100001096725464] [0:0.60540002584457397] [0:0.66200000047683716] [0:0.70319998264312744] [0:0.65960001945495605] [0:0.53189998865127563] [0:0.47879999876022339] [0:0.56770002841949463] [0:0.42809998989105225] [0:0.54549998044967651] [0:0.73210000991821289] [0:0.5559999942779541] [0:0.48489999771118164] [0:0.52789998054504395] [0:0.57059997320175171] [0:0.59299999475479126] [0:0.51190000772476196] [0:0.43050000071525574] [0:0.49610000848770142] [0:0.55580002069473267] [0:0.53350001573562622] [0:47.079062999999998] [0:40.149990000000003] [0:43.11168] [0:1] [0:33981424000]
tree_sizes=2935 2938 2956 2957 2972 2982 2953 2964 2966 2978 2987 3003 3010 3010 3017 3014 3037 3047 3060 3034 3095 3076 3068 3061 3073 3085 3095 3093 3097 3102 3084 3108 3108 3094 3108 3094 3079 3109 3108 3116 3106 3102 3099 3073 3108 3061 3079 3120 3074 3109 3106 3091 3104 3078 3092 3112 3111 3072 3075 3136 3107 3080 3098 3059 3139 2979 3120 3094 3050 3005 3066 3114 3083 3103 3026 3059 3066 3073 3073 2968 3097 3040 3040 3084 3083 3036 3022 3085 3090 3033 3071 2802 2944 3055 3010 3004 2940 2966 3012 3058

Tree=0
num_leaves=31
num_cat=0
split_feature=961 963 964 964 961 961 963 964 963 964 964 963 963 964 964 963 960 963 964 964 964 963 964 963 964 963 964 963 964 964
split_gain=214328 71100.7 43670.3 30573.9 24628.8 18935.4 11129 13155.2 9750.88 18947.6 8353.1 10214.3 7359.27 5275.94 3982.31 3897.39 3645.78 3240.47 8664.22 4074.19 3237.93 4523.48 2988.6 2762.22 2609.24 2389.94 2346.99 2901.98 4802.93 2316.72
threshold=0.86719675000000007 0.79785640000000013 1.0882803000000003 1.1085600500000001 0.47193499000000005 1.2343302500000004 0.72158212500000019 0.87468782500000009 0.86164760000000007 0.93471325000000005 0.98319980000000007 0.91089256500000015 0.76543420000000018 1.1217909000000004 1.0312484500000003 0.7640861550000001 0.18496562500000002 0.87138255000000009 0.94865140500000011 0.98020789000000008 0.90091355000000017 0.83697001500000001 0.96226502000000014 0.91913705000000012 0.91347330000000004 0.95384613500000015 1.0392531500000002 0.8788421500000001 0.94785308000000013 0.83254362500000012
decision_type=2 2 2 2 2 2 2 2 2 2 2 2 2 2 2 2 2 2 2 2 2 2 2 2 2 2 2 2 2 2
left_child=3 6 5 4 16 17 -2 15 9 20 -10 -12 -6 -4 -13 29 -1 18 -3 -19 -7 -22 -11 -21 -9 -16 27 28 -14 -8
right_child=1 2 13 -5 12 8 7 24 10 22 11 14 26 -15 25 -17 -18 19 -20 23 21 -23 -24 -25 -26 -27 -28 -29 -30 -31
leaf_value=1.3099238957391899 1.5866469363543367 1.828342118757293 1.5318658256517148 1.073542002084066 1.5374609855505137 1.9959737345668758 1.8143318074762935 1.6675944523606141 2.0308101327104651 1.7657150372056869 1.7446555411737148 2.0199373329529138 1.6903405028779692 1.1715609001657565 1.7116736626253179 1.8689209840333723 1.4656232792545036 1.9402702092223745 1.6284987188123179 1.7150852677624244 1.8132283993503373 1.9793493817276993 1.6038946617385326 1.8594763195225743 1.5446345427686807 1.927589148351941 1.5268991319151599 1.7509519640179552 1.5384491874026014 1.6838431636180624
leaf_weight=6796 35612 29949 3502 5648 31902 22077 9973 19938 46701 12591 11238 19930 26391 3034 2885 17870 52384 13236 12218 9049 13812 12482 7162 12790 10559 7090 5018 13236 12166 11980
leaf_count=6796 35612 29949 3502 5648 31902 22077 9973 19938 46701 12591 11238 19930 26391 3034 2885 17870 52384 13236 12218 9049 13812 12482 7162 12790 10559 7090 5018 13236 12166 11980
internal_value=0 9.07098 9.37245 7.65115 7.73835 9.4439 8.3887 8.61936 9.64442 9.3605 9.86461 9.53608 8.07166 6.82306 9.84152 8.99786 7.23872 9.03899 8.85218 9.26357 9.69751 9.46044 8.53521 8.99824 8.12511 9.32571 8.28749 8.35076 8.21207 8.71561
internal_weight=0 345678 239746 153541 147893 233210 105932 70320 155968 68124 87844 41143 88713 6536 29905 39823 59180 77242 42167 35075 48371 26294 19753 21839 30497 9975 56811 51793 38557 21953
internal_count=499219 345678 239746 153541 147893 233210 105932 70320 155968 68124 87844 41143 88713 6536 29905 39823 59180 77242 42167 35075 48371 26294 19753 21839 30497 9975 56811 51793 38557 21953
shrinkage=0.2


Tree=1
num_leaves=31
num_cat=0
split_feature=961 963 964 961 964 963 964 961 964 963 963 964 964 963 964 961 964 964 963 964 963 964 963 963 963 964 963 964 964 960
split_gain=139131 44121.4 26684.5 24569.3 12040.8 9383.15 11842.4 8090.29 7733.92 6338.62 4353.89 12084.5 4838.24 5424.89 4138.29 3379.43 2671.31 2555.63 3494 2547.77 6753.37 2697.41 2695.86 2509.95 2418.73 3180.73 2370.81 2964.92 2340.19 2166.13
threshold=0.93897370000000013 0.81137210000000015 1.0808665000000002 0.56351493000000008 1.0808665000000002 0.74307024500000007 0.8907269200000002 1.3368980500000001 1.0977470500000004 0.8056751350000001 0.87320275000000003 0.94157955000000004 0.99999985000000013 0.9300712000000001 1.1400984000000001 0.28644071500000007 0.90642587500000016 0.96715723000000009 0.89494105000000013 0.93620060000000016 0.88077312000000008 0.99999985000000013 0.9337561000000002 0.6989535400000001 0.67113668000000015 0.82698943000000014 0.77929043000000009 0.84080527500000013 0.98525848000000005 1.0458411500000002
decision_type=2 2 2 2 2 2 2 2 2 2 2 2 2 2 2 2 2 2 2 2 2 2 2 2 2 2 2 2 2 2
left_child=3 5 7 4 15 24 26 19 9 16 11 -9 -12 -14 -4 29 23 -11 -19 -3 -21 -22 -23 -5 -2 -26 27 -7 -13 -1
right_child=1 2 14 8 -6 6 -8 10 -10 17 12 28 13 -15 -16 -17 -18 18 -20 20 21 22 -24 -25 25 -27 -28 -29 -30 -31
leaf_value=1.0988196935735617 1.2226195109342182 1.5317549303131408 1.2202771267188959 1.2184546506294764 0.85442324815952042 1.5222151090053571 1.3017485739260304 1.580602688436477 0.97801531255987362 1.4090573794288674 1.6388225695883674 1.4174326586399071 1.3895175568580387 1.5927613108933296 0.86661119865651737 1.2181098992625468 1.1683638271801964 1.2288348914980771 1.3840800060603993 1.3650951791570975 1.5660495704980428 1.3564437832668632 1.5222725400840544 1.3260038121601769 1.3863861095008583 1.2543090638158114 1.5188838009826471 1.3720733525742366 1.228814445320805 1.2043187296491382
leaf_weight=24793 14992 24129 5219 13749 4997 8173 27195 41145 2811 25325 39973 14632 7906 15655 1773 36693 9665 10134 13556 21044 16854 6845 9181 23542 14836 14346 20734 14766 3208 11348
leaf_count=24793 14992 24129 5219 13749 4997 8173 27195 41145 2811 25325 39973 14632 7906 15655 1773 36693 9665 10134 13556 21044 16854 6845 9181 23542 14836 14346 20734 14766 3208 11348
internal_value=0 7.29804 7.57337 6.19394 5.77375 6.8013 7.02677 7.64031 6.52501 6.5729 7.80061 7.60497 7.98225 7.62281 5.65298 5.87677 6.31033 6.82444 6.58835 7.38869 7.26783 7.55095 7.25722 6.43175 6.43956 6.60728 7.34935 7.12784 6.91758 5.65973
internal_weight=0 322606 207564 176613 77831 115042 70868 200572 98782 95971 122519 58985 63534 23561 6992 72834 46956 49015 23690 78053 53924 32880 16026 37291 44174 29182 43673 22939 17840 36141
internal_count=499219 322606 207564 176613 77831 115042 70868 200572 98782 95971 122519 58985 63534 23561 6992 72834 46956 49015 23690 78053 53924 32880 16026 37291 44174 29182 43673 22939 17840 36141
shrinkage=0.2


Tree=2
num_leaves=31
num_cat=0
split_feature=961 963 964 964 961 961 964 963 964 963 964 964 963 964 963 964 963 963 964 964 964 963 964 963 233 963 964 963 963 964
split_gain=90114.9 31685.6 22202.2 12893.9 8080.73 8019.75 7455.2 10238 4677.27 4379.32 13362 4335.17 3526.02 4717.2 3496.45 3286.18 3569.65 2310.04 2430.57 2127.67 2086.96 2518.43 2530.75 2005.99 1959.56 1811.22 1702.72 4073.24 1938.07 2002.79
threshold=0.81615685000000016 0.81692016500000009 1.0642035500000002 1.1400984000000001 0.37287677500000005 1.1601210500000001 0.92113695000000007 0.75437220000000005 1.1085600500000001 0.89599527000000012 0.95646235000000013 0.86594751500000011 0.84953635000000016 0.91347330000000004 0.74479520500000007 1.0101134500000002 0.94183030000000012 0.65259332000000014 0.85103930000000017 0.99287533500000003 0.99999985000000013 0.84953635000000016 0.91271993000000007 0.78719333000000014 0.012950000353157522 0.90488961000000012 0.96310497000000017 0.90143200000000012 0.85615149000000013 0.91733620000000016
decision_type=2 2 2 2 2 2 2 2 2 2 2 2 2 2 2 2 2 2 2 2 2 2 2 2 2 2 2 2 2 2
left_child=3 6 5 4 24 26 7 17 -4 10 12 -9 13 -7 -6 -11 -17 -2 -19 -12 21 22 -16 -13 -1 -22 28 -28 29 -3
right_child=1 2 8 -5 14 9 -8 11 -10 15 19 23 -14 -15 20 16 -18 18 -20 -21 25 -23 -24 -25 -26 -27 27 -29 -30 -31
leaf_value=0.82676272882810342 0.96815717489341824 1.2244152644217614 1.0361668245385345 0.60093027680321087 0.95470695578738207 1.2912972341249425 0.96466839591333775 1.2249805271394596 0.77754791255423683 1.3276244757399425 1.1340462696167612 1.0608850254255124 1.3127021395303591 1.1440153528059234 1.0809439017405602 1.1018164222581615 1.2886371576566185 1.093014948588495 0.99210667271040287 1.0046249425885152 0.88469246705606652 1.1329707067123964 0.96841849415900905 1.1518093658489128 0.93075014705599401 1.0316696343587404 1.0442338547530416 1.1941790828874246 1.2554833150078661 1.0871015739623602
leaf_weight=8971 13355 7778 7649 3729 27507 18590 18222 23553 4410 34666 21087 15601 34226 16348 17955 6362 11461 31849 13636 6694 5573 13765 14412 25685 37755 8422 13735 15340 11519 9364
leaf_count=8971 13355 7778 7649 3729 27507 18590 18222 23553 4410 34666 21087 15601 34226 16348 17955 6362 11461 31849 13636 6694 5573 13765 14412 25685 37755 8422 13735 15340 11519 9364
internal_value=0 5.78867 6.02698 4.83887 4.88978 6.10376 5.4205 5.50848 4.70795 6.22606 6.10009 5.78256 6.33539 6.11191 5.06885 6.45871 6.10975 5.20645 5.31382 5.51431 5.20396 5.30657 5.1542 5.58726 4.55393 4.86571 5.78723 5.61673 5.9602 5.74703
internal_weight=0 361130 219229 138089 134360 207170 141901 123679 12059 149434 96945 64839 69164 34938 87634 52489 17823 58840 45485 27781 60127 46132 32367 41286 46726 13995 57736 29075 28661 17142
internal_count=499219 361130 219229 138089 134360 207170 141901 123679 12059 149434 96945 64839 69164 34938 87634 52489 17823 58840 45485 27781 60127 46132 32367 41286 46726 13995 57736 29075 28661 17142
shrinkage=0.2


Tree=3
num_leaves=31
num_cat=0
split_feature=961 963 961 964 963 964 964 964 963 964 963 963 964 964 963 964 964 963 964 810 963 964 963 963 964 963 963 964 964 964
split_gain=59058.5 18844 11533.1 10393.7 7562.19 10423.5 6375.23 4649.34 8275.74 3557.67 3656.64 3086.05 3018.04 2469.31 3421.45 2197.21 1944.97 2839.2 1916.36 1858.09 1783.62 1694.18 1666.68 1664.17 1621.21 1544.36 1541.83 2202.11 1441.54 1344.18
threshold=0.96825795000000003 0.7768854850000001 0.62291750000000012 1.0598968000000004 0.84710902500000007 0.92188643500000012 1.0642035500000002 0.96390517500000017 0.90604036500000007 1.0692390500000004 0.84455887500000015 0.80471153000000006 1.1217909000000004 0.87250742500000011 0.69591948500000012 0.89756050000000009 1.0118627500000004 0.95384613500000015 0.93317572000000004 0.022149999625980858 0.94640925000000009 0.99769647000000006 0.77810428000000009 0.80852383500000002 0.96053703000000012 0.82759895000000017 0.88364053500000017 0.92561492500000009 1.1708301500000002 0.98940125000000012
decision_type=2 2 2 2 2 2 2 2 2 2 2 2 2 2 2 2 2 2 2 2 2 2 2 2 2 2 2 2 2 2
left_child=2 13 6 4 5 15 11 26 21 10 18 19 20 14 -2 23 -10 -18 22 -1 -5 -9 -4 -3 -7 -17 27 -6 -8 -12
right_child=1 3 9 12 7 24 28 8 16 -11 29 -13 -14 -15 -16 25 17 -19 -20 -21 -22 -23 -24 -25 -26 -27 -28 -29 -30 -31
leaf_value=0.67469522556930794 0.79924758361255033 0.96846241233088848 0.8115659127441841 0.647412438583848 1.0868928330547838 0.86024623903480091 0.62383455049401015 0.92026386644574354 1.0581338586868354 0.66598915526820068 0.94258222761620469 0.81687639275900803 0.58530472509070985 0.77817664096637096 0.90491604817327931 0.88836131372641192 0.89683375598747039 1.0507575875429433 0.74700564651079138 0.75504410317588389 0.87709778988354614 0.81667373250392084 0.88747004934353857 1.0508371034882706 0.7550570800445926 0.99042472357226652 1.0965610775893992 0.99077077051927387 0.42927889109620021 0.8591098924603302
leaf_weight=15882 19242 22968 31734 1683 14752 22631 4317 22574 27571 4344 17885 25155 2582 16607 33764 15249 9415 9765 10993 41844 6884 8768 18212 17124 7909 9704 16784 26950 2354 13573
leaf_count=15882 19242 22968 31734 1683 14752 22631 4317 22574 27571 4344 17885 25155 2582 16607 33764 15249 9415 9765 10993 41844 6884 8768 18212 17124 7909 9704 16784 26950 2354 13573
internal_value=0 4.68614 3.97498 4.8174 4.86269 4.64696 3.71637 5.01368 4.85401 4.21437 4.25595 3.79207 3.87425 4.22736 4.33278 4.87323 5.12055 4.876 4.11302 3.66469 4.15988 4.45642 4.19622 5.01823 4.16503 4.64026 5.22687 5.12387 2.77591 4.53283
internal_weight=0 312926 186293 243313 232164 95585 89552 136579 78093 96741 92397 82881 11149 69613 53006 65045 46751 19180 60939 57726 8567 31342 49946 40092 30540 24953 58486 41702 6671 31458
internal_count=499219 312926 186293 243313 232164 95585 89552 136579 78093 96741 92397 82881 11149 69613 53006 65045 46751 19180 60939 57726 8567 31342 49946 40092 30540 24953 58486 41702 6671 31458
shrinkage=0.2


Tree=4
num_leaves=31
num_cat=0
split_feature=961 963 961 964 964 964 963 964 963 963 964 964 964 963 963 963 964 963 964 963 553 963 964 963 964 964 964 963 964 964
split_gain=38332.9 11617.8 9363.69 7152.65 4191.82 4071.71 4711.93 3051.48 3674.13 2631.68 5985.31 2463.17 2408.36 2205.46 2200.72 2008.24 3113.83 1987.91 1714.28 1646.04 1497.55 1429.4 1268.33 1994.4 1190.42 1176.01 1093.88 1702.64 1041.76 989.917
threshold=1.0587612500000001 0.82759895000000017 0.63218610000000008 1.0421004000000003 1.0517841500000003 0.93157580000000018 0.74479520500000007 1.0517841500000003 0.82934076500000009 0.92518010000000006 0.97530292500000015 1.1085600500000001 0.88341026500000008 0.77572150000000006 0.96558348000000016 0.8759720150000001 0.92776306500000005 0.88575205000000012 0.90171062000000013 0.73206049000000017 0.023149999789893631 0.79785640000000013 0.94628502500000011 0.91347645000000022 0.85103930000000017 1.2489259500000003 0.94077178500000014 0.86956546000000012 0.99519205000000011 1.1708301500000002
decision_type=2 2 2 2 2 2 2 2 2 2 2 2 2 2 2 2 2 2 2 2 2 2 2 2 2 2 2 2 2 2
left_child=2 5 4 9 13 6 -2 8 18 10 15 14 21 20 -5 16 -3 -12 19 -4 -1 24 -10 28 -8 -6 -15 -28 -24 -9
right_child=1 3 7 11 25 -7 12 29 22 -11 17 -13 -14 26 -16 -17 -18 -19 -20 -21 -22 -23 23 -25 -26 -27 27 -29 -30 -31
leaf_value=0.5325561574816442 0.66280951012681388 0.84241082033784065 0.63876135889644003 0.59633950580717698 0.49405590224723278 0.5990365343164028 0.80744094637324348 0.58208216846080096 0.77779222182896213 0.86390493129087409 0.6491310446092633 0.49683811415457174 0.71153352526823332 0.69374430345574123 0.77052349663871111 0.86020225274950191 0.75236963459253525 0.75408749792547802 0.6096937375411593 0.7129618936442208 0.6060715284072119 0.84909144051343832 0.70203007509460158 0.78027983502448861 0.72356853554814471 0.29873791964392088 0.55678303769749538 0.67713250253809454 0.60909281292732342 0.35617886691735212
leaf_weight=16149 36612 30636 22412 4895 6371 12202 12434 6560 14903 24503 11137 2994 32630 13285 7124 30259 30816 20515 20860 25640 35337 10343 17228 10581 14857 1529 9126 9700 6701 880
leaf_count=16149 36612 30636 22412 4895 6371 12202 12434 6560 14903 24503 11137 2994 32630 13285 7124 30259 30816 20515 20860 25640 35337 10343 17228 10581 14857 1529 9126 9700 6701 880
internal_value=0 3.77985 3.22093 3.95341 2.97754 3.54245 3.60493 3.39801 3.43707 4.02018 3.96073 3.29575 3.75649 3.04334 3.49792 4.09013 3.98629 3.58579 3.28785 3.39177 2.91506 3.92888 3.64516 3.53988 3.80891 2.28127 3.24901 3.09396 3.38002 2.77681
internal_weight=0 281957 217262 162879 91497 119078 106876 125765 118325 147866 123363 15013 70264 83597 12019 91711 61452 31652 68912 48052 51486 37634 49413 34510 27291 7900 32111 18826 23929 7440
internal_count=499219 281957 217262 162879 91497 119078 106876 125765 118325 147866 123363 15013 70264 83597 12019 91711 61452 31652 68912 48052 51486 37634 49413 34510 27291 7900 32111 18826 23929 7440
shrinkage=0.2


Tree=5
num_leaves=31
num_cat=0
split_feature=961 963 964 963 964 964 814 964 964 963 963 964 963 963 964 964 963 963 964 964 964 963 964 963 964 963 964 963 960 964
split_gain=24671.8 9899.89 6405.64 4483.5 6450.97 3526.89 2785.1 2513.7 2475.77 3314.21 2387.51 2218.37 2388.99 1777.92 1708.36 1679.73 1395.8 1332.47 1896.14 1325.22 1133.59 1705.91 1118.16 1000.51 959.763 1717.04 951.828 1336.64 895.223 796.29
threshold=0.77566075000000012 0.78611320000000007 1.0392531500000002 0.86421117500000011 0.91962366500000015 1.1217909000000004 0.01625000033527613 1.1708301500000002 0.9501709650000002 0.91488865000000008 0.93759232000000015 0.88061875000000012 0.70455360500000008 0.68932395000000013 0.98729407000000013 0.96987573500000013 0.83945610000000015 0.83098240000000012 0.88159349500000006 0.84080527500000013 0.99769647000000006 0.94640925000000009 1.0977470500000004 0.8887343350000001 0.86362398500000015 0.79575478500000008 0.97443275000000018 0.89703258000000019 0.81224078000000011 0.99519205000000011
decision_type=2 2 2 2 2 2 2 2 2 2 2 2 2 2 2 2 2 2 2 2 2 2 2 2 2 2 2 2 2 2
left_child=5 11 3 4 17 6 -1 10 -5 14 -4 12 -2 28 23 16 -6 18 -3 -14 -11 -22 -12 -10 -15 -26 -27 -28 -8 -13
right_child=1 2 7 8 15 -7 13 -9 9 20 22 29 19 24 -16 -17 -18 -19 -20 -21 21 -23 -24 -25 25 26 27 -29 -30 -31
leaf_value=0.42972537516324022 0.50957536746865995 0.66690427911026706 0.40171315225244691 0.70543692961944315 0.53114493421886733 0.31255234457391323 0.41984446615781484 0.23706686778145852 0.59146381983663987 0.72277588726118669 0.59202096088378109 0.49189326850209991 0.61662767161951304 0.57989257980870235 0.55085120056064452 0.48111471453413079 0.59845972645389567 0.67764378075350218 0.58689867443601562 0.55007580622930108 0.60248087067805756 0.70863023530182367 0.47193628929953724 0.65945022229297123 0.45906706335229758 0.56553078476776186 0.44501335418571825 0.55228815103920392 0.49256079486082571 0.28619643868028566
leaf_weight=21071 29022 19565 4791 24943 24842 4347 9560 1276 16446 14537 12420 23235 23193 11799 17656 12008 24447 21938 30046 24729 12934 11388 4134 18285 14959 22817 8339 10491 23223 778
leaf_count=21071 29022 19565 4791 24943 24842 4347 9560 1276 16446 14537 12420 23235 23193 11799 17656 12008 24447 21938 30046 24729 12934 11388 4134 18285 14959 22817 8339 10491 23223 778
internal_value=0 2.95887 3.05824 3.10452 2.97903 2.44791 2.47938 2.54874 3.24799 3.17167 2.63024 2.69149 2.7743 2.54825 3.00753 2.74096 2.82266 3.183 3.09225 2.91143 3.39295 3.26091 2.81016 3.13628 2.64002 2.58594 2.69032 2.5239 2.35678 2.42614
internal_weight=0 372613 271656 249035 132846 126606 122259 22621 116189 91246 21345 100957 76944 101188 52387 61297 49289 71549 49611 47922 38859 24322 16554 34731 68405 56606 41647 18830 32783 24013
internal_count=499219 372613 271656 249035 132846 126606 122259 22621 116189 91246 21345 100957 76944 101188 52387 61297 49289 71549 49611 47922 38859 24322 16554 34731 68405 56606 41647 18830 32783 24013
shrinkage=0.2


Tree=6
num_leaves=31
num_cat=0
split_feature=961 68 869 642 963 653 961 963 963 964 75 929 718 964 963 333 963 964 963 964 964 688 964 2 782 710 788 963 963 964
split_gain=17180.1 5559.4 4600.62 4492.74 3735.85 2914.4 2760.78 2756.17 2994.05 2353.67 2152.63 1544.49 1397.96 1333.53 1310.01 1274.24 1214.17 1372.33 1611.63 1207.38 1170.96 1131.88 1054.96 1001.73 944.347 889.151 827.338 824.089 800.335 881.673
threshold=1.0861598500000003 0.21344999969005587 0.022950000129640106 0.1568500027060509 0.76689265000000006 0.14985000342130664 1.4904722500000003 0.99999997000000007 0.81508955000000005 0.89335605500000015 0.20165000110864642 0.021049999631941322 0.13675000518560412 0.90252597000000012 0.65783785000000006 0.073349997401237502 0.86421117500000011 1.0205993500000001 0.94872695000000007 0.99999985000000013 0.99519205000000011 0.10514999926090242 0.95968568500000007 0.14074999839067462 0.23365000635385516 0.15644999593496325 0.031349999830126769 0.65259332000000014 0.93196368000000007 0.96897995000000015
decision_type=2 2 2 2 2 2 2 2 2 2 2 2 2 2 2 2 2 2 2 2 2 2 2 2 2 2 2 2 2 2
left_child=2 3 19 4 -2 -5 25 8 9 14 26 -8 23 -10 -4 -7 22 28 -19 27 -11 -14 -15 -13 -17 -6 -3 -1 29 -18
right_child=1 10 7 5 6 15 11 -9 13 20 -12 12 21 16 -16 24 17 18 -20 -21 -22 -23 -24 -25 -26 -27 -28 -29 -30 -31
leaf_value=0.31146283503721484 0.44726825736135817 0.34680712452873858 0.38763003864681844 0.48780015547773448 0.50373956647901841 0.27326545987230277 0.3921750100387893 0.2610037897831628 0.5472603968189319 0.37811087531761389 0.29008031174544285 0.58025012576073542 0.54925954084489981 0.44422225228172396 0.44683982781947873 0.43652087818216467 0.52035671277777074 0.35192857630251329 0.49121431396137727 0.27566845143997498 0.27022212540262647 0.44337727959828799 0.3638810915494497 0.5104586385587585 0.34784155457248761 0.43822557505513643 0.4647720194825567 0.38658802804324133 0.57647006580581583 0.45001081794520764
leaf_weight=8115 32510 3293 22199 32113 74465 2865 2437 4037 6016 31652 6687 48562 9104 19888 45752 18901 12460 7266 6123 7537 4610 7258 9739 9904 6440 9324 8560 20840 3912 16650
leaf_count=8115 32510 3293 22199 32113 74465 2865 2437 4037 6016 31652 6687 48562 9104 19888 45752 18901 12460 7266 6123 7537 4610 7258 9739 9904 6440 9324 8560 20840 3912 16650
internal_value=0 2.43269 2.06011 2.4713 2.54556 2.233 2.60797 2.12248 2.1402 2.0277 1.90406 2.74432 2.76983 2.28308 2.13748 1.99846 2.24722 2.34818 2.07813 1.73486 1.82197 2.51146 2.08906 2.84214 2.06992 2.48225 2.16 1.82767 2.45768 2.40061
internal_weight=0 272423 226796 253883 193564 60319 161054 190304 186267 104213 18540 77265 74828 82054 67951 28206 76038 46411 13389 36492 36262 16362 29627 58466 25341 83789 11853 28955 33022 29110
internal_count=499219 272423 226796 253883 193564 60319 161054 190304 186267 104213 18540 77265 74828 82054 67951 28206 76038 46411 13389 36492 36262 16362 29627 58466 25341 83789 11853 28955 33022 29110
shrinkage=0.2


Tree=7
num_leaves=31
num_cat=0
split_feature=888 961 711 712 142 788 964 963 651 963 644 964 963 1 961 72 964 963 964 963 684 641 964 963 964 68 964 705 108 115
split_gain=11237.1 7613.43 3665.8 2782.25 2229.39 2209.42 2121.57 2694.81 2081.35 1775.78 1663.5 1532.47 1314.83 1219.21 1095.33 1028.83 928.786 1294.84 891.388 1043.77 859.318 751.232 717.8 1077.29 672.675 648.165 640.762 629.309 569.498 630.414
threshold=0.021049999631941322 1.1946038500000002 0.17185000330209735 0.16465000063180926 0.21294999867677691 0.018949999473989013 1.0642035500000002 0.83945610000000015 0.12695000320672992 0.83363235000000013 0.10925000160932542 0.91115917000000002 0.79679577000000013 0.13904999941587451 1.4689489500000001 0.1714499965310097 0.94865140500000011 0.89173733500000008 0.91271993000000007 0.77070376500000004 0.12994999438524249 0.20085000246763232 1.0085664000000001 0.95931145000000007 1.1708301500000002 0.16035000234842303 0.96310497000000017 0.15824999660253528 0.10315000265836717 0.11564999818801881
decision_type=2 2 2 2 2 2 2 2 2 2 2 2 2 2 2 2 2 2 2 2 2 2 2 2 2 2 2 2 2 2
left_child=5 6 4 -4 8 15 7 11 9 18 -10 12 -2 -6 -11 26 -9 -18 19 -3 -12 27 -19 -24 -8 -7 -1 -5 -16 -30
right_child=1 2 3 21 13 25 24 16 10 14 20 -13 -14 -15 28 -17 17 22 -20 -21 -22 -23 23 -25 -26 -27 -28 -29 29 -31
leaf_value=0.28082924964782846 0.33676039518979728 0.38351088718482851 0.38961396319012009 0.34028130646823979 0.39543421820671076 0.33181420605092143 0.28398800968050503 0.41922419779339215 0.41931361010721518 0.42325732728941717 0.36392340055425199 0.30054796427844255 0.39965155345389897 0.27568520551498732 0.48469780023479853 0.15826434336799766 0.33174151111884004 0.42167284625560875 0.35246259335019675 0.44717977765596162 0.27087192360373041 0.22250128777426714 0.32168111176141434 0.44497391569462386 0.15725221134818523 0.24575414697894704 0.21354093840707847 0.24517509353369618 0.4605180188920846 0.33027375283934846
leaf_weight=18686 74773 19487 27313 9875 6682 27003 8376 19452 21190 29641 15004 38984 16173 6926 33645 4621 22520 17365 10729 21845 5398 4933 9151 4107 2094 4022 8121 3875 5136 2092
leaf_count=18686 74773 19487 27313 9875 6682 27003 8376 19452 21190 29641 15004 38984 16173 6926 33645 4621 22520 17365 10729 21845 5398 4933 9151 4107 2094 4022 8121 3875 5136 2092
internal_value=0 1.86748 1.99629 1.74466 2.06139 1.41398 1.73215 1.75484 2.09363 2.15922 1.90033 1.66862 1.73972 1.67243 2.26264 1.2271 1.90916 1.84073 2.01914 2.08581 1.69652 1.44729 1.97459 1.79937 1.2932 1.60329 1.30222 1.56739 2.36878 2.11411
internal_weight=0 436766 223771 45996 177775 62453 212995 202525 164167 122575 41592 129930 90946 13608 70514 31428 72595 53143 52061 41332 20402 18683 30623 13258 10470 31025 26807 13750 40873 7228
internal_count=499219 436766 223771 45996 177775 62453 212995 202525 164167 122575 41592 129930 90946 13608 70514 31428 72595 53143 52061 41332 20402 18683 30623 13258 10470 31025 26807 13750 40873 7228
shrinkage=0.2


Tree=8
num_leaves=31
num_cat=0
split_feature=553 961 196 736 675 520 963 485 961 668 964 964 195 660 682 964 963 963 964 843 964 449 963 962 669 963 964 963 964 964
split_gain=8659.49 4819.24 2328.63 2476.56 2189.09 2017 1956.88 1781.55 1538.41 1334.1 1239.98 1175.75 1043.1 923.765 874.886 772.039 1425.08 744.181 742.963 741.141 737.331 726.908 717.859 684.495 584.964 580.938 846.202 509.15 872.78 468.361
threshold=0.02465000003576279 1.2749850000000003 0.2241499945521355 0.12875000387430194 0.12644999474287036 0.16235000640153888 0.84200039500000012 0.02784999925643206 0.69140225000000011 0.089050002396106734 0.94239175000000008 1.1085600500000001 0.16565000265836718 0.10474999994039537 0.12535000592470172 0.95251855000000007 0.89276510000000009 0.7640861550000001 0.90252597000000012 0.2055500000715256 0.99407792500000014 0.14045000076293948 0.99999997000000007 1.4014491500000001 0.096550002694129958 0.84953635000000016 1.0225910000000002 0.82845023000000018 0.97342303500000005 1.0013638000000002
decision_type=2 2 2 2 2 2 2 2 2 2 2 2 2 2 2 2 2 2 2 2 2 2 2 2 2 2 2 2 2 2
left_child=7 5 3 6 24 8 10 20 22 19 17 15 -4 -11 -6 -8 -17 -3 -19 23 -1 -7 27 25 -5 -10 -27 28 -2 -18
right_child=1 2 12 4 14 21 11 -9 9 13 -12 -13 -14 -15 -16 16 29 18 -20 -21 -22 -23 -24 -25 -26 26 -28 -29 -30 -31
leaf_value=0.20713749627164552 0.26208755612504542 0.29412040592162164 0.28725174054499192 0.36770240529442905 0.25649772312425106 0.24191968993686752 0.39035846732388824 0.25976817062892082 0.30171984586190553 0.2810069456553605 0.23010684659184633 0.170999058552007 0.17819970696231416 0.20381850967289927 0.14109405778839793 0.29845672404817036 0.39267191233746052 0.3587582562445859 0.30424756991153001 0.24135648346879815 0.1384725671329407 0.15382511520625244 0.12040792697987127 0.24147284122066651 0.29143186802423987 0.34625254783059911 0.28104355421277583 0.29160824232127547 0.17368269119843643 0.34726418029471939
leaf_weight=28671 41077 22763 9674 6142 5649 14235 28043 27115 63175 24232 6242 1288 5505 8335 4913 15531 18881 27345 15769 6531 8001 5085 1428 5450 11655 34959 10307 18691 5012 17515
leaf_count=28671 41077 22763 9674 6142 5649 14235 28043 27115 63175 24232 6242 1288 5505 8335 4913 15531 18881 27345 15769 6531 8001 5085 1428 5450 11655 34959 10307 18691 5012 17515
internal_value=0 1.499 1.61479 1.64621 1.37473 1.40341 1.69641 1.10449 1.43071 1.48583 1.57651 1.80282 1.23851 1.30626 1.01408 1.81809 1.74588 1.61688 1.6941 1.53439 0.960782 1.09367 1.30337 1.55318 1.58877 1.57055 1.65702 1.31883 1.26237 1.8541
internal_weight=0 435432 196915 181736 28359 238517 153377 63787 219197 152989 72119 81258 15179 32567 10562 79970 51927 65877 43114 120422 36672 19320 66208 113891 17797 108441 45266 64780 46089 36396
internal_count=499219 435432 196915 181736 28359 238517 153377 63787 219197 152989 72119 81258 15179 32567 10562 79970 51927 65877 43114 120422 36672 19320 66208 113891 17797 108441 45266 64780 46089 36396
shrinkage=0.2


Tree=9
num_leaves=31
num_cat=0
split_feature=581 830 961 641 461 586 817 653 75 964 963 964 450 257 76 680 713 120 7 750 39 695 759 963 963 706 964 963 963 964
split_gain=6540.57 4450.54 2696.48 2010.53 1682.1 1496.64 1392.7 1225.16 1045.4 926.265 1058.7 955.294 865.88 863.904 849.414 814.412 797.618 824.786 834.93 730.123 636.102 633.393 601.604 580.918 568.302 551.376 531.836 679.084 555.04 571.694
threshold=0.031250000000000007 0.027250000275671486 1.4340396000000002 0.16784999519586566 0.15894999355077746 0.033050000667572028 0.031649999320507056 0.1584499999880791 0.20504999905824664 1.1400984000000001 0.85712302000000007 0.94316259000000013 0.1349500045180321 0.15904999524354937 0.17705000191926959 0.09614999964833261 0.14725000411272052 0.096950002014637007 0.11784999817609788 0.10774999856948854 0.0081500001251697558 0.12224999815225603 0.1397499963641167 0.85802445000000016 0.99999997000000007 0.12615000456571582 1.0245914500000002 0.93196368000000007 0.93196368000000007 0.97624278000000009
decision_type=2 2 2 2 2 2 2 2 2 2 2 2 2 2 2 2 2 2 2 2 2 2 2 2 2 2 2 2 2 2
left_child=5 6 4 8 9 14 13 -5 16 10 11 -3 -6 -2 20 26 17 23 -19 -17 -1 -18 -9 -4 25 -22 28 -28 29 -12
right_child=1 2 3 7 12 -7 -8 22 -10 -11 15 -13 -14 -15 -16 19 21 18 -20 -21 24 -23 -24 -25 -26 -27 27 -29 -30 -31
leaf_value=0.098147512155473224 0.16372286665381799 0.24046112823616311 0.29547456997397137 0.27069271889431901 0.21888012754308722 0.21226918314639942 0.21973856242758624 0.21656892088337215 0.22428512094092057 0.10409445644312465 0.29533573167713861 0.19449175540258631 0.13514043812624893 0.050128999295962234 0.068018198858911361 0.24522676048239905 0.28597297393932086 0.29804193020464015 0.21249656576144207 0.13539802824287003 0.18906715845663122 0.21262585600479611 0.13443972202351806 0.33679696980280605 0.030737785124285405 0.12418216279567595 0.16251682271498794 0.26541595747145103 0.34203148282525009 0.24630429672640242
leaf_weight=4571 19436 107046 29309 15527 11008 44209 20904 12896 9916 1925 23059 21758 8959 3106 3559 9633 11803 12561 7168 3234 37436 7836 4932 25403 1045 6091 3513 9511 5674 16191
leaf_count=4571 19436 107046 29309 15527 11008 44209 20904 12896 9916 1925 23059 21758 8959 3106 3559 9633 11803 12561 7168 3234 37436 7836 4932 25403 1045 6091 3513 9511 5674 16191
internal_value=0 1.21505 1.25165 1.36173 1.18339 0.925661 0.912769 1.1481 1.43025 1.21082 1.21748 1.16348 0.906535 0.740355 0.811842 1.31569 1.4628 1.5101 1.33481 1.08811 0.846007 1.28354 0.969242 1.5733 0.882441 0.899937 1.36623 1.1883 1.41781 1.37555
internal_weight=0 402308 358862 137351 221511 96911 43446 33355 103996 201544 199619 128804 19967 22542 52702 70815 94080 74441 19729 12867 49143 19639 17828 54712 44572 43527 57948 13024 44924 39250
internal_count=499219 402308 358862 137351 221511 96911 43446 33355 103996 201544 199619 128804 19967 22542 52702 70815 94080 74441 19729 12867 49143 19639 17828 54712 44572 43527 57948 13024 44924 39250
shrinkage=0.2


Tree=10
num_leaves=31
num_cat=0
split_feature=877 583 462 961 449 751 751 684 716 866 736 65 200 961 584 51 73 651 301 742 113 2 200 964 743 78 704 963 766 673
split_gain=4959.07 3127.63 1831.73 1965.64 1668.26 1641.55 1396.06 1306.93 1205.05 1122.96 1101.66 816.791 790.938 755.046 750.953 728.206 584.337 580.75 568.639 564.977 526.714 508.7 485.995 454.584 440.188 440.066 435.319 403.107 423.416 454.862
threshold=0.020350000821053985 0.028749999590218071 0.19274999946355822 1.5055613500000002 0.19144999980926516 0.12804999947547915 0.10925000160932542 0.12695000320672992 0.14754999428987506 0.018250000663101677 0.10844999924302103 0.13274999707937243 0.19315000623464587 1.0141213000000002 0.026649999432265762 0.088749997317790999 0.15644999593496325 0.12484999746084215 0.022950000129640106 0.12354999780654909 0.094650000333786025 0.18724999576807025 0.20484999567270282 0.99999985000000013 0.093149997293949141 0.11895000189542772 0.14815000444650653 0.79266907500000017 0.095249999314546599 0.11425000056624414
decision_type=2 2 2 2 2 2 2 2 2 2 2 2 2 2 2 2 2 2 2 2 2 2 2 2 2 2 2 2 2 2
left_child=9 8 3 6 -4 11 12 24 14 20 -8 18 13 -3 23 -13 -17 25 -5 -9 -1 27 -11 -2 -7 -15 -10 -20 -29 -30
right_child=1 2 4 5 -6 7 10 19 26 22 -12 15 -14 17 -16 16 -18 -19 21 -21 -22 -23 -24 -25 -26 -27 -28 28 29 -31
leaf_value=0.10171750981955088 0.15974344677659411 0.190070831424488 0.18501450929552463 0.17741512263895534 0.078608653167970319 0.2629653016395096 0.17797495687335937 0.16801846536989351 0.14693893051472359 0.1573699283119403 0.087577864398652672 0.24844131078702178 0.14096134121435369 0.22933896221078656 0.18662695565625317 0.19725093020201492 0.081375930355202825 0.18223080015554208 0.2270820216541011 0.060694081093527044 -0.0070450422998904264 0.20497439410325075 0.063748576947672858 0.10574301855688582 0.18646175536948867 0.18439433532599381 0.069760269405009137 0.28697888322051907 0.26761672302858835 0.20562780517924964
leaf_weight=18481 33903 85770 18966 4125 8551 5082 18235 3861 5019 31137 7657 5781 8441 66464 47503 4640 2786 16652 11694 3989 1971 7510 2388 7641 7373 10029 7001 24165 15607 6797
leaf_count=18481 33903 85770 18966 4125 8551 5082 18235 3861 5019 31137 7657 5781 8441 66464 47503 4640 2786 16652 11694 3989 1971 7510 2388 7641 7373 10029 7001 24165 15607 6797
internal_value=0 0.961803 1.00722 1.02873 0.759743 1.14187 0.973861 0.886974 0.807137 0.640848 0.75621 1.20414 1.00394 1.01805 0.847255 0.976072 0.768892 1.08039 1.24724 0.567406 0.456179 1.26983 0.753506 0.749057 1.08839 1.11723 0.509933 1.3014 1.34308 1.24405
internal_weight=0 445242 344175 316658 27517 103410 213248 20305 101067 53977 25892 83105 187356 178915 89047 13207 7426 93145 69898 7850 20452 65773 33525 41544 12455 76493 12020 58263 46569 22404
internal_count=499219 445242 344175 316658 27517 103410 213248 20305 101067 53977 25892 83105 187356 178915 89047 13207 7426 93145 69898 7850 20452 65773 33525 41544 12455 76493 12020 58263 46569 22404
shrinkage=0.2


Tree=11
num_leaves=31
num_cat=0
split_feature=230 584 929 641 961 67 653 130 760 77 170 336 676 961 713 723 961 70 941 679 747 197 705 963 519 782 321 270 96 839
split_gain=3680.7 2420.41 1656.85 1335.85 1241.55 1227.31 1072.1 885.505 783.533 761.338 755.615 741.52 629.244 721.129 597.381 555.548 552.696 529.483 508.592 497.578 475.393 448.729 415.711 413.993 399.775 394.134 389.055 376.874 358.947 345.562
threshold=0.020450000651180748 0.031449999660253532 0.032749999314546592 0.11944999918341638 1.6616436500000002 0.13125000149011615 0.10785000026226045 0.21835000067949298 0.11405000090599061 0.12674999982118609 0.018050000071525577 0.012550000101327898 0.1373500004410744 1.5603059500000003 0.12474999949336053 0.036350000649690635 1.0974141500000003 0.11784999817609788 0.029649999924004081 0.091250002384185805 0.11115000024437906 0.17574999481439593 0.13075000047683719 0.63484252000000008 0.26225000619888311 0.19784999638795855 0.18204999715089801 0.1698499992489815 0.079350002110004439 0.18014999479055407
decision_type=2 2 2 2 2 2 2 2 2 2 2 2 2 2 2 2 2 2 2 2 2 2 2 2 2 2 2 2 2 2
left_child=10 5 7 4 14 8 -5 18 11 26 25 -2 13 27 16 -7 28 -11 -3 -10 -14 23 -16 -13 -15 -1 -6 -8 -4 -25
right_child=1 2 3 6 9 15 12 -9 19 17 -12 21 20 24 22 -17 -18 -19 -20 -21 -22 -23 -24 29 -26 -27 -28 -29 -30 -31
leaf_value=0.079162745777447308 0.1010410580037896 0.11737175190297806 0.17079923488011214 0.18295071448483147 0.23314459522008446 -0.011737879972665713 0.12927573496163772 0.047325727314082411 0.13615399477478901 0.2082468967941658 0.12024871069476727 0.1087281919052306 0.13816485831228617 0.17421482798713772 0.16015646657247609 0.097534582468815134 0.19325937085498615 0.10739705464030412 0.15708776982875353 0.022626546047033815 0.048966384872140889 0.10079007214611542 0.10315543679593338 0.16319880446042348 0.064377107736524594 -0.0076706576539461464 0.085796915745405669 0.036089681507416774 0.12315124367644692 0.11780994454894123
leaf_weight=21340 14077 22811 44638 29636 27445 2065 27280 4494 2697 4403 25571 7244 4417 25890 18716 18844 51634 3951 29676 3613 5208 6747 7044 68669 1397 2318 736 1854 7368 7436
leaf_count=21340 14077 22811 44638 29636 27445 2065 27280 4494 2697 4403 25571 7244 4417 25890 18716 18844 51634 3951 29676 3613 5208 6747 7044 68669 1397 2318 736 1854 7368 7436
internal_value=0 0.770081 0.817179 0.850834 0.905096 0.655877 0.756732 0.662658 0.697922 1.06789 0.482077 0.718648 0.685825 0.72614 0.859134 0.433713 0.893008 0.802751 0.699135 0.35575 0.449502 0.751997 0.722848 0.772076 0.842958 0.353274 1.14648 0.616728 0.820243 0.79382
internal_weight=0 449990 318598 261617 165935 131392 95682 56981 110483 36535 49229 104173 66046 56421 129400 20909 103640 8354 52487 6310 9625 90096 25760 83349 27287 23658 28181 29134 52006 76105
internal_count=499219 449990 318598 261617 165935 131392 95682 56981 110483 36535 49229 104173 66046 56421 129400 20909 103640 8354 52487 6310 9625 90096 25760 83349 27287 23658 28181 29134 52006 76105
shrinkage=0.2


Tree=12
num_leaves=31
num_cat=0
split_feature=868 205 836 617 647 843 961 76 194 28 123 807 672 709 44 141 894 42 963 964 964 656 961 750 756 597 33 747 395 721
split_gain=2813.3 2152.77 1513.1 1260.28 1198.62 1036.27 984.078 911.149 863.973 724.107 739.754 703.719 696.139 655.182 589.197 584.363 571.169 450.037 449.69 621.633 510.947 459.466 420.196 406.541 398.417 397.702 391.172 379.19 378.613 359.804
threshold=0.022950000129640106 0.02485000062733889 0.18464999645948413 0.048949999734759338 0.11415000259876253 0.18804999440908435 1.6133256000000002 0.15994999557733539 0.025449999608099464 0.10305000096559526 0.10914999991655351 0.018250000663101677 0.10225000232458116 0.13684999942779544 0.11914999783039094 0.16284999996423724 0.095449998974800124 0.109850000590086 0.82332122500000005 0.88529205000000011 0.90885355000000012 0.087150000035762801 1.7596762500000003 0.14275000244379046 0.094849999994039549 0.038049999624490745 0.10135000199079515 0.10464999824762346 0.17445000261068347 0.11874999850988389
decision_type=2 2 2 2 2 2 2 2 2 2 2 2 2 2 2 2 2 2 2 2 2 2 2 2 2 2 2 2 2 2
left_child=7 8 3 4 14 22 13 11 16 23 -11 -1 -6 15 25 18 -2 -16 19 -5 -20 -22 -4 28 -23 -3 -12 -14 -8 -25
right_child=1 2 5 6 12 -7 9 -9 -10 10 26 -13 27 -15 17 -17 -18 -19 20 -21 21 24 -24 29 -26 -27 -28 -29 -30 -31
leaf_value=0.056168644384352186 0.0777372194621649 0.11467695765247239 0.099581003216569527 0.14831555173384731 0.099978752225258843 0.050586466429711013 0.19448530956263652 0.0064308746497221932 0.10865135157611445 0.15981579247721059 0.11838800647947678 0.10299030263613281 0.079824088352173361 0.10526673129749216 0.097204530703822928 0.09679625296217638 0.0082243673071811605 -0.040480231772727748 0.208855320514795 0.10687436194901619 0.15890546707224373 0.14746258871347473 0.14906395131944045 0.17419245938406067 0.085238600957807512 0.14461600764574054 0.019979632388297364 -0.010188553579194778 0.14327889716369843 0.078361551197344753
leaf_weight=19339 15857 29453 20999 34103 18103 14203 31570 6178 30388 12302 3835 38208 3255 26006 3638 11615 6737 1285 6261 25161 48524 9498 10198 3428 7264 44657 2792 4406 7069 2887
leaf_count=19339 15857 29453 20999 34103 18103 14203 31570 6178 30388 12302 3835 38208 3255 26006 3638 11615 6737 1285 6261 25161 48524 9498 10198 3428 7264 44657 2792 4406 7069 2887
internal_value=0 0.62206 0.648227 0.671308 0.580272 0.476843 0.712374 0.397099 0.433146 0.818055 0.653985 0.436278 0.392961 0.672291 0.641334 0.698942 0.285051 0.30633 0.718029 0.653607 0.771391 0.745221 0.578783 0.88714 0.602486 0.663588 0.384639 0.14028 0.925586 0.651909
internal_weight=0 435494 382512 337112 104797 45400 232315 63725 52982 63883 18929 57547 25764 168432 79033 142426 22594 4923 130811 59264 71547 65286 31197 44954 16762 74110 6627 7661 38639 6315
internal_count=499219 435494 382512 337112 104797 45400 232315 63725 52982 63883 18929 57547 25764 168432 79033 142426 22594 4923 130811 59264 71547 65286 31197 44954 16762 74110 6627 7661 38639 6315
shrinkage=0.2


Tree=13
num_leaves=31
num_cat=0
split_feature=964 963 964 963 964 963 963 963 963 964 964 964 963 964 963 964 963 963 963 737 963 736 740 964 964 687 660 667 964 161
split_gain=2570.25 2972.34 2756.67 2156.64 1486.93 1919.1 1338.72 1455 1081.16 1059.35 1019 969.839 1640.64 935.125 881.527 1776.53 864.813 840.249 469.032 425.208 407.815 403.536 394.211 391.185 372.993 365.921 362.778 328.471 327.074 318.867
threshold=1.0337864500000002 0.88974391500000005 0.95409838000000013 0.82414055000000008 0.87768820000000003 0.73762810000000012 0.92357250000000013 0.99999997000000007 0.97734490000000007 0.90809516500000009 1.0882803000000003 0.80721065500000011 0.62768811000000013 0.8231540850000002 0.93759232000000015 0.98729407000000013 0.85615149000000013 0.78381675000000006 0.85034127500000012 0.11814999952912332 0.75732920000000015 0.12725000083446505 0.10854999721050264 0.93620060000000016 0.85758982000000017 0.12454999983310701 0.11005000025033952 0.11824999749660493 0.85367705000000005 0.020049999468028549
decision_type=2 2 2 2 2 2 2 2 2 2 2 2 2 2 2 2 2 2 2 2 2 2 2 2 2 2 2 2 2 2
left_child=1 2 3 4 5 11 -2 8 -8 -5 21 12 -1 -7 15 22 26 28 29 -17 -6 -9 -3 -18 -19 -24 -11 -20 -15 -4
right_child=6 14 18 9 20 13 7 10 -10 16 -12 -13 -14 17 -16 19 23 24 27 -21 -22 -23 25 -25 -26 -27 -28 -29 -30 -31
leaf_value=0.060849338214051155 -0.015954155940046597 0.16453390947312416 -0.008361940335446752 0.16440892912910579 0.046487801438143898 0.20257158838550213 0.067112426881992024 0.1270621195130853 0.16946506895886676 0.10105222181482208 -0.03713616650567432 0.057420440664026288 0.1375744485437134 0.12043398446379415 0.17274611956045902 0.094770879930977034 0.15832769749027109 0.19239948320687256 0.077680759866297494 0.02307726314731948 0.077147268216652215 -0.089496288620144054 0.14150679945843264 0.11446866412715473 0.13394085232580621 0.045755139602892507 0.047160069712090961 0.023886553803263804 0.078583496137357017 0.045530283407119558
leaf_weight=20852 10362 26635 5370 21557 23518 6415 12507 2771 6162 29382 6829 34954 23955 15570 18295 23401 16765 6595 30711 3854 66209 393 5358 15801 12916 2274 6020 5328 14358 24102
leaf_count=20852 10362 26635 5370 21557 23518 6415 12507 2771 6162 29382 6829 34954 23955 15570 18295 23401 16765 6595 30711 3854 66209 393 5358 15801 12916 2274 6020 5328 14358 24102
internal_value=0 0.49557 0.458756 0.497587 0.445422 0.511496 0.228272 0.339637 0.504478 0.628889 0.0316793 0.411949 0.509343 0.653652 0.671014 0.613705 0.567628 0.607042 0.272121 0.423165 0.345556 0.500817 0.765255 0.685237 0.768504 0.564885 0.45944 0.348639 0.501781 0.178554
internal_weight=0 460195 380378 314867 225342 135615 39024 28662 18669 89525 9993 79761 44807 55854 79817 61522 67968 49439 65511 27255 89727 3164 34267 32566 19511 7632 35402 36039 29928 29472
internal_count=499219 460195 380378 314867 225342 135615 39024 28662 18669 89525 9993 79761 44807 55854 79817 61522 67968 49439 65511 27255 89727 3164 34267 32566 19511 7632 35402 36039 29928 29472
shrinkage=0.2


Tree=14
num_leaves=31
num_cat=0
split_feature=585 578 834 843 647 961 648 706 64 589 92 724 835 81 960 961 1 13 751 961 194 681 717 512 963 35 964 963 302 962
split_gain=1881.5 1589.76 1279.36 1027.51 958.83 1022.76 891.65 842.147 703.8 703.203 687.661 586.991 558.526 552.792 514.873 464.565 446.054 431.303 405.667 404.093 398.487 386.857 348.53 336.394 326.336 322.636 318.873 498.692 305.672 305.332
threshold=0.034350000321865089 0.20474999397993091 0.024549999274313453 0.20295000076293948 0.12785000354051593 1.3053608000000001 0.12644999474287036 0.14244999736547473 0.1755500063300133 0.16235000640153888 0.12615000456571582 0.12804999947547915 0.14365000277757647 0.10954999923706056 0.073140330000000017 1.7242196000000003 0.14285000413656238 0.1171500012278557 0.1033499985933304 1.8899912500000002 0.18255000561475757 0.13704999536275866 0.11524999886751176 0.17185000330209735 0.60114152500000007 0.1074500009417534 0.81890855000000007 0.74131065000000007 0.011950000189244749 1.8616346500000003
decision_type=2 2 2 2 2 2 2 2 2 2 2 2 2 2 2 2 2 2 2 2 2 2 2 2 2 2 2 2 2 2
left_child=7 2 16 4 5 11 19 8 14 -3 15 17 -5 -12 -1 29 28 -4 20 -6 24 -8 -9 -14 -16 -15 -26 -28 -2 -7
right_child=1 9 3 12 6 10 21 22 -10 -11 13 -13 23 25 18 -17 -18 -19 -20 -21 -22 -23 -24 -25 26 -27 27 -29 -30 -31
leaf_value=-0.040097775949574345 0.0077013285481931301 0.061064076626109 0.095310384823678138 0.082479674565411221 0.075945689893584772 0.11145624556286471 0.050051858435833221 0.038661368726101486 -0.0062220410984577977 -0.043067496924961118 0.10216845208467251 0.045817441055714891 0.04339277960007417 0.056033195330331569 0.0355830492708748 0.13669012008379774 -0.013825805172706233 0.065634447969082244 0.027508742561536872 0.12818762819742532 -0.010639469922498177 -0.014499366954979751 -0.027499571122866686 -0.027739772607376752 0.1155211928862736 -0.05000699302437224 0.028584010668248179 0.079311829499961795 0.065716731950108284 0.05601588362884579
leaf_weight=1873 4467 4872 117090 15231 29550 51044 14587 6268 6117 5548 7569 12931 14240 3026 8532 34574 4489 23526 9908 7407 2366 4982 6475 3270 7662 1849 8971 57036 19450 4309
leaf_count=1873 4467 4872 117090 15231 29550 51044 14587 6268 6117 5548 7569 12931 14240 3026 8532 34574 4489 23526 9908 7407 2366 4982 6475 3270 7662 1849 8971 57036 19450 4309
internal_value=0 0.413366 0.424112 0.440899 0.458561 0.484596 0.340688 0.267658 0.297809 0.0281025 0.562018 0.432977 0.272358 0.341693 0.318691 0.592507 0.220117 0.451727 0.328984 0.432081 0.351414 0.16809 0.0252177 0.150544 0.36306 0.0790703 0.384502 0.362087 0.274406 0.535702
internal_weight=0 384011 373591 345185 312444 255918 56526 115208 102465 10420 102371 153547 32741 12444 96348 89927 28406 140616 94475 36957 84567 19569 12743 17510 82201 4875 73669 66007 23917 55353
internal_count=499219 384011 373591 345185 312444 255918 56526 115208 102465 10420 102371 153547 32741 12444 96348 89927 28406 140616 94475 36957 84567 19569 12743 17510 82201 4875 73669 66007 23917 55353
shrinkage=0.2


Tree=15
num_leaves=31
num_cat=0
split_feature=964 963 964 963 963 963 964 963 964 963 964 963 964 963 964 963 964 633 963 736 748 659 964 674 683 739 677 296 733 964
split_gain=1669.29 2037.3 1586.25 1753.11 1032.66 1088.68 868.022 1293.24 1109.03 1087.99 845.295 851.1 837.696 751.657 678.018 478.529 457.912 432.467 391.305 361.019 357.647 356.991 336.75 323.219 309.556 299.392 293.727 283.913 263.272 262.084
threshold=1.0267338500000003 0.91488865000000008 0.96897995000000015 0.86508893000000009 0.9337561000000002 0.99999997000000007 0.92776306500000005 0.80281462000000003 0.86005160000000014 0.6857231800000001 0.79889735000000017 0.75279490000000016 0.8889312800000001 0.96558348000000016 1.1085600500000001 0.84032322000000004 0.94077178500000014 0.055849999189376838 0.88364053500000017 0.09575000032782556 0.088449999690055861 0.09704999998211862 0.84080527500000013 0.095949999988079085 0.13344999402761462 0.1163500025868416 0.12465000152587892 0.20265000313520434 0.10615000128746034 0.99287533500000003
decision_type=2 2 2 2 2 2 2 2 2 2 2 2 2 2 2 2 2 2 2 2 2 2 2 2 2 2 2 2 2 2
left_child=1 2 3 6 -2 13 7 8 9 -1 -11 -12 -9 -6 17 -14 -5 23 -4 -18 29 -20 -13 -7 -21 -22 -23 -10 -17 -3
right_child=4 20 18 16 5 14 -8 12 27 10 11 22 15 -15 -16 28 19 -19 21 24 25 26 -24 -25 -26 -27 -28 -29 -30 -31
leaf_value=0.045589443000998209 -0.018908462090421348 0.14985548853936681 0.017213626578972102 0.12784696089705092 0.031016029975206583 0.027576931080180663 0.0381059247475223 0.12322425159971609 0.038839659663921555 0.14181247041377409 0.053256183815956142 0.13450464536352905 0.06045529295179998 0.10891930346231685 -0.057177715940114428 0.11224132118060129 0.099857253293892292 0.10385278252021063 0.063833983471198175 0.070976719624659207 0.10222108460230794 0.033663783835038166 0.084449747961724816 -0.14672144808226231 -0.024326615463355176 0.032787105886047177 -0.060524667551334448 -0.035448900638914413 0.056993702507118951 0.10758227293186465
leaf_weight=45073 14971 8885 35556 16839 9299 1654 58458 19339 69052 9406 27889 9408 34293 10603 5324 15122 22418 2506 19130 6390 7513 5969 12545 573 1733 3711 1702 2121 4470 17267
leaf_count=45073 14971 8885 35556 16839 9299 1654 58458 19339 69052 9406 27889 9408 34293 10603 5324 15122 22418 2506 19130 6390 7513 5969 12545 573 1733 3711 1702 2121 4470 17267
internal_value=0 0.321978 0.301927 0.327795 0.119919 0.227089 0.300178 0.32595 0.279372 0.345033 0.434107 0.382218 0.437582 0.362599 -0.041075 0.373505 0.506838 0.234308 0.154844 0.43384 0.545637 0.246086 0.529504 -0.0863474 0.253221 0.39632 0.0638288 0.183129 0.498182 0.609722
internal_weight=0 454289 416913 354556 44930 29959 307176 248718 175494 104321 59248 49842 73224 19902 10057 53885 47380 4733 62357 30541 37376 26801 21953 2227 8123 11224 7671 71173 19592 26152
internal_count=499219 454289 416913 354556 44930 29959 307176 248718 175494 104321 59248 49842 73224 19902 10057 53885 47380 4733 62357 30541 37376 26801 21953 2227 8123 11224 7671 71173 19592 26152
shrinkage=0.2


Tree=16
num_leaves=31
num_cat=0
split_feature=296 301 655 74 961 643 66 203 696 614 961 295 15 675 751 926 936 963 964 964 207 963 8 964 749 662 963 31 325 714
split_gain=1426.13 1453.26 1098.14 1134.94 1175.73 974.728 959.283 714.687 718.23 587.437 545.449 534.98 411.231 393.026 382.773 378.822 367.077 343.843 539.633 527.696 343.774 340.526 332.57 320.232 308.324 308.305 303.257 301.826 300.154 299.897
threshold=0.19235000014305118 0.013550000265240671 0.13024999946355822 0.14144999533891681 1.6616436500000002 0.11164999753236772 0.14334999769926074 0.212849996984005 0.12754999846220019 0.050950000062584884 1.0642792500000002 0.16704999655485156 0.1179499998688698 0.10424999892711641 0.087750002741813674 0.025750000029802326 0.19235000014305118 0.76148920000000009 0.88249600000000006 0.83072171500000014 0.012850000057369472 0.62768811000000013 0.1487499997019768 0.89501880000000011 0.14694999903440478 0.041549999266862876 0.82845023000000018 0.02094999980181456 0.16944999992847445 0.14584999531507495
decision_type=2 2 2 2 2 2 2 2 2 2 2 2 2 2 2 2 2 2 2 2 2 2 2 2 2 2 2 2 2 2
left_child=1 20 3 4 7 -4 -5 8 10 -7 14 25 28 -10 17 -6 22 19 -19 21 -1 -3 27 -13 -11 -2 -20 -17 29 -12
right_child=11 2 5 6 15 9 -8 -9 13 24 12 23 -14 -15 -16 16 -18 18 26 -21 -22 -23 -24 -25 -26 -27 -28 -29 -30 -31
leaf_value=-0.035742470504955853 -0.03596290021270121 0.036875064669268875 0.060209644261499308 0.046162460422246664 0.0058648609423425499 -0.015288948612025833 -0.020745101802355562 0.0045944470181508382 0.040994100489048932 0.038645424422809216 0.085451884841479905 -0.0044282746131522185 0.033047169446866816 -0.016307795024358484 0.026709151101901848 0.039392939594737296 0.030578021326725553 0.10742862654365877 0.040586667807508484 0.025704256340803783 0.018356452360709024 0.088577863639857965 0.051059742560021174 -0.086298989066815282 -0.021171255233065751 0.045341614941932673 0.067992344758960266 0.10929210447770837 0.03263896706223867 0.043439058300005107
leaf_weight=5867 2545 8454 29651 29572 2056 17375 12070 10122 20182 26376 71873 3646 8838 6277 17309 2648 3442 10865 23010 26378 23590 12826 5252 4016 3965 6988 54178 36968 5374 7506
leaf_count=5867 2545 8454 29651 29572 2056 17375 12070 10122 20182 26376 71873 3646 8838 6277 17309 2648 3442 10865 23010 26378 23590 12826 5252 4016 3965 6988 54178 36968 5374 7506
internal_value=0 0.253129 0.267137 0.289505 0.308938 0.158659 0.133846 0.283901 0.293572 0.0701779 0.310371 -0.0399537 0.370506 0.137 0.273591 0.449718 0.467609 0.291453 0.328484 0.223034 0.0379074 0.340188 0.491752 -0.236702 0.154143 0.11818 0.299113 0.5231 0.391912 0.407396
internal_weight=0 482024 452567 375200 333558 77367 41642 283192 273070 47716 246611 17195 93591 26459 153020 50366 48310 135711 88053 47658 29457 21280 44868 7662 30341 9533 77188 39616 84753 79379
internal_count=499219 482024 452567 375200 333558 77367 41642 283192 273070 47716 246611 17195 93591 26459 153020 50366 48310 135711 88053 47658 29457 21280 44868 7662 30341 9533 77188 39616 84753 79379
shrinkage=0.2


Tree=17
num_leaves=31
num_cat=0
split_feature=519 622 904 684 675 675 5 520 961 736 610 196 7 330 64 684 710 45 960 742 718 771 527 499 961 963 44 322 961 65
split_gain=1207.92 1231.52 749.23 847.662 1093.83 731.849 750.485 601.973 552.177 438.022 435.685 430.56 449.622 429.652 426.577 422.506 419.69 417.717 385.087 357.218 347.286 340.259 328.414 323.508 322.914 306.551 301.486 301.483 300.527 283.454
threshold=0.22025000303983691 0.035050000995397575 0.017350000329315666 0.10724999755620958 0.092250000685453429 0.11484999954700471 0.13935000449419024 0.20764999836683276 1.7476242500000001 0.071750000119209303 0.037250000983476646 0.17864999920129779 0.134150005877018 0.2185500040650368 0.21835000067949298 0.12025000154972078 0.15795000642538073 0.13205000013113025 1.8147244500000002 0.10814999788999559 0.13675000518560412 0.1917499974370003 0.14214999973773959 0.0074499999172985562 1.0027689500000003 0.99999997000000007 0.079450000077486052 0.14754999428987506 1.6717913500000001 0.11654999852180482
decision_type=2 2 2 2 2 2 2 2 2 2 2 2 2 2 2 2 2 2 2 2 2 2 2 2 2 2 2 2 2 2
left_child=1 5 29 8 28 6 10 22 11 -6 21 12 16 14 -10 -7 24 -8 -11 -20 -18 23 -2 -1 -4 -25 27 -26 -5 -3
right_child=7 2 3 4 9 15 17 -9 13 18 -12 -13 -14 -15 -16 -17 20 -19 19 -21 -22 -23 -24 25 26 -27 -28 -29 -30 -31
leaf_value=-0.035494864973418493 0.045220210296586683 0.0267102179004194 0.04940951046725349 0.040584373420192339 0.062947219139676339 0.0057730282182218619 -0.0052598629703824087 -0.052734637415815702 0.08691379132782838 -0.044380919466944425 0.052316361971625404 0.018675794574635165 0.021543383217983839 -0.003822958215121778 0.010020986850091491 -0.071913110447441975 0.047427136681099935 -0.12563418772791618 0.04167723939875765 -0.018761366904898751 -0.012178414000459704 -0.042724675446453295 -0.0093507398288605638 0.033376620757486035 0.077330401474603086 -0.057142249651088675 0.040925096313749409 0.042254289611052473 0.085073821154209237 -0.022875679758126873
leaf_weight=3026 8181 23603 71314 16169 3847 7957 10331 7209 37292 8374 37317 15218 16091 2541 3128 4321 11274 1298 7165 8615 5986 2789 9573 66464 67044 1531 14623 11480 9727 5731
leaf_count=3026 8181 23603 71314 16169 3847 7957 10331 7209 37292 8374 37317 15218 16091 2541 3128 4321 11274 1298 7165 8615 5986 2789 9573 66464 67044 1531 14623 11480 9727 5731
internal_value=0 0.205712 0.237863 0.252323 0.13834 0.124945 0.148228 -0.019976 0.276321 0.00133931 0.173521 0.255464 0.267934 0.379742 0.404816 -0.107835 0.282121 -0.0934787 -0.0485753 0.0434057 0.133776 0.129 0.0789771 0.142454 0.297689 0.156692 0.336461 0.361012 0.286477 0.085113
internal_weight=0 474256 339222 309888 53897 135034 122756 24963 255991 28001 111127 213030 197812 42961 40420 12278 181721 11629 24154 15780 17260 73810 17754 71021 164461 67995 93147 78524 25896 29334
internal_count=499219 474256 339222 309888 53897 135034 122756 24963 255991 28001 111127 213030 197812 42961 40420 12278 181721 11629 24154 15780 17260 73810 17754 71021 164461 67995 93147 78524 25896 29334
shrinkage=0.2


Tree=18
num_leaves=31
num_cat=0
split_feature=270 586 64 705 642 654 62 257 960 717 961 63 70 67 524 963 677 109 963 964 961 935 735 963 653 384 964 333 292 5
split_gain=1035.93 1034.64 940.958 934.296 633.486 663.225 584.86 506.374 451.207 445.575 439.025 376.768 371.434 363.452 348.917 333.886 327.722 309.645 294.386 497.138 267.44 258.572 254.745 253.677 247.785 243.432 241.395 238.286 237.721 250.222
threshold=0.18014999479055407 0.042249999940395362 0.022750000469386581 0.11775000020861627 0.12184999883174898 0.089549999684095397 0.11264999955892564 0.18945000320672992 1.9109763500000001 0.120449997484684 1.2060688000000002 0.020750000141561035 0.091250002384185805 0.18245000392198565 0.18744999915361407 0.99999997000000007 0.12584999948740008 0.10804999992251398 0.91488865000000008 0.96138660000000009 1.5603059500000003 0.024950000457465652 0.14395000040531161 0.84200039500000012 0.12264999747276308 0.14835000038146975 0.87033903500000009 0.20484999567270282 0.13524999469518664 0.099249999970197691
decision_type=2 2 2 2 2 2 2 2 2 2 2 2 2 2 2 2 2 2 2 2 2 2 2 2 2 2 2 2 2 2
left_child=1 3 11 13 6 20 10 -2 24 -5 28 -3 -8 15 21 18 27 -14 19 23 -6 -12 -18 -1 -7 -16 -9 -10 29 -4
right_child=7 2 4 9 5 8 12 26 16 -11 14 -13 17 -15 25 -17 22 -19 -20 -21 -22 -23 -24 -25 -26 -27 -28 -29 -30 -31
leaf_value=0.029209081081822102 0.010003060045177771 -0.019731256347893588 0.05264912640026758 0.013929268271348612 0.046818770987961375 0.025506104820200576 0.050395125012056112 -0.0085715332332052443 0.059468835450787565 -0.038059545934933221 -0.010178633580764047 0.023676647323080238 0.015722455749788814 -0.024408091184126093 0.060227167529121078 -0.040867606305753125 0.030307936803136398 -0.054935271800260047 0.059217418693561674 0.0010410710540476437 0.096631419615948982 0.070605116589763692 -0.038414900202993874 0.058708969812684454 -0.0040600420593034951 -0.028975625402659511 -0.084528578219341774 0.0064987142331461682 0.0062636743218135692 0.025557711224396963
leaf_weight=67702 13469 12344 69419 12000 12827 20585 9180 2685 21656 14638 1622 22719 9904 5350 2341 2685 6760 3310 12701 23060 6494 69232 3169 14086 25241 2564 4443 4029 6033 16971
leaf_count=67702 13469 12344 69419 12000 12827 20585 9180 2685 21656 14638 1622 22719 9904 5350 2341 2685 6760 3310 12701 23060 6494 69232 3169 14086 25241 2564 4443 4029 6033 16971
internal_value=0 0.164991 0.196743 0.0969091 0.21537 0.15124 0.249276 -0.0640491 0.111723 -0.073197 0.269491 0.041974 0.0974606 0.132991 0.325923 0.144339 0.196157 -0.00988366 0.152303 0.134885 0.317807 0.343779 0.0418697 0.171449 0.0461052 0.0679901 -0.279584 0.255799 0.223233 0.236636
internal_weight=0 478622 326400 152222 291337 100761 190576 20597 81440 26638 168182 35063 22394 125584 75759 120234 35614 13214 117549 104848 19321 70854 9929 81788 45826 4905 7128 25685 92423 86390
internal_count=499219 478622 326400 152222 291337 100761 190576 20597 81440 26638 168182 35063 22394 125584 75759 120234 35614 13214 117549 104848 19321 70854 9929 81788 45826 4905 7128 25685 92423 86390
shrinkage=0.2


Tree=19
num_leaves=31
num_cat=0
split_feature=964 963 963 964 963 963 964 963 963 964 963 964 963 964 964 748 35 964 963 840 963 743 963 667 581 743 961 737 239 760
split_gain=957.912 1229.14 887.99 835.919 867.764 696.324 581.46 708.665 484.912 481.283 609.832 459.768 679.324 456.233 381.192 343.539 332.535 327.84 487.971 323.645 320.921 313.64 299.285 350.183 264.444 262.796 258.619 244.736 243.275 238.159
threshold=1.0135035500000003 0.90260383000000011 0.93759232000000015 0.94316259000000013 0.84368450000000006 0.99999997000000007 0.89670382000000004 0.80471153000000006 0.97734490000000007 0.85367705000000005 0.72997008000000008 0.78908083000000018 0.5757689800000001 1.0744766500000003 0.80721065500000011 0.077250000089406981 0.13215000182390216 0.97075995000000004 0.93759232000000015 0.25755000114440924 0.77070376500000004 0.091749999672174468 0.86956546000000012 0.10774999856948854 0.054449999704957015 0.15265000611543658 1.8341187500000002 0.091749999672174468 0.069049999117851271 0.12054999917745592
decision_type=2 2 2 2 2 2 2 2 2 2 2 2 2 2 2 2 2 2 2 2 2 2 2 2 2 2 2 2 2 2
left_child=1 3 -2 4 6 8 7 9 -4 10 11 12 -1 27 -12 26 19 -3 29 22 -16 -17 -5 -24 -23 -15 -6 -7 -18 -19
right_child=2 17 5 16 15 13 -8 -9 -10 -11 14 -13 -14 25 20 21 28 18 -20 -21 -22 24 23 -25 -26 -27 -28 -29 -30 -31
leaf_value=0.0029530374060812124 -0.028516761906416513 0.092798520060455095 0.020893752326546756 0.0035497571756286923 0.060450683739113303 0.10954753825912414 0.010502391814536237 0.063715466030259821 0.081979736640749645 0.011818981667622529 0.12397317253889513 0.0068129573910633446 0.061389322752208944 -0.038080924779589596 0.035656083125081714 0.059902203640726154 0.025791662191824327 0.044295887883292785 0.088411320607043209 -0.055973014256440703 0.081944163862372188 -0.042289027000771237 0.036287393088991489 -0.0088077217991965415 0.032344309810120923 -0.2392074200882123 0.11184007508163199 -0.030608564859692003 -0.075722930920833889 -0.0093628988279201956
leaf_weight=12456 24177 9357 16755 53849 23419 1377 74346 23769 7536 55876 3196 31324 22033 7648 18144 8374 1361 21572 9888 2778 8945 3010 31307 8831 5145 269 4704 781 3084 3908
leaf_count=12456 24177 9357 16755 53849 23419 1377 74346 23769 7536 55876 3196 31324 22033 7648 18144 8374 1361 21572 9888 2778 8945 3010 31307 8831 5145 269 4704 781 3084 3908
internal_value=0 0.140399 0.00425126 0.122649 0.149574 0.107552 0.126647 0.158009 0.199225 0.132896 0.175807 0.121768 0.201423 -0.113473 0.29324 0.277987 0.0442397 0.297539 0.253502 0.0565249 0.254704 0.163574 0.0664677 0.131829 0.0239862 -0.224574 0.345232 0.294119 -0.223203 0.18033
internal_weight=0 440676 58543 395951 294741 34366 250089 175743 24291 151974 96098 65813 34489 10075 30285 44652 101210 44725 35368 96765 27089 16529 93987 40138 8155 7917 28123 2158 4445 25480
internal_count=499219 440676 58543 395951 294741 34366 250089 175743 24291 151974 96098 65813 34489 10075 30285 44652 101210 44725 35368 96765 27089 16529 93987 40138 8155 7917 28123 2158 4445 25480
shrinkage=0.2


Tree=20
num_leaves=31
num_cat=0
split_feature=141 707 63 613 659 130 612 23 31 961 21 201 108 715 663 616 702 961 224 389 8 762 961 618 689 581 898 578 869 897
split_gain=824.279 829.483 709.951 631.155 565.017 546.654 490.493 544.375 640.485 510.41 476.186 449.688 429.16 427.64 369.625 329.422 319.116 311.053 296.239 294.261 293.54 272.273 262.681 256.668 254.454 250.761 238.247 237.106 233.908 233.493
threshold=0.21294999867677691 0.17995000630617144 0.013849999755620958 0.033449999988079078 0.091049998998641982 0.15775000303983691 0.15325000137090686 0.085050001740455641 0.080550000071525588 1.3553979500000002 0.087650001049041762 0.16045000404119494 0.08624999970197679 0.15335000306367877 0.10755000263452531 0.11975000053644182 0.084849998354911818 1.7956528000000003 0.16225000470876697 0.19375000149011615 0.078249998390674605 0.14975000172853473 1.6133256000000002 0.063550002872943892 0.091650001704692854 0.059650000184774406 0.15425000339746478 0.14555000513792041 0.10054999962449075 0.048550000414252288
decision_type=2 2 2 2 2 2 2 2 2 2 2 2 2 2 2 2 2 2 2 2 2 2 2 2 2 2 2 2 2 2
left_child=1 2 28 4 20 -2 7 9 22 11 17 16 -12 -3 19 -8 18 -10 26 -11 -4 -16 -9 -6 -18 -15 -5 -17 -1 -14
