tree
version=v3
num_class=1
num_tree_per_iteration=1
label_index=0
max_feature_idx=964
objective=regression
feature_names=F0_query_dim0 F0_query_dim1 F0_query_dim2 F0_query_dim3 F0_query_dim4 F0_query_dim5 F0_query_dim6 F0_query_dim7 F0_query_dim8 F0_query_dim9 F0_query_dim10 F0_query_dim11 F0_query_dim12 F0_query_dim13 F0_query_dim14 F0_query_dim15 F0_query_dim16 F0_query_dim17 F0_query_dim18 F0_query_dim19 F0_query_dim20 F0_query_dim21 F0_query_dim22 F0_query_dim23 F0_query_dim24 F0_query_dim25 F0_query_dim26 F0_query_dim27 F0_query_dim28 F0_query_dim29 F0_query_dim30 F0_query_dim31 F0_query_dim32 F0_query_dim33 F0_query_dim34 F0_query_dim35 F0_query_dim36 F0_query_dim37 F0_query_dim38 F0_query_dim39 F0_query_dim40 F0_query_dim41 F0_query_dim42 F0_query_dim43 F0_query_dim44 F0_query_dim45 F0_query_dim46 F0_query_dim47 F0_query_dim48 F0_query_dim49 F0_query_dim50 F0_query_dim51 F0_query_dim52 F0_query_dim53 F0_query_dim54 F0_query_dim55 F0_query_dim56 F0_query_dim57 F0_query_dim58 F0_query_dim59 F0_query_dim60 F0_query_dim61 F0_query_dim62 F0_query_dim63 F0_query_dim64 F0_query_dim65 F0_query_dim66 F0_query_dim67 F0_query_dim68 F0_query_dim69 F0_query_dim70 F0_query_dim71 F0_query_dim72 F0_query_dim73 F0_query_dim74 F0_query_dim75 F0_query_dim76 F0_query_dim77 F0_query_dim78 F0_query_dim79 F0_query_dim80 F0_query_dim81 F0_query_dim82 F0_query_dim83 F0_query_dim84 F0_query_dim85 F0_query_dim86 F0_query_dim87 F0_query_dim88 F0_query_dim89 F0_query_dim90 F0_query_dim91 F0_query_dim92 F0_query_dim93 F0_query_dim94 F0_query_dim95 F0_query_dim96 F0_query_dim97 F0_query_dim98 F0_query_dim99 F0_query_dim100 F0_query_dim101 F0_query_dim102 F0_query_dim103 F0_query_dim104 F0_query_dim105 F0_query_dim106 F0_query_dim107 F0_query_dim108 F0_query_dim109 F0_query_dim110 F0_query_dim111 F0_query_dim112 F0_query_dim113 F0_query_dim114 F0_query_dim115 F0_query_dim116 F0_query_dim117 F0_query_dim118 F0_query_dim119 F0_query_dim120 F0_query_dim121 F0_query_dim122 F0_query_dim123 F0_query_dim124 F0_query_dim125 F0_query_dim126 F0_query_dim127 F0_query_dim128 F0_query_dim129 F0_query_dim130 F0_query_dim131 F0_query_dim132 F0_query_dim133 F0_query_dim134 F0_query_dim135 F0_query_dim136 F0_query_dim137 F0_query_dim138 F0_query_dim139 F0_query_dim140 F0_query_dim141 F0_query_dim142 F0_query_dim143 F0_query_dim144 F0_query_dim145 F0_query_dim146 F0_query_dim147 F0_query_dim148 F0_query_dim149 F0_query_dim150 F0_query_dim151 F0_query_dim152 F0_query_dim153 F0_query_dim154 F0_query_dim155 F0_query_dim156 F0_query_dim157 F0_query_dim158 F0_query_dim159 F0_query_dim160 F0_query_dim161 F0_query_dim162 F0_query_dim163 F0_query_dim164 F0_query_dim165 F0_query_dim166 F0_query_dim167 F0_query_dim168 F0_query_dim169 F0_query_dim170 F0_query_dim171 F0_query_dim172 F0_query_dim173 F0_query_dim174 F0_query_dim175 F0_query_dim176 F0_query_dim177 F0_query_dim178 F0_query_dim179 F0_query_dim180 F0_query_dim181 F0_query_dim182 F0_query_dim183 F0_query_dim184 F0_query_dim185 F0_query_dim186 F0_query_dim187 F0_query_dim188 F0_query_dim189 F0_query_dim190 F0_query_dim191 F0_query_dim192 F0_query_dim193 F0_query_dim194 F0_query_dim195 F0_query_dim196 F0_query_dim197 F0_query_dim198 F0_query_dim199 F0_query_dim200 F0_query_dim201 F0_query_dim202 F0_query_dim203 F0_query_dim204 F0_query_dim205 F0_query_dim206 F0_query_dim207 F0_query_dim208 F0_query_dim209 F0_query_dim210 F0_query_dim211 F0_query_dim212 F0_query_dim213 F0_query_dim214 F0_query_dim215 F0_query_dim216 F0_query_dim217 F0_query_dim218 F0_query_dim219 F0_query_dim220 F0_query_dim221 F0_query_dim222 F0_query_dim223 F0_query_dim224 F0_query_dim225 F0_query_dim226 F0_query_dim227 F0_query_dim228 F0_query_dim229 F0_query_dim230 F0_query_dim231 F0_query_dim232 F0_query_dim233 F0_query_dim234 F0_query_dim235 F0_query_dim236 F0_query_dim237 F0_query_dim238 F0_query_dim239 F0_query_dim240 F0_query_dim241 F0_query_dim242 F0_query_dim243 F0_query_dim244 F0_query_dim245 F0_query_dim246 F0_query_dim247 F0_query_dim248 F0_query_dim249 F0_query_dim250 F0_query_dim251 F0_query_dim252 F0_query_dim253 F0_query_dim254 F0_query_dim255 F0_query_dim256 F0_query_dim257 F0_query_dim258 F0_query_dim259 F0_query_dim260 F0_query_dim261 F0_query_dim262 F0_query_dim263 F0_query_dim264 F0_query_dim265 F0_query_dim266 F0_query_dim267 F0_query_dim268 F0_query_dim269 F0_query_dim270 F0_query_dim271 F0_query_dim272 F0_query_dim273 F0_query_dim274 F0_query_dim275 F0_query_dim276 F0_query_dim277 F0_query_dim278 F0_query_dim279 F0_query_dim280 F0_query_dim281 F0_query_dim282 F0_query_dim283 F0_query_dim284 F0_query_dim285 F0_query_dim286 F0_query_dim287 F0_query_dim288 F0_query_dim289 F0_query_dim290 F0_query_dim291 F0_query_dim292 F0_query_dim293 F0_query_dim294 F0_query_dim295 F0_query_dim296 F0_query_dim297 F0_query_dim298 F0_query_dim299 F0_query_dim300 F0_query_dim301 F0_query_dim302 F0_query_dim303 F0_query_dim304 F0_query_dim305 F0_query_dim306 F0_query_dim307 F0_query_dim308 F0_query_dim309 F0_query_dim310 F0_query_dim311 F0_query_dim312 F0_query_dim313 F0_query_dim314 F0_query_dim315 F0_query_dim316 F0_query_dim317 F0_query_dim318 F0_query_dim319 F0_query_dim320 F0_query_dim321 F0_query_dim322 F0_query_dim323 F0_query_dim324 F0_query_dim325 F0_query_dim326 F0_query_dim327 F0_query_dim328 F0_query_dim329 F0_query_dim330 F0_query_dim331 F0_query_dim332 F0_query_dim333 F0_query_dim334 F0_query_dim335 F0_query_dim336 F0_query_dim337 F0_query_dim338 F0_query_dim339 F0_query_dim340 F0_query_dim341 F0_query_dim342 F0_query_dim343 F0_query_dim344 F0_query_dim345 F0_query_dim346 F0_query_dim347 F0_query_dim348 F0_query_dim349 F0_query_dim350 F0_query_dim351 F0_query_dim352 F0_query_dim353 F0_query_dim354 F0_query_dim355 F0_query_dim356 F0_query_dim357 F0_query_dim358 F0_query_dim359 F0_query_dim360 F0_query_dim361 F0_query_dim362 F0_query_dim363 F0_query_dim364 F0_query_dim365 F0_query_dim366 F0_query_dim367 F0_query_dim368 F0_query_dim369 F0_query_dim370 F0_query_dim371 F0_query_dim372 F0_query_dim373 F0_query_dim374 F0_query_dim375 F0_query_dim376 F0_query_dim377 F0_query_dim378 F0_query_dim379 F0_query_dim380 F0_query_dim381 F0_query_dim382 F0_query_dim383 F0_query_dim384 F0_query_dim385 F0_query_dim386 F0_query_dim387 F0_query_dim388 F0_query_dim389 F0_query_dim390 F0_query_dim391 F0_query_dim392 F0_query_dim393 F0_query_dim394 F0_query_dim395 F0_query_dim396 F0_query_dim397 F0_query_dim398 F0_query_dim399 F0_query_dim400 F0_query_dim401 F0_query_dim402 F0_query_dim403 F0_query_dim404 F0_query_dim405 F0_query_dim406 F0_query_dim407 F0_query_dim408 F0_query_dim409 F0_query_dim410 F0_query_dim411 F0_query_dim412 F0_query_dim413 F0_query_dim414 F0_query_dim415 F0_query_dim416 F0_query_dim417 F0_query_dim418 F0_query_dim419 F0_query_dim420 F0_query_dim421 F0_query_dim422 F0_query_dim423 F0_query_dim424 F0_query_dim425 F0_query_dim426 F0_query_dim427 F0_query_dim428 F0_query_dim429 F0_query_dim430 F0_query_dim431 F0_query_dim432 F0_query_dim433 F0_query_dim434 F0_query_dim435 F0_query_dim436 F0_query_dim437 F0_query_dim438 F0_query_dim439 F0_query_dim440 F0_query_dim441 F0_query_dim442 F0_query_dim443 F0_query_dim444 F0_query_dim445 F0_query_dim446 F0_query_dim447 F0_query_dim448 F0_query_dim449 F0_query_dim450 F0_query_dim451 F0_query_dim452 F0_query_dim453 F0_query_dim454 F0_query_dim455 F0_query_dim456 F0_query_dim457 F0_query_dim458 F0_query_dim459 F0_query_dim460 F0_query_dim461 F0_query_dim462 F0_query_dim463 F0_query_dim464 F0_query_dim465 F0_query_dim466 F0_query_dim467 F0_query_dim468 F0_query_dim469 F0_query_dim470 F0_query_dim471 F0_query_dim472 F0_query_dim473 F0_query_dim474 F0_query_dim475 F0_query_dim476 F0_query_dim477 F0_query_dim478 F0_query_dim479 F0_query_dim480 F0_query_dim481 F0_query_dim482 F0_query_dim483 F0_query_dim484 F0_query_dim485 F0_query_dim486 F0_query_dim487 F0_query_dim488 F0_query_dim489 F0_query_dim490 F0_query_dim491 F0_query_dim492 F0_query_dim493 F0_query_dim494 F0_query_dim495 F0_query_dim496 F0_query_dim497 F0_query_dim498 F0_query_dim499 F0_query_dim500 F0_query_dim501 F0_query_dim502 F0_query_dim503 F0_query_dim504 F0_query_dim505 F0_query_dim506 F0_query_dim507 F0_query_dim508 F0_query_dim509 F0_query_dim510 F0_query_dim511 F0_query_dim512 F0_query_dim513 F0_query_dim514 F0_query_dim515 F0_query_dim516 F0_query_dim517 F0_query_dim518 F0_query_dim519 F0_query_dim520 F0_query_dim521 F0_query_dim522 F0_query_dim523 F0_query_dim524 F0_query_dim525 F0_query_dim526 F0_query_dim527 F0_query_dim528 F0_query_dim529 F0_query_dim530 F0_query_dim531 F0_query_dim532 F0_query_dim533 F0_query_dim534 F0_query_dim535 F0_query_dim536 F0_query_dim537 F0_query_dim538 F0_query_dim539 F0_query_dim540 F0_query_dim541 F0_query_dim542 F0_query_dim543 F0_query_dim544 F0_query_dim545 F0_query_dim546 F0_query_dim547 F0_query_dim548 F0_query_dim549 F0_query_dim550 F0_query_dim551 F0_query_dim552 F0_query_dim553 F0_query_dim554 F0_query_dim555 F0_query_dim556 F0_query_dim557 F0_query_dim558 F0_query_dim559 F0_query_dim560 F0_query_dim561 F0_query_dim562 F0_query_dim563 F0_query_dim564 F0_query_dim565 F0_query_dim566 F0_query_dim567 F0_query_dim568 F0_query_dim569 F0_query_dim570 F0_query_dim571 F0_query_dim572 F0_query_dim573 F0_query_dim574 F0_query_dim575 F0_query_dim576 F0_query_dim577 F0_query_dim578 F0_query_dim579 F0_query_dim580 F0_query_dim581 F0_query_dim582 F0_query_dim583 F0_query_dim584 F0_query_dim585 F0_query_dim586 F0_query_dim587 F0_query_dim588 F0_query_dim589 F0_query_dim590 F0_query_dim591 F0_query_dim592 F0_query_dim593 F0_query_dim594 F0_query_dim595 F0_query_dim596 F0_query_dim597 F0_query_dim598 F0_query_dim599 F0_query_dim600 F0_query_dim601 F0_query_dim602 F0_query_dim603 F0_query_dim604 F0_query_dim605 F0_query_dim606 F0_query_dim607 F0_query_dim608 F0_query_dim609 F0_query_dim610 F0_query_dim611 F0_query_dim612 F0_query_dim613 F0_query_dim614 F0_query_dim615 F0_query_dim616 F0_query_dim617 F0_query_dim618 F0_query_dim619 F0_query_dim620 F0_query_dim621 F0_query_dim622 F0_query_dim623 F0_query_dim624 F0_query_dim625 F0_query_dim626 F0_query_dim627 F0_query_dim628 F0_query_dim629 F0_query_dim630 F0_query_dim631 F0_query_dim632 F0_query_dim633 F0_query_dim634 F0_query_dim635 F0_query_dim636 F0_query_dim637 F0_query_dim638 F0_query_dim639 F0_query_dim640 F0_query_dim641 F0_query_dim642 F0_query_dim643 F0_query_dim644 F0_query_dim645 F0_query_dim646 F0_query_dim647 F0_query_dim648 F0_query_dim649 F0_query_dim650 F0_query_dim651 F0_query_dim652 F0_query_dim653 F0_query_dim654 F0_query_dim655 F0_query_dim656 F0_query_dim657 F0_query_dim658 F0_query_dim659 F0_query_dim660 F0_query_dim661 F0_query_dim662 F0_query_dim663 F0_query_dim664 F0_query_dim665 F0_query_dim666 F0_query_dim667 F0_query_dim668 F0_query_dim669 F0_query_dim670 F0_query_dim671 F0_query_dim672 F0_query_dim673 F0_query_dim674 F0_query_dim675 F0_query_dim676 F0_query_dim677 F0_query_dim678 F0_query_dim679 F0_query_dim680 F0_query_dim681 F0_query_dim682 F0_query_dim683 F0_query_dim684 F0_query_dim685 F0_query_dim686 F0_query_dim687 F0_query_dim688 F0_query_dim689 F0_query_dim690 F0_query_dim691 F0_query_dim692 F0_query_dim693 F0_query_dim694 F0_query_dim695 F0_query_dim696 F0_query_dim697 F0_query_dim698 F0_query_dim699 F0_query_dim700 F0_query_dim701 F0_query_dim702 F0_query_dim703 F0_query_dim704 F0_query_dim705 F0_query_dim706 F0_query_dim707 F0_query_dim708 F0_query_dim709 F0_query_dim710 F0_query_dim711 F0_query_dim712 F0_query_dim713 F0_query_dim714 F0_query_dim715 F0_query_dim716 F0_query_dim717 F0_query_dim718 F0_query_dim719 F0_query_dim720 F0_query_dim721 F0_query_dim722 F0_query_dim723 F0_query_dim724 F0_query_dim725 F0_query_dim726 F0_query_dim727 F0_query_dim728 F0_query_dim729 F0_query_dim730 F0_query_dim731 F0_query_dim732 F0_query_dim733 F0_query_dim734 F0_query_dim735 F0_query_dim736 F0_query_dim737 F0_query_dim738 F0_query_dim739 F0_query_dim740 F0_query_dim741 F0_query_dim742 F0_query_dim743 F0_query_dim744 F0_query_dim745 F0_query_dim746 F0_query_dim747 F0_query_dim748 F0_query_dim749 F0_query_dim750 F0_query_dim751 F0_query_dim752 F0_query_dim753 F0_query_dim754 F0_query_dim755 F0_query_dim756 F0_query_dim757 F0_query_dim758 F0_query_dim759 F0_query_dim760 F0_query_dim761 F0_query_dim762 F0_query_dim763 F0_query_dim764 F0_query_dim765 F0_query_dim766 F0_query_dim767 F0_query_dim768 F0_query_dim769 F0_query_dim770 F0_query_dim771 F0_query_dim772 F0_query_dim773 F0_query_dim774 F0_query_dim775 F0_query_dim776 F0_query_dim777 F0_query_dim778 F0_query_dim779 F0_query_dim780 F0_query_dim781 F0_query_dim782 F0_query_dim783 F0_query_dim784 F0_query_dim785 F0_query_dim786 F0_query_dim787 F0_query_dim788 F0_query_dim789 F0_query_dim790 F0_query_dim791 F0_query_dim792 F0_query_dim793 F0_query_dim794 F0_query_dim795 F0_query_dim796 F0_query_dim797 F0_query_dim798 F0_query_dim799 F0_query_dim800 F0_query_dim801 F0_query_dim802 F0_query_dim803 F0_query_dim804 F0_query_dim805 F0_query_dim806 F0_query_dim807 F0_query_dim808 F0_query_dim809 F0_query_dim810 F0_query_dim811 F0_query_dim812 F0_query_dim813 F0_query_dim814 F0_query_dim815 F0_query_dim816 F0_query_dim817 F0_query_dim818 F0_query_dim819 F0_query_dim820 F0_query_dim821 F0_query_dim822 F0_query_dim823 F0_query_dim824 F0_query_dim825 F0_query_dim826 F0_query_dim827 F0_query_dim828 F0_query_dim829 F0_query_dim830 F0_query_dim831 F0_query_dim832 F0_query_dim833 F0_query_dim834 F0_query_dim835 F0_query_dim836 F0_query_dim837 F0_query_dim838 F0_query_dim839 F0_query_dim840 F0_query_dim841 F0_query_dim842 F0_query_dim843 F0_query_dim844 F0_query_dim845 F0_query_dim846 F0_query_dim847 F0_query_dim848 F0_query_dim849 F0_query_dim850 F0_query_dim851 F0_query_dim852 F0_query_dim853 F0_query_dim854 F0_query_dim855 F0_query_dim856 F0_query_dim857 F0_query_dim858 F0_query_dim859 F0_query_dim860 F0_query_dim861 F0_query_dim862 F0_query_dim863 F0_query_dim864 F0_query_dim865 F0_query_dim866 F0_query_dim867 F0_query_dim868 F0_query_dim869 F0_query_dim870 F0_query_dim871 F0_query_dim872 F0_query_dim873 F0_query_dim874 F0_query_dim875 F0_query_dim876 F0_query_dim877 F0_query_dim878 F0_query_dim879 F0_query_dim880 F0_query_dim881 F0_query_dim882 F0_query_dim883 F0_query_dim884 F0_query_dim885 F0_query_dim886 F0_query_dim887 F0_query_dim888 F0_query_dim889 F0_query_dim890 F0_query_dim891 F0_query_dim892 F0_query_dim893 F0_query_dim894 F0_query_dim895 F0_query_dim896 F0_query_dim897 F0_query_dim898 F0_query_dim899 F0_query_dim900 F0_query_dim901 F0_query_dim902 F0_query_dim903 F0_query_dim904 F0_query_dim905 F0_query_dim906 F0_query_dim907 F0_query_dim908 F0_query_dim909 F0_query_dim910 F0_query_dim911 F0_query_dim912 F0_query_dim913 F0_query_dim914 F0_query_dim915 F0_query_dim916 F0_query_dim917 F0_query_dim918 F0_query_dim919 F0_query_dim920 F0_query_dim921 F0_query_dim922 F0_query_dim923 F0_query_dim924 F0_query_dim925 F0_query_dim926 F0_query_dim927 F0_query_dim928 F0_query_dim929 F0_query_dim930 F0_query_dim931 F0_query_dim932 F0_query_dim933 F0_query_dim934 F0_query_dim935 F0_query_dim936 F0_query_dim937 F0_query_dim938 F0_query_dim939 F0_query_dim940 F0_query_dim941 F0_query_dim942 F0_query_dim943 F0_query_dim944 F0_query_dim945 F0_query_dim946 F0_query_dim947 F0_query_dim948 F0_query_dim949 F0_query_dim950 F0_query_dim951 F0_query_dim952 F0_query_dim953 F0_query_dim954 F0_query_dim955 F0_query_dim956 F0_query_dim957 F0_query_dim958 F0_query_dim959 F1_d_start F2_d_1st F3_d_10th F4_1st_to_start F5_10th_to_start
feature_infos=[0:0.75290000438690186] [0:1.3299000263214111] [0:1.1627000570297241] [0:0.74830001592636108] [0:0.81419998407363892] [0:0.91280001401901245] [0:1.4473999738693237] [0:1.2793999910354614] [0:0.75389999151229858] [0:1.1315000057220459] [0:1.2178000211715698] [0:0.76550000905990601] [0:0.87209999561309814] [0:0.97689998149871826] [0:1.1150000095367432] [0:1.0156999826431274] [0:0.79070001840591431] [0:0.65609997510910034] [0:0.59719997644424438] [0:0.60290002822875977] [0:0.60939997434616089] [0:0.72970002889633179] [0:0.80620002746582031] [0:0.66720002889633179] [0:0.66200000047683716] [0:0.74970000982284546] [0:0.76429998874664307] [0:0.76560002565383911] [0:0.63739997148513794] [0:0.59780001640319824] [0:0.69900000095367432] [0:0.61919999122619629] [0:0.6273999810218811] [0:0.49579998850822449] [0:0.63239997625350952] [0:0.6589999794960022] [0:0.49970000982284546] [0:0.72049999237060547] [0:0.52600002288818359] [0:0.55320000648498535] [0:0.53469997644424438] [0:0.5690000057220459] [0:0.63669997453689575] [0:0.48629999160766602] [0:0.66030001640319824] [0:0.57529997825622559] [0:0.59350001811981201] [0:0.55870002508163452] [0:0.74220001697540283] [0:0.95889997482299805] [0:0.59179997444152832] [0:0.68260002136230469] [0:0.66530001163482666] [0:0.75069999694824219] [0:0.65729999542236328] [0:0.6898999810218811] [0:0.67890000343322754] [0:0.61180001497268677] [0:0.63289999961853027] [0:0.66930001974105835] [0:0.50859999656677246] [0:0.54839998483657837] [0:0.54009997844696045] [0:0.48899999260902405] [0:0.95690000057220459] [0:0.8586999773979187] [0:1.2421000003814697] [0:0.96050000190734863] [0:1.2848000526428223] [0:1.1669000387191772] [0:1.260699987411499] [0:1.1023000478744507] [0:1.2836999893188477] [0:1.1119999885559082] [0:1.2589000463485718] [0:1.0910999774932861] [0:0.92849999666213989] [0:0.83350002765655518] [0:1.2259999513626099] [0:0.92650002241134644] [0:0.57370001077651978] [0:0.54970002174377441] [0:0.5680999755859375] [0:0.60860002040863037] [0:0.60930001735687256] [0:0.72399997711181641] [0:0.63080000877380371] [0:0.60399997234344482] [0:0.61710000038146973] [0:0.6283000111579895] [0:0.74260002374649048] [0:0.63660001754760742] [0:0.76829999685287476] [0:0.54259997606277466] [0:0.60000002384185791] [0:0.63499999046325684] [0:0.64869999885559082] [0:0.58230000734329224] [0:0.60659998655319214] [0:0.51920002698898315] [0:0.607200026512146] [0:0.56080001592636108] [0:0.59719997644424438] [0:0.62900000810623169] [0:0.60570001602172852] [0:0.67869997024536133] [0:0.63319998979568481] [0:0.55000001192092896] [0:0.57700002193450928] [0:0.54199999570846558] [0:0.63489997386932373] [0:0.65049999952316284] [0:0.67489999532699585] [0:0.63969999551773071] [0:0.53939998149871826] [0:0.58359998464584351] [0:0.65289998054504395] [0:0.66280001401901245] [0:0.67979997396469116] [0:0.61540001630783081] [0:0.72600001096725464] [0:0.61640000343322754] [0:0.60030001401901245] [0:0.60920000076293945] [0:0.79280000925064087] [0:0.62769997119903564] [0:0.74800002574920654] [0:0.5690000057220459] [0:0.93059998750686646] [0:0.99360001087188721] [0:0.96990001201629639] [0:1.0152000188827515] [0:0.89529997110366821] [0:0.95359998941421509] [0:1.2381000518798828] [0:0.94779998064041138] [0:0.85329997539520264] [0:0.90630000829696655] [0:1.1244000196456909] [0:0.85780000686645508] [0:0.8156999945640564] [0:0.97649997472763062] [0:0.93800002336502075] [0:0.76709997653961182] [0:0.82800000905990601] [0:0.64560002088546753] [0:0.83170002698898315] [0:0.59850001335144043] [0:0.70929998159408569] [0:0.76279997825622559] [0:0.819100022315979] [0:0.90219998359680176] [0:0.69499999284744263] [0:0.77869999408721924] [0:0.6906999945640564] [0:0.93239998817443848] [0:0.60369998216629028] [0:0.76029998064041138] [0:0.64050000905990601] [0:0.70249998569488525] [0:0.59899997711181641] [0:0.55010002851486206] [0:0.92430001497268677] [0:0.74159997701644897] [0:0.57859998941421509] [0:0.93140000104904175] [0:0.61809998750686646] [0:0.59390002489089966] [0:0.63630002737045288] [0:0.71469998359680176] [0:0.64660000801086426] [0:0.51940000057220459] [0:0.60820001363754272] [0:0.65149998664855957] [0:0.54579997062683105] [0:0.57099997997283936] [0:0.64939999580383301] [0:1.0398000478744507] [0:0.80110001564025879] [0:0.66119998693466187] [0:0.71880000829696655] [0:1.0326000452041626] [0:0.91390001773834229] [0:0.7159000039100647] [0:0.82120001316070557] [0:0.68760001659393311] [0:0.61619997024536133] [0:0.60850000381469727] [0:0.63990002870559692] [0:0.65890002250671387] [0:0.5746999979019165] [0:0.62690001726150513] [0:0.86320000886917114] [0:1.1555999517440796] [0:1.0098999738693237] [0:0.9187999963760376] [0:1.0848000049591064] [0:1.2354999780654907] [0:1.0269999504089355] [0:1.0398999452590942] [0:1.0893000364303589] [0:1.246399998664856] [0:1.0217000246047974] [0:0.97200000286102295] [0:0.85039997100830078] [0:1.222599983215332] [0:1.0109000205993652] [0:0.83619999885559082] [0:0.56599998474121094] [0:0.82679998874664307] [0:0.61479997634887695] [0:0.63419997692108154] [0:0.80119997262954712] [0:0.82679998874664307] [0:0.70749998092651367] [0:0.65590000152587891] [0:0.66740000247955322] [0:0.66960000991821289] [0:0.83380001783370972] [0:0.77249997854232788] [0:0.65640002489089966] [0:0.56419998407363892] [0:0.607200026512146] [0:0.58740001916885376] [0:0.62709999084472656] [0:0.70679998397827148] [0:0.63230001926422119] [0:0.54259997606277466] [0:0.66900002956390381] [0:0.67129999399185181] [0:0.79780000448226929] [0:0.65539997816085815] [0:0.60439997911453247] [0:0.96569997072219849] [0:0.82609999179840088] [0:0.69169998168945312] [0:0.56339997053146362] [0:0.68500000238418579] [0:0.7150999903678894] [0:0.78390002250671387] [0:0.61210000514984131] [0:0.70910000801086426] [0:0.56730002164840698] [0:0.65460002422332764] [0:0.71700000762939453] [0:0.70139998197555542] [0:0.78280001878738403] [0:0.7378000020980835] [0:0.56300002336502075] [0:0.57520002126693726] [0:0.87360000610351562] [0:0.81699997186660767] [0:0.65450000762939453] [0:0.63950002193450928] [0:0.8091999888420105] [0:0.61059999465942383] [0:0.56929999589920044] [0:0.75080001354217529] [0:0.79589998722076416] [0:0.66729998588562012] [0:0.66280001401901245] [0:0.76279997825622559] [0:0.68409997224807739] [0:0.6435999870300293] [0:0.555899977684021] [0:0.7444000244140625] [0:0.72219997644424438] [0:0.65410000085830688] [0:0.56529998779296875] [0:0.72310000658035278] [0:0.70959997177124023] [0:0.5810999870300293] [0:0.43509998917579651] [0:0.51740002632141113] [0:0.59759998321533203] [0:0.56410002708435059] [0:0.48679998517036438] [0:0.67549997568130493] [0:0.694100022315979] [0:0.52149999141693115] [0:0.69760000705718994] [0:0.89300000667572021] [0:0.80400002002716064] [0:0.55119997262954712] [0:0.58869999647140503] [0:0.72170001268386841] [0:0.64240002632141113] [0:0.50529998540878296] [0:0.59769999980926514] [0:0.63520002365112305] [0:0.66039997339248657] [0:0.76819998025894165] [0:0.73040002584457397] [0:0.74720001220703125] [0:0.821399986743927] [0:0.81279999017715454] [0:0.75499999523162842] [0:0.8158000111579895] [0:0.81160002946853638] [0:0.8256000280380249] [0:0.74390000104904175] [0:0.64380002021789551] [0:0.68290001153945923] [0:0.66170001029968262] [0:0.60390001535415649] [0:0.54180002212524414] [0:0.65810000896453857] [0:0.48539999127388] [0:0.57440000772476196] [0:0.60920000076293945] [0:0.56260001659393311] [0:0.49500000476837158] [0:0.49160000681877136] [0:0.72939997911453247] [0:0.75300002098083496] [0:0.5845000147819519] [0:0.45910000801086426] [0:0.57810002565383911] [0:0.6348000168800354] [0:0.59020000696182251] [0:0.67930001020431519] [0:0.79839998483657837] [0:0.83929997682571411] [0:0.78769999742507935] [0:0.7159000039100647] [0:0.78519999980926514] [0:0.79570001363754272] [0:0.67220002412796021] [0:0.77149999141693115] [0:0.69609999656677246] [0:1.0987000465393066] [0:0.67170000076293945] [0:0.76810002326965332] [0:0.69150000810623169] [0:0.76200002431869507] [0:0.87230002880096436] [0:0.74610000848770142] [0:0.68320000171661377] [0:0.74379998445510864] [0:0.74500000476837158] [0:0.55239999294281006] [0:0.56480002403259277] [0:0.55089998245239258] [0:0.52920001745223999] [0:0.62660002708435059] [0:0.71329998970031738] [0:0.55129998922348022] [0:0.60729998350143433] [0:0.65979999303817749] [0:0.7159000039100647] [0:0.67479997873306274] [0:0.60140001773834229] [0:0.74049997329711914] [0:0.62489998340606689] [0:0.76719999313354492] [0:0.84229999780654907] [0:0.52249997854232788] [0:0.60559999942779541] [0:0.54629999399185181] [0:0.66820001602172852] [0:0.96280002593994141] [0:0.56699997186660767] [0:0.5031999945640564] [0:0.78270000219345093] [0:0.88349997997283936] [0:0.77660000324249268] [0:0.74250000715255737] [0:0.83630001544952393] [0:0.94849997758865356] [0:1.0895999670028687] [0:0.53579998016357422] [0:0.5843999981880188] [0:0.85089999437332153] [0:0.74900001287460327] [0:0.57289999723434448] [0:0.63630002737045288] [0:0.65499997138977051] [0:0.58289998769760132] [0:0.59729999303817749] [0:0.47659999132156372] [0:0.56089997291564941] [0:0.47960001230239868] [0:0.46779999136924744] [0:0.55830001831054688] [0:1.2070000171661377] [0:0.84030002355575562] [0:1.0321999788284302] [0:0.81059998273849487] [0:1.527400016784668] [0:1.1835000514984131] [0:1.0305999517440796] [0:0.91019999980926514] [0:1.1086000204086304] [0:1.1842999458312988] [0:1.0317000150680542] [0:0.9211999773979187] [0:0.94559997320175171] [0:0.94099998474121094] [0:1.0339000225067139] [0:0.94300001859664917] [0:0.57599997520446777] [0:0.52499997615814209] [0:0.49020001292228699] [0:0.58630001544952393] [0:0.65630000829696655] [0:0.59780001640319824] [0:0.57599997520446777] [0:0.5163000226020813] [0:0.48019999265670776] [0:0.59680002927780151] [0:0.53689998388290405] [0:0.62790000438690186] [0:0.47830000519752502] [0:0.51190000772476196] [0:0.60350000858306885] [0:0.54960000514984131] [0:0.59560000896453857] [0:0.65230000019073486] [0:0.60039997100830078] [0:0.46340000629425049] [0:0.56300002336502075] [0:0.65939998626708984] [0:0.69230002164840698] [0:0.55309998989105225] [0:0.49279999732971191] [0:0.46279999613761902] [0:0.52230000495910645] [0:0.48910000920295715] [0:0.45249998569488525] [0:0.5899999737739563] [0:0.56940001249313354] [0:0.60449999570846558] [0:0.508899986743927] [0:0.67869997024536133] [0:0.63169997930526733] [0:0.58249998092651367] [0:0.46369999647140503] [0:0.63099998235702515] [0:0.68010002374649048] [0:0.56610000133514404] [0:0.5877000093460083] [0:0.57080000638961792] [0:0.71219998598098755] [0:0.84619998931884766] [0:0.52730000019073486] [0:0.70370000600814819] [0:0.72100001573562622] [0:0.65829998254776001] [0:0.66960000991821289] [0:0.71100002527236938] [0:0.87870001792907715] [0:0.63330000638961792] [0:0.61989998817443848] [0:0.81300002336502075] [0:0.76440000534057617] [0:0.69809997081756592] [0:0.58840000629425049] [0:0.81410002708435059] [0:0.73769998550415039] [0:0.64829999208450317] [0:0.85519999265670776] [0:0.85809999704360962] [0:0.75440001487731934] [0:0.71039998531341553] [0:0.57039999961853027] [0:0.56879997253417969] [0:0.74080002307891846] [0:0.84170001745223999] [0:0.48949998617172241] [0:0.65590000152587891] [0:0.63300001621246338] [0:0.49149999022483826] [0:0.62959998846054077] [0:0.68229997158050537] [0:0.71549999713897705] [0:0.59549999237060547] [0:0.62639999389648438] [0:0.75999999046325684] [0:0.70469999313354492] [0:0.60060000419616699] [0:0.71560001373291016] [0:0.61710000038146973] [0:0.88309997320175171] [0:0.6906999945640564] [0:0.59890002012252808] [0:0.64020001888275146] [0:0.66329997777938843] [0:0.61470001935958862] [0:0.88980001211166382] [0:0.77869999408721924] [0:0.92710000276565552] [0:0.82630002498626709] [0:0.77920001745223999] [0:0.89069998264312744] [0:0.84320002794265747] [0:0.74870002269744873] [0:0.65429997444152832] [0:1.2136000394821167] [0:0.95130002498626709] [0:0.67070001363754272] [0:0.61979997158050537] [0:1.2005000114440918] [0:0.73250001668930054] [0:0.72979998588562012] [0:0.57840001583099365] [0:0.54409998655319214] [0:0.51709997653961182] [0:0.67350000143051147] [0:0.54850000143051147] [0:0.63669997453689575] [0:0.55299997329711914] [0:0.59429997205734253] [0:0.88400000333786011] [0:0.99559998512268066] [0:0.75] [0:0.74769997596740723] [0:0.88969999551773071] [0:1.2973999977111816] [0:0.79070001840591431] [0:0.85920000076293945] [0:0.86260002851486206] [0:0.88169997930526733] [0:0.88279998302459717] [0:0.89770001173019409] [0:0.97960001230239868] [0:0.78159999847412109] [0:0.7468000054359436] [0:0.76730000972747803] [0:0.62319999933242798] [0:0.58649998903274536] [0:0.48149999976158142] [0:0.69760000705718994] [0:0.68599998950958252] [0:0.58050000667572021] [0:0.61349999904632568] [0:0.62959998846054077] [0:0.54670000076293945] [0:0.55559998750686646] [0:0.60710000991821289] [0:0.61140000820159912] [0:0.52289998531341553] [0:0.50760000944137573] [0:0.57370001077651978] [0:0.62389999628067017] [0:0.57489997148513794] [0:0.58950001001358032] [0:0.48989999294281006] [0:0.55239999294281006] [0:0.5404999852180481] [0:0.74690002202987671] [0:0.60449999570846558] [0:0.50129997730255127] [0:0.58350002765655518] [0:0.60809999704360962] [0:0.63300001621246338] [0:0.58910000324249268] [0:0.51599997282028198] [0:0.55640000104904175] [0:0.52920001745223999] [0:0.72089999914169312] [0:0.50550001859664917] [0:0.75800001621246338] [0:0.55369997024536133] [0:0.55449998378753662] [0:0.60170000791549683] [0:0.82429999113082886] [0:0.68059998750686646] [0:0.59939998388290405] [0:0.53070002794265747] [0:0.55080002546310425] [0:0.71240001916885376] [0:0.62639999389648438] [0:0.54890000820159912] [0:0.51340001821517944] [0:0.68959999084472656] [0:0.51829999685287476] [0:0.54839998483657837] [0:0.74779999256134033] [0:0.69389998912811279] [0:0.54680001735687256] [0:0.58069998025894165] [0:0.60879999399185181] [0:0.63830000162124634] [0:0.53030002117156982] [0:0.59859997034072876] [0:0.72670000791549683] [0:0.68839997053146362] [0:0.56950002908706665] [0:0.55409997701644897] [0:0.75929999351501465] [0:0.67799997329711914] [0:0.46169999241828918] [0:0.54589998722076416] [0:0.50739997625350952] [0:0.53350001573562622] [0:0.50520002841949463] [0:0.55549997091293335] [0:0.4627000093460083] [0:0.68500000238418579] [0:0.43819999694824219] [0:0.44539999961853027] [0:0.52569997310638428] [0:0.54079997539520264] [0:0.4375] [0:0.51749998331069946] [0:0.46660000085830688] [0:0.5658000111579895] [0:0.4627000093460083] [0:0.80330002307891846] [0:0.93169999122619629] [0:0.66960000991821289] [0:0.5877000093460083] [0:0.7192000150680542] [0:0.66860002279281616] [0:0.68489998579025269] [0:0.65119999647140503] [0:0.64730000495910645] [0:0.63940000534057617] [0:0.633899986743927] [0:0.64550000429153442] [0:0.59350001811981201] [0:0.61360001564025879] [0:0.56300002336502075] [0:0.61650002002716064] [0:0.50529998540878296] [0:0.50929999351501465] [0:0.45379999279975891] [0:0.43470001220703125] [0:0.52679997682571411] [0:0.5746999979019165] [0:0.53579998016357422] [0:0.54269999265670776] [0:0.43540000915527344] [0:0.53649997711181641] [0:0.59769999980926514] [0:0.51230001449584961] [0:0.45879998803138733] [0:0.46529999375343323] [0:0.57709997892379761] [0:0.61030000448226929] [0:0.70240002870559692] [0:0.88510000705718994] [0:0.85140001773834229] [0:0.70209997892379761] [0:0.69419997930526733] [0:0.85530000925064087] [0:0.81309998035430908] [0:0.74210000038146973] [0:0.96429997682571411] [0:0.83730000257492065] [0:0.91130000352859497] [0:0.77469998598098755] [0:0.7685999870300293] [0:0.80419999361038208] [0:0.81779998540878296] [0:0.76059997081756592] [0:0.5471000075340271] [0:0.71380001306533813] [0:0.56449997425079346] [0:0.79610002040863037] [0:0.49729999899864197] [0:0.61000001430511475] [0:0.52600002288818359] [0:0.53799998760223389] [0:0.63559997081756592] [0:0.58939999341964722] [0:0.83060002326965332] [0:0.53600001335144043] [0:0.60049998760223389] [0:0.52789998054504395] [0:0.60559999942779541] [0:0.48249998688697815] [0:0.58859997987747192] [0:0.51109999418258667] [0:0.56999999284744263] [0:0.59340000152587891] [0:0.51239997148513794] [0:0.62349998950958252] [0:0.55199998617172241] [0:0.59729999303817749] [0:0.64139997959136963] [0:0.63470000028610229] [0:0.63929998874664307] [0:0.54479998350143433] [0:0.61970001459121704] [0:0.57910001277923584] [0:0.56379997730255127] [0:0.64840000867843628] [0:0.74250000715255737] [0:0.74400001764297485] [0:0.5942000150680542] [0:0.62989997863769531] [0:0.58950001001358032] [0:0.61299997568130493] [0:0.61629998683929443] [0:0.64490002393722534] [0:0.60570001602172852] [0:0.56540000438690186] [0:0.55870002508163452] [0:0.53769999742507935] [0:0.55010002851486206] [0:0.55430001020431519] [0:0.61570000648498535] [0:0.5131000280380249] [0:0.87999999523162842] [0:0.80519998073577881] [0:0.70020002126693726] [0:0.81360000371932983] [0:0.87089997529983521] [0:0.87809997797012329] [0:0.98030000925064087] [0:0.91540002822875977] [0:1.0658999681472778] [0:0.86710000038146973] [0:0.90420001745223999] [0:0.88080000877380371] [0:0.86650002002716064] [0:0.75279998779296875] [0:0.82700002193450928] [0:0.83329999446868896] [0:0.55220001935958862] [0:0.57209998369216919] [0:0.59820002317428589] [0:0.50739997625350952] [0:0.57950001955032349] [0:0.66530001163482666] [0:0.60439997911453247] [0:0.63660001754760742] [0:0.63760000467300415] [0:0.60399997234344482] [0:0.61619997024536133] [0:0.70230001211166382] [0:0.52590000629425049] [0:0.54869997501373291] [0:0.7752000093460083] [0:0.7160000205039978] [0:0.61710000038146973] [0:0.53839999437332153] [0:0.62099999189376831] [0:0.50190001726150513] [0:0.51800000667572021] [0:0.5788000226020813] [0:0.72759997844696045] [0:0.60939997434616089] [0:0.49309998750686646] [0:0.61449998617172241] [0:0.61760002374649048] [0:0.56199997663497925] [0:0.45350000262260437] [0:0.48539999127388] [0:0.58050000667572021] [0:0.53570002317428589] [0:0.80540001392364502] [0:0.64010000228881836] [0:0.55680000782012939] [0:0.53649997711181641] [0:0.63819998502731323] [0:0.61680001020431519] [0:0.60229998826980591] [0:0.4763999879360199] [0:0.56260001659393311] [0:0.60159999132156372] [0:0.57800000905990601] [0:0.53700000047683716] [0:0.57410001754760742] [0:0.76969999074935913] [0:0.71640002727508545] [0:0.54979997873306274] [0:0.79180002212524414] [0:0.91089999675750732] [0:0.87300002574920654] [0:0.81330001354217529] [0:0.85479998588562012] [0:0.89490002393722534] [0:0.93349999189376831] [0:0.81919997930526733] [0:0.83389997482299805] [0:0.88919997215270996] [0:0.92760002613067627] [0:0.84179997444152832] [0:0.92330002784729004] [0:0.99879997968673706] [0:0.93000000715255737] [0:0.93400001525878906] [0:0.53439998626708984] [0:0.70690000057220459] [0:0.70759999752044678] [0:0.7271999716758728] [0:0.63440001010894775] [0:0.65710002183914185] [0:0.7565000057220459] [0:0.65069997310638428] [0:0.60619997978210449] [0:0.65280002355575562] [0:0.71700000762939453] [0:0.63109999895095825] [0:0.57260000705718994] [0:0.62650001049041748] [0:0.77670001983642578] [0:0.57270002365112305] [0:0.7214999794960022] [0:0.56749999523162842] [0:0.91140002012252808] [0:0.73650002479553223] [0:0.54739999771118164] [0:0.93540000915527344] [0:0.66449999809265137] [0:0.60409998893737793] [0:0.65390002727508545] [0:0.75459998846054077] [0:0.91750001907348633] [0:0.59219998121261597] [0:0.59530001878738403] [0:0.66159999370574951] [0:0.61790001392364502] [0:0.54720002412796021] [0:0.54930001497268677] [0:0.9440000057220459] [0:0.84520000219345093] [0:0.65469998121261597] [0:0.63520002365112305] [0:0.78130000829696655] [0:1.0615999698638916] [0:0.75770002603530884] [0:0.57510000467300415] [0:0.61210000514984131] [0:0.63620001077651978] [0:0.60799998044967651] [0:0.59049999713897705] [0:0.694100022315979] [0:0.7336999773979187] [0:0.52100002765655518] [0:0.88730001449584961] [0:0.85269999504089355] [0:0.87070000171661377] [0:0.90390002727508545] [0:1.0061999559402466] [0:0.89139997959136963] [0:0.94760000705718994] [0:0.91210001707077026] [0:0.98180001974105835] [0:1.003600001335144] [0:0.96630001068115234] [0:0.97060000896453857] [0:0.94440001249313354] [0:0.9122999906539917] [0:0.92820000648498535] [0:0.96890002489089966] [0:0.60180002450942993] [0:0.52359998226165771] [0:0.6711999773979187] [0:0.59399998188018799] [0:0.71880000829696655] [0:0.73890000581741333] [0:0.68000000715255737] [0:0.63630002737045288] [0:0.73589998483657837] [0:0.65439999103546143] [0:0.70349997282028198] [0:0.71909999847412109] [0:0.56760001182556152] [0:0.66339999437332153] [0:0.61720001697540283] [0:0.55729997158050537] [0:0.71310001611709595] [0:0.52340000867843628] [0:0.68169999122619629] [0:0.52590000629425049] [0:0.59600001573562622] [0:0.63550001382827759] [0:1.0749000310897827] [0:0.69029998779296875] [0:0.60610002279281616] [0:0.60290002822875977] [0:0.78039997816085815] [0:0.55419999361038208] [0:0.55729997158050537] [0:0.64259999990463257] [0:0.67479997873306274] [0:0.76510000228881836] [0:0.62120002508163452] [0:0.705299973487854] [0:0.66869997978210449] [0:0.60269999504089355] [0:0.5745999813079834] [0:0.60839998722076416] [0:1.0752999782562256] [0:0.57899999618530273] [0:0.6753000020980835] [0:0.73360002040863037] [0:0.6711999773979187] [0:0.63419997692108154] [0:0.53090000152587891] [0:0.76740002632141113] [0:0.59589999914169312] [0:0.59049999713897705] [0:0.67949998378753662] [0:0.72049999237060547] [0:0.95679998397827148] [0:0.61440002918243408] [0:0.60159999132156372] [0:0.67159998416900635] [0:0.79490000009536743] [0:0.8320000171661377] [0:0.50190001726150513] [0:0.76270002126693726] [0:0.78229999542236328] [0:0.60060000419616699] [0:0.57050001621246338] [0:0.81599998474121094] [0:0.81410002708435059] [0:0.59799998998641968] [0:0.55339998006820679] [0:0.49900001287460327] [0:0.49529999494552612] [0:0.51109999418258667] [0:0.56120002269744873] [0:0.7663000226020813] [0:0.51010000705718994] [0:0.49919998645782471] [0:0.5404999852180481] [0:0.6524999737739563] [0:0.71369999647140503] [0:0.50389999151229858] [0:0.5461999773979187] [0:0.4830000102519989] [0:0.53159999847412109] [0:0.46560001373291016] [0:0.6128000020980835] [0:0.67189997434616089] [0:0.73019999265670776] [0:0.62379997968673706] [0:0.72320002317428589] [0:0.7149999737739563] [0:0.73290002346038818] [0:0.8375999927520752] [0:0.76010000705718994] [0:0.71960002183914185] [0:0.73570001125335693] [0:0.85100001096725464] [0:0.60540002584457397] [0:0.66200000047683716] [0:0.70319998264312744] [0:0.65960001945495605] [0:0.53189998865127563] [0:0.47879999876022339] [0:0.56770002841949463] [0:0.42809998989105225] [0:0.54549998044967651] [0:0.73210000991821289] [0:0.5559999942779541] [0:0.48489999771118164] [0:0.52789998054504395] [0:0.57059997320175171] [0:0.59299999475479126] [0:0.51190000772476196] [0:0.43050000071525574] [0:0.49610000848770142] [0:0.55580002069473267] [0:0.53350001573562622] [0:47.079099999999997] [0:40.149999999999999] [0:42.691699999999997] [0:1] [0:33971100000]
tree_sizes=2935 2949 2929 2965 2981 2953 2978 2978 2958 2974 2989 3007 3009 3018 3014 3038 3048 3059 3063 3051 3047 3079 3085 3070 3091 3078 3093 3088 3086 3084 3106 3101 3089 3086 3072 3081 3066 3096 3108 3106 3124 2986 3105 3122 3110 3103 3093 3090 3093 3119 3066 3087 3121 3062 3072 3095 3019 3102 3105 3053 3102 3111 3107 3021 3078 3069 3114 2890 2969 3073 3104 3104 3092 3036 3095 3092 3076 3012 3065 3069 3052 3030 3046 3062 3051 2930 3031 2925 2944 3012 3063 3000 2954 2875 3091 3076 3040 2868 3035 2980

Tree=0
num_leaves=31
num_cat=0
split_feature=961 964 963 964 961 961 963 963 964 964 963 962 964 964 963 963 963 964 964 963 964 963 962 964 964 963 964 963 963 964
split_gain=190514 42879.1 48805.4 36945.4 22077.7 15282.8 8066.87 6360.6 14046.6 9745.83 8416.67 6251.37 6206.78 5119.2 4539.72 4061.97 3494.18 5584.3 3083.93 2835.97 3919.12 2702.56 2676.55 2503.49 2484.88 2483.9 2430.3 4325.64 4068.55 2639.87
threshold=0.8985105000000001 1.0730950000000001 0.77690350000000008 1.0819850000000002 0.50155800000000006 1.2525150000000003 0.69131250000000011 0.84183150000000018 0.90566100000000016 0.95707350000000002 0.89510050000000019 0.29982600000000009 0.85932850000000027 0.99999950000000004 0.75172300000000003 0.99999950000000004 0.87617900000000015 0.91837200000000008 1.1592150000000003 0.81052200000000008 0.86318100000000009 0.93869950000000013 1.1547850000000002 1.0393550000000003 0.94059200000000009 0.74449350000000014 0.95895850000000016 0.88465050000000012 0.86441900000000016 0.91615450000000009
decision_type=2 2 2 2 2 2 2 2 2 2 2 2 2 2 2 2 2 2 2 2 2 2 2 2 2 2 2 2 2 2
left_child=3 2 6 4 11 26 -2 8 19 16 -11 -1 25 -12 -6 -3 17 -9 -5 20 -7 -15 -13 -23 -10 -8 28 -28 29 -4
right_child=1 15 5 18 14 7 12 9 24 10 13 22 -14 21 -16 -17 -18 -19 -20 -21 -22 23 -24 -25 -26 -27 27 -29 -30 -31
leaf_value=1.3807463107674569 1.5990388411665639 1.4535321605006644 1.8358239970387431 1.2255604450600279 1.5733411785246751 1.9759668357995264 1.7358203947539121 2.0693719464378399 1.7702770900306808 1.7451506934902359 2.0122401844538174 1.4973819705465321 1.6450497269226254 1.7423195551690005 1.6663291705082874 1.1207024138036117 2.0895593274261191 1.8950804205529999 0.96112953174233029 1.9853113612874336 1.8125077908766796 1.9886150357401964 1.6092235531063495 1.7694494092330073 1.6164781086859408 1.8328594017382867 1.6385223033590806 1.8087916655001046 1.939611008912197 1.7326135000092362
leaf_weight=16780 24020 2817 29370 4075 31112 10180 23958 13018 15231 13326 16380 39303 20646 5709 64619 3060 14865 16898 3111 18899 13849 6345 10942 3105 5803 18855 8753 18758 10469 14963
leaf_count=16780 24020 2817 29370 4075 31112 10180 23958 13018 15231 13326 16380 39303 20646 5709 64619 3060 14865 16898 3111 18899 13849 6345 10942 3105 5803 18855 8753 18758 10469 14963
internal_value=0 9.07809 9.12674 7.77439 7.87237 9.3633 8.48878 9.54961 9.3087 9.7215 9.39208 7.4322 8.67561 9.67363 8.18054 6.40118 10.0515 9.85462 5.55541 9.63674 9.40879 9.25483 7.60869 9.58302 8.63923 8.89278 9.01561 8.77309 9.13735 9.00495
internal_weight=0 329277 323400 169942 162756 235921 87479 153608 63962 89646 44865 67025 63459 31539 95731 5877 44781 29916 7186 42928 24029 15159 50245 9450 21034 42813 82313 27511 54802 44333
internal_count=499219 329277 323400 169942 162756 235921 87479 153608 63962 89646 44865 67025 63459 31539 95731 5877 44781 29916 7186 42928 24029 15159 50245 9450 21034 42813 82313 27511 54802 44333
shrinkage=0.2


Tree=1
num_leaves=31
num_cat=0
split_feature=961 964 963 964 961 553 963 964 964 963 964 963 961 963 964 964 963 963 961 964 964 963 963 963 964 964 963 964 964 964
split_gain=123930 30901.6 33699.4 21044.5 13292.3 9606.55 7046.38 7593.72 5484.65 6939.54 11141.4 5023.95 4406.81 3608.27 5085.93 3267.33 5120.69 2942.23 2778.28 2776.94 2458.89 2332.07 2259.84 2117.21 2969.17 2010.1 1962.73 1922.47 1910.07 1704.15
threshold=0.81923400000000013 1.0819850000000002 0.79128450000000006 1.0651250000000003 1.1610600000000002 0.023149999789893631 0.70717050000000004 0.87237150000000019 0.99999950000000004 0.87014650000000004 0.92440350000000027 0.91955100000000012 0.58626450000000008 0.83012450000000004 0.88165650000000007 0.94741850000000005 0.91132650000000004 0.99999950000000004 0.20415550000000002 0.99908300000000005 1.0479150000000004 0.99999950000000004 0.75951250000000015 0.87515350000000025 0.92440350000000027 0.83936200000000005 0.83267250000000004 0.81390950000000017 0.90190000000000015 0.95262050000000009
decision_type=2 2 2 2 2 2 2 2 2 2 2 2 2 2 2 2 2 2 2 2 2 2 2 2 2 2 2 2 2 2
left_child=3 2 6 5 19 18 -2 22 9 10 13 -10 -7 14 -6 -11 -17 26 -1 23 -13 -3 27 24 -4 -24 -5 -8 -15 -12
right_child=1 21 4 17 8 12 7 -9 11 15 29 20 -14 28 -16 16 -18 -19 -20 -21 -22 -23 25 -25 -26 -27 -28 -29 -30 -31
leaf_value=1.0665660598522504 1.2888850444073128 1.118389804221227 1.4621605743049431 0.82465330418648508 1.5951334292700925 1.2361660245020425 1.4673268548084923 1.3052579453096576 1.2796662804291432 1.6813098659957397 1.4408999745981546 1.5379738192387817 1.3189974842184413 1.675375610565756 1.4479237440759287 1.5070321050126529 1.669003209642953 0.74078179966937163 1.1904254860373171 1.3343427800420811 1.3446275293756687 0.85321317883103487 1.5605700883636378 1.5057122125087261 1.3546486333546088 1.4403770242206333 1.0800062691059442 1.3667186866571752 1.5670666285905788 1.337208515284013
leaf_weight=10621 34379 2367 25327 1783 17667 55636 11865 25228 6086 14995 19653 11776 47735 11318 20032 20482 12617 2659 22783 11663 3388 3018 8663 15093 17289 15567 3708 21121 15341 9359
leaf_count=10621 34379 2367 25327 1783 17667 55636 11865 25228 6086 14995 19653 11776 47735 11318 20032 20482 12617 2659 22783 11663 3388 3018 8663 15093 17289 15567 3708 21121 15341 9359
internal_value=0 7.2261 7.26279 6.12841 7.48328 6.22143 6.82475 6.98334 7.63954 7.7107 7.55174 7.16584 6.37208 7.78367 7.58456 8.0193 7.84387 4.56734 5.75522 7.11676 7.47388 4.84886 7.18487 7.20671 7.09272 7.41675 4.98545 7.01454 8.06524 7.03725
internal_weight=0 354294 348909 144925 232086 136775 116823 82444 162714 141464 93370 21250 103371 64358 37699 48094 33099 8150 33404 69372 15164 5385 57216 57709 42616 24230 5491 32986 26659 29012
internal_count=499219 354294 348909 144925 232086 136775 116823 82444 162714 141464 93370 21250 103371 64358 37699 48094 33099 8150 33404 69372 15164 5385 57216 57709 42616 24230 5491 32986 26659 29012
shrinkage=0.2


Tree=2
num_leaves=31
num_cat=0
split_feature=961 964 963 964 961 963 964 964 963 814 964 963 964 964 963 963 964 964 963 964 964 964 963 964 963 963 963 548 963 964
split_gain=80649.9 17888.2 17332.2 19023.2 11873.9 6062.67 10724.8 7081.18 6281.58 4719.81 3530.2 3434.82 3354.7 3206.8 3177.08 2852.36 2814.21 2370.42 2369.66 4520.98 2329.3 2134.8 2106.99 2040.85 2027.74 1825.02 1793.42 1754.56 1645.93 1635.24
threshold=0.96758600000000017 1.0528500000000001 0.76433950000000006 1.0587550000000003 0.63319600000000009 0.84857650000000018 0.90190000000000015 0.96674950000000004 0.90979100000000013 0.01625000033527613 1.1077450000000002 0.80786800000000014 1.126425 0.85411350000000008 0.6643985 0.81650200000000017 0.83287850000000019 1.0123850000000001 0.89510050000000019 0.93354550000000003 0.95262050000000009 0.94479250000000004 0.82164100000000007 0.90190000000000015 0.96172700000000011 0.67538900000000013 0.93869950000000013 0.017050000838935379 0.86441900000000016 0.88489350000000011
decision_type=2 2 2 2 2 2 2 2 2 2 2 2 2 2 2 2 2 2 2 2 2 2 2 2 2 2 2 2 2 2
left_child=1 4 14 5 9 6 11 18 -9 -1 -5 13 -3 -4 -2 23 -16 26 19 -7 22 -17 -8 25 -19 -6 -10 -11 -23 -13
right_child=2 12 3 10 15 7 20 8 17 27 -12 29 -14 -15 16 21 -18 24 -20 -21 -22 28 -24 -25 -26 -27 -28 -29 -30 -31
leaf_value=0.87528202485164641 0.99511913367506255 0.84736233671293437 1.2589149706195109 0.97364292765629179 0.98358279139416249 1.3225944941769383 1.0642973249042105 1.0978602386911331 1.2405103956701462 0.92545133701142657 0.67769476468576095 1.3205058488827752 0.62532498559299765 1.1436755843917386 1.1438541957567347 1.164537450540285 1.0507164291350075 1.095861216789247 1.3655823277589219 1.203762398536715 0.99834916298011545 0.98061394895022491 1.1585475268061172 0.96018428841395509 1.2626042418662256 1.0819316493154796 1.3708762501214105 1.0054100493424556 1.1023865377826387 1.2255918085692581
leaf_weight=17845 14274 7087 14964 4891 9873 25988 16745 20995 13063 13543 2405 14782 4419 27245 28580 16687 23769 6652 11202 25248 7874 6010 21891 10506 5196 32039 6236 57945 16995 14270
leaf_count=17845 14274 7087 14964 4891 9873 25988 16745 20995 13063 13543 2405 14782 4419 27245 28580 16687 23769 6652 11202 25248 7874 6010 21891 10506 5196 32039 6236 57945 16995 14270
internal_value=0 5.01956 5.84497 5.9704 5.09623 6.02033 5.861 6.1841 5.91206 4.83647 4.38044 6.10479 3.81043 5.92265 5.3938 5.34816 5.50783 6.19702 6.41127 6.32018 5.48747 5.55039 5.5885 5.19503 5.84494 5.29382 6.41317 4.95131 5.35287 6.36943
internal_weight=0 192949 306270 239647 181443 232351 117771 114580 52142 89333 7296 71261 11506 42209 66623 92110 52349 31147 62438 51236 46510 39692 38636 52418 11848 41912 19299 71488 23005 29052
internal_count=499219 192949 306270 239647 181443 232351 117771 114580 52142 89333 7296 71261 11506 42209 66623 92110 52349 31147 62438 51236 46510 39692 38636 52418 11848 41912 19299 71488 23005 29052
shrinkage=0.2


Tree=3
num_leaves=31
num_cat=0
split_feature=961 964 963 964 961 870 964 963 196 642 964 653 963 964 963 963 817 71 962 963 964 963 964 713 963 964 964 963 964 734
split_gain=51866.3 13869.8 15379.1 8573.45 7332.75 4857.67 4125.27 5362.06 3445.67 3624.32 2437.78 2310.73 2038.3 1981.78 1966.2 1881.26 1734.55 1650.95 1643.98 1507.47 2495.91 1761.47 2038.49 1455.68 1427.37 1304.85 1225.03 1802.58 1151.53 1130.79
threshold=0.76599300000000015 1.0928800000000003 0.79694150000000008 1.0393550000000003 1.2881100000000003 0.020250000059604648 0.89341850000000023 0.72785400000000011 0.2241499945521355 0.15325000137090686 1.0198050000000003 0.14754999428987506 0.99999950000000004 0.8418230000000001 0.75826350000000009 0.90005650000000015 0.023049999959766868 0.20124999433755877 1.1547850000000002 0.9144675000000001 0.95525250000000017 0.84942950000000017 0.89189649999999998 0.13935000449419024 0.61258050000000008 0.79272600000000015 0.94828600000000018 0.88029450000000009 0.94144850000000002 0.12034999951720239
decision_type=2 2 2 2 2 2 2 2 2 2 2 2 2 2 2 2 2 2 2 2 2 2 2 2 2 2 2 2 2 2
left_child=3 2 6 5 10 -1 7 24 9 16 19 -11 15 -9 18 -5 -6 -10 -7 20 21 22 -4 -18 -2 -26 -16 -28 -8 -25
right_child=1 -3 4 12 8 14 28 13 17 11 -12 -13 -14 -15 26 -17 23 -19 -20 -21 -22 -23 -24 29 25 -27 27 -29 -30 -31
leaf_value=0.70541640435822339 0.76259996127373253 0.57728195876684729 0.97817018310423398 0.55278373019363503 0.8659265825555601 0.76353331837388549 0.81260931243446111 0.96712165959160024 0.92371069705150566 0.9925967008435701 0.82115612414395989 0.88914510427342863 0.44851203990656985 0.89600216157015289 0.86660451238655833 0.74540117282295015 1.0390774750917753 0.73068640325774015 0.85036484131307832 1.0017175965977629 0.86331839033564073 0.98716541213838505 0.88130713104999026 1.0126522978906172 0.89169105627391554 0.81845324010888165 0.73977213612174919 0.86412447805114301 0.69355635375678448 0.91342507221920466
leaf_weight=21838 8659 4603 13325 3906 2854 39565 15456 25953 5823 17943 9527 16651 2572 39565 27453 4219 64537 2548 11188 9767 23393 20911 24988 12925 18108 21034 9596 9070 4115 7127
leaf_count=21838 8659 4603 13325 3906 2854 39565 15456 25953 5823 17943 9527 16651 2572 39565 27453 4219 64537 2548 11188 9767 23393 20911 24988 12925 18108 21034 9596 9070 4115 7127
internal_value=0 4.61143 4.63317 3.87587 4.78837 3.95313 4.36185 4.43507 4.94543 4.988 4.5874 4.71401 3.01841 4.62087 4.04918 3.26401 5.09639 4.32479 3.91337 4.63707 4.59315 4.70239 4.57498 5.12226 4.1804 4.26167 4.19863 4.00098 3.93789 4.88692
internal_weight=0 369812 365209 129407 232319 118710 132890 113319 130408 122037 101911 34594 10697 65518 96872 8125 87443 8371 50753 92384 82617 59224 38313 84589 47801 39142 46119 18666 19571 20052
internal_count=499219 369812 365209 129407 232319 118710 132890 113319 130408 122037 101911 34594 10697 65518 96872 8125 87443 8371 50753 92384 82617 59224 38313 84589 47801 39142 46119 18666 19571 20052
shrinkage=0.2


Tree=4
num_leaves=31
num_cat=0
split_feature=961 960 888 963 963 963 963 964 963 964 963 964 963 964 814 961 963 964 520 810 568 964 964 963 964 541 964 963 205 964
split_gain=34661.5 8805.17 7867.76 6391.37 7242.05 4350.22 3576.57 3559.74 4493.04 3646.1 3360.94 2934.21 3689.46 2686.94 2278.89 1985 1970.42 1925.73 1830.84 1510.24 1382.17 1307.44 1275.23 1134.4 1336.39 1000.04 949.219 1158.19 918.626 901.928
threshold=1.0017350000000003 0.46703350000000005 0.022950000129640106 0.99999950000000004 0.81741250000000021 0.99999950000000004 0.73484550000000015 0.91466650000000016 0.86264300000000016 0.98436050000000008 0.93375450000000015 0.88875350000000009 0.74296550000000006 1.1077450000000002 0.027749999426305298 0.12282450000000002 0.90276000000000012 0.94320300000000012 0.16074999421834948 0.024549999274313453 0.017549999989569191 0.97457550000000015 1.0253450000000002 0.85360750000000019 0.8872175000000001 0.027150000445544723 0.8552010000000001 0.78429750000000009 0.023349999450147155 0.82411150000000022
decision_type=2 2 2 2 2 2 2 2 2 2 2 2 2 2 2 2 2 2 2 2 2 2 2 2 2 2 2 2 2 2
left_child=1 13 14 4 11 6 19 23 21 16 -11 12 -4 15 -2 -1 17 -10 20 -3 -8 -9 -12 24 -6 -21 27 29 -22 -14
right_child=2 5 3 -5 7 -7 18 8 9 10 22 -13 26 -15 -16 -17 -18 -19 -20 25 28 -23 -24 -25 -26 -27 -28 -29 -30 -31
leaf_value=0.47246571022080808 0.51045803260212508 0.55931367467993498 0.69471097623560929 0.49081947315872365 0.88816247679393057 0.39259916516353932 0.63067303960484233 0.72551238798993956 0.86124234004592903 0.68535438797279502 0.86057371868574595 0.66784481952410668 0.84299352623226287 0.35411518073738435 0.66803450784015539 0.59501097368588407 0.89682896479564289 0.7696234557934295 0.58079437634572073 0.59489054385998574 0.650375968960891 0.59544207269006877 0.75020906703123147 0.91728984179285422 0.7981946542440328 0.65768196180270622 0.75173948233166865 0.87557216989969033 0.70986481165384863 0.7478665271144016
leaf_weight=7160 4948 10840 37126 3487 10004 2377 12365 29212 16003 17026 9358 26903 5915 2708 14226 20214 13913 21513 6122 13728 11971 3457 7580 7209 19433 38879 28218 6816 78278 12230
leaf_count=7160 4948 10840 37126 3487 10004 2377 12365 29212 16003 17026 9358 26903 5915 2708 14226 20214 13913 21513 6122 13728 11971 3457 7580 7209 19433 38879 28218 6816 78278 12230
internal_value=0 3.22047 3.75623 3.79935 3.8166 3.30658 3.32512 3.95865 3.87414 3.9948 3.74053 3.62911 3.71547 2.72079 3.13685 2.81479 4.16272 4.04352 3.43522 3.13645 3.46691 3.55874 4.05592 4.23092 4.14385 3.20648 3.88435 4.0264 3.50987 3.89438
internal_weight=0 204642 294577 275403 271916 174560 172183 154708 118062 85393 33964 117208 90305 30082 19174 27374 51429 37516 108736 63447 102614 32669 16938 36646 29437 52607 53179 24961 90249 18145
internal_count=499219 204642 294577 275403 271916 174560 172183 154708 118062 85393 33964 117208 90305 30082 19174 27374 51429 37516 108736 63447 102614 32669 16938 36646 29437 52607 53179 24961 90249 18145
shrinkage=0.2


Tree=5
num_leaves=31
num_cat=0
split_feature=961 964 580 877 964 963 963 964 963 964 586 964 963 964 963 963 963 963 964 964 866 963 963 964 964 964 964 963 964 200
split_gain=22573.4 6513.08 6036.57 5216.23 3952.95 4576.45 2849.6 2374.99 3256.14 2302.66 2219.1 2168.39 2152.64 1979.23 1795.31 2715.95 1425.8 1396.58 1332.88 1320.3 1233.01 1205.64 1102.25 1054.75 1014.73 989.309 967.305 948.475 1008.15 932.519
threshold=1.061625 1.0253450000000002 0.025950000621378425 0.020350000821053985 1.0651250000000003 0.82674049999999999 0.82844950000000017 0.92809649999999999 0.88352650000000021 0.91615450000000009 0.029849999584257606 0.91466650000000016 0.73643750000000019 0.97701950000000004 0.99999950000000004 0.91282249999999998 0.69443850000000007 0.94739950000000006 0.87326950000000025 0.92658300000000005 0.015850000083446506 0.79598800000000014 0.9144675000000001 0.98315549999999996 0.97575200000000017 1.126425 1.0079150000000003 0.86532450000000016 0.89266450000000008 0.19315000623464587
decision_type=2 2 2 2 2 2 2 2 2 2 2 2 2 2 2 2 2 2 2 2 2 2 2 2 2 2 2 2 2 2
left_child=1 3 10 20 5 9 11 27 24 12 -2 16 -4 -10 15 -3 -5 26 21 -8 -1 -14 23 -21 -9 -6 -15 28 -7 -12
right_child=2 14 4 6 25 7 19 8 13 -11 29 -13 18 17 -16 -17 -18 -19 -20 22 -22 -23 -24 -25 -26 -27 -28 -29 -30 -31
leaf_value=0.41092050718093875 0.43153185800525629 0.34652718881795769 0.55445087982645336 0.50852404269205786 0.48089414734700808 0.73513342865293718 0.63852672863369131 0.5940217254427107 0.70519297176078699 0.50912466892417763 0.57106739893071912 0.47259472436559141 0.62333422867476251 0.62269497428993059 0.28992708469935646 0.51513633207686815 0.56012576215594678 0.68806017449385415 0.5875423971442878 0.56956312989180569 0.48778349343537064 0.70404716924268729 0.63123788518711921 0.48782037486232988 0.49986454563662791 0.25754280993714929 0.52491712115150424 0.75245250216844939 0.65133081713421948 0.47350259929082317
leaf_weight=12598 7723 6922 29105 34465 3429 7637 12742 27696 21455 12492 21642 23627 30310 14718 4044 8531 56582 9701 30442 24997 24747 9795 8077 8448 5485 1032 5582 7268 23142 4785
leaf_count=12598 7723 6922 29105 34465 3429 7637 12742 27696 21455 12492 21642 23627 30310 14718 4044 8531 56582 9701 30442 24997 24747 9795 8077 8448 5485 1032 5582 7268 23142 4785
internal_value=0 2.59527 3.02251 2.64749 3.07864 3.09636 2.72225 3.22983 3.13654 2.95034 2.62921 2.63291 3.00108 3.29405 2.04282 2.19805 2.70296 3.12819 3.09548 2.91105 2.30927 3.21524 2.82465 2.74458 2.89229 2.14612 2.97904 3.43735 3.36062 2.76701
internal_weight=0 225780 273439 206283 239289 234828 168938 122684 84637 112144 34150 114674 99652 51456 19497 15453 91047 30001 70547 54264 37345 40105 41522 33445 33181 4461 20300 38047 30779 26427
internal_count=499219 225780 273439 206283 239289 234828 168938 122684 84637 112144 34150 114674 99652 51456 19497 15453 91047 30001 70547 54264 37345 40105 41522 33445 33181 4461 20300 38047 30779 26427
shrinkage=0.2


Tree=6
num_leaves=31
num_cat=0
split_feature=961 869 963 963 964 961 641 964 963 171 766 72 836 809 748 675 654 963 964 963 964 686 963 475 964 962 963 964 684 963
split_gain=15330.2 6104.14 4666.65 4355.15 3150.28 2792.26 2476.63 2101.52 1831.64 1829.56 1583.6 1414.51 1354.76 1248.13 1075.82 1340.48 1067.2 939.286 930.124 915.517 1383.42 891.873 851.076 836.917 836.839 808.174 948.179 1096.69 774.113 767.383
threshold=0.70660550000000011 0.022349999286234382 0.99999950000000004 0.80515750000000008 0.99999950000000004 1.4298450000000003 0.17105000466108325 0.87750950000000005 0.68197400000000019 0.015250000171363355 0.14674999564886096 0.21325000375509265 0.18464999645948413 0.024349999614059929 0.095849998295307173 0.092849999666214003 0.11614999920129777 0.84942950000000017 1.2384700000000002 0.77025800000000022 0.8101575000000002 0.10914999991655351 0.86084850000000002 0.031850000843405731 0.84645300000000023 1.0212100000000002 0.66017850000000011 0.90942950000000011 0.12994999438524249 0.99999950000000004
decision_type=2 2 2 2 2 2 2 2 2 2 2 2 2 2 2 2 2 2 2 2 2 2 2 2 2 2 2 2 2 2
left_child=4 13 3 7 9 12 11 8 -3 -1 -8 14 16 -2 -7 -16 -5 25 22 20 -10 -17 -6 -9 -21 26 -11 -28 -12 -24
right_child=1 2 -4 5 18 6 10 23 19 17 28 -13 -14 -15 15 21 -18 -19 -20 24 -22 -23 29 -25 -26 -27 27 -29 -30 -31
leaf_value=0.34512109490559484 0.29706023228268974 0.41660072116862734 0.28437729522496907 0.49622025672103209 0.26556774665498079 0.56617877541845119 0.50349039082227243 0.35354644749423964 0.51184682207757504 0.35675942037020408 0.44335086156120884 0.44010713475810548 0.40133895351638504 0.40570418340935999 0.56495926422381981 0.52642999800177159 0.45448287766384188 0.47185750378670416 0.16756982180228674 0.55904844800916764 0.4441084929009832 0.4157107840272854 0.38169895705407775 0.42745388651202387 0.48607870170881234 0.45266573624300555 0.43707326253019663 0.36363838998617631 0.31230332201674305 0.22639695692126105
leaf_weight=17940 8007 22467 4957 80970 5959 45772 13771 7655 17776 16542 4339 5164 8604 8966 10328 5346 35140 10421 1627 9354 37504 6387 9123 30737 19171 12741 26061 11826 3085 1479
leaf_count=17940 8007 22467 4957 80970 5959 45772 13771 7655 17776 16542 4339 5164 8604 8966 10328 5346 35140 10421 1627 9354 37504 6387 9123 30737 19171 12741 26061 11826 3085 1479
internal_value=0 2.35861 2.38561 2.39875 1.94078 2.48772 2.61768 2.26412 2.33656 2.01341 2.31675 2.70506 2.38957 1.77226 2.74346 2.56206 2.41794 2.07995 1.55933 2.40453 2.32945 2.33079 1.63022 2.06359 2.55004 2.03661 1.98354 2.07076 1.94447 1.80017
internal_weight=0 385500 368527 363570 113719 218906 94192 144664 106272 95531 21195 72997 124714 16973 67833 22061 116110 77591 18188 83805 55280 11733 16561 38392 28525 67170 54429 37887 7424 10602
internal_count=499219 385500 368527 363570 113719 218906 94192 144664 106272 95531 21195 72997 124714 16973 67833 22061 116110 77591 18188 83805 55280 11733 16561 38392 28525 67170 54429 37887 7424 10602
shrinkage=0.2


Tree=7
num_leaves=31
num_cat=0
split_feature=801 583 961 866 654 641 577 584 75 72 964 964 736 751 963 964 964 808 964 963 712 200 684 839 963 210 297 964 68 963
split_gain=11667.5 6260.37 3837.97 2846.48 2745.76 1830.92 1605.24 1533.88 1463.92 1150.09 1144.1 1087.12 1076.59 1326.07 1217.92 1044.69 954.171 933.69 888.603 827.499 800.369 756.372 733.97 728.672 726.493 712.566 687.385 656.086 647.602 631.713
threshold=0.02615000028163195 0.028749999590218071 1.1953950000000002 0.029150000773370269 0.17334999889135363 0.14434999972581866 0.15345000475645068 0.023950000293552879 0.20504999905824664 0.17365000396966937 1.1077450000000002 1.0928800000000003 0.10844999924302103 0.098650000989437117 0.85711400000000004 0.92963250000000019 0.94144850000000002 0.021149999462068084 0.96375300000000019 0.89029750000000007 0.15675000101327899 0.16145000606775287 0.12025000154972078 0.19974999874830249 0.66017850000000011 0.025050000287592415 0.022450000047683719 0.9912835000000001 0.16944999992847445 0.75450950000000006
decision_type=2 2 2 2 2 2 2 2 2 2 2 2 2 2 2 2 2 2 2 2 2 2 2 2 2 2 2 2 2 2
left_child=3 7 6 9 8 -6 10 23 11 18 21 12 14 -14 15 29 -16 -5 24 -18 -9 26 -15 -2 -1 -7 -3 -21 -10 -4
right_child=1 2 4 17 5 25 -8 20 28 -11 -12 -13 13 22 16 -17 19 -19 -20 27 -22 -23 -24 -25 -26 -27 -28 -29 -30 -31
leaf_value=0.240714454797127 0.30787152809169371 0.32467804226005925 0.39390712925026505 0.27574227264778467 0.40765652697406402 0.21976520306627667 0.26119206280564561 0.36169407786951036 0.38614822402670362 0.16808672905482766 0.21211273261244656 0.21792985490489061 0.43184459570539735 0.39295250073770593 0.5166175168315067 0.35287906173471717 0.39247710541722208 0.3480915408682389 0.21780013235896895 0.50300782776717545 0.29915502511720643 0.31535959366952782 0.30340359794384919 0.22272664231558192 0.31088873988840193 0.33172047954096806 0.37889164586828722 0.43197337596184165 0.28442128763189667 0.44150363031313034
leaf_weight=8768 31162 10184 15079 9298 16155 2625 5844 44473 6712 5146 1852 1007 17307 7653 10233 8209 8357 30671 9888 10256 10032 9300 7019 4616 18048 17008 114922 10552 3992 42851
leaf_count=8768 31162 10184 15079 9298 16155 2625 5844 44473 6712 5146 1852 1007 17307 7653 10233 8209 8357 30671 9888 10256 10032 9300 7019 4616 18048 17008 114922 10552 3992 42851
internal_value=0 1.87843 1.94277 1.46545 2.0377 1.78893 1.81917 1.64531 2.09735 1.28316 1.84118 2.12489 2.13247 1.97173 2.18117 2.09826 2.32036 1.6563 1.34524 2.22818 1.75092 1.85194 1.75056 1.48443 1.43972 1.58376 1.87239 2.33493 1.74105 2.14557
internal_weight=0 417400 327117 81819 185015 35788 142102 90283 149227 41850 136258 138523 137516 31979 105537 66139 39398 39969 36704 29165 54505 134406 14672 35778 26816 19633 125106 20808 10704 57930
internal_count=499219 417400 327117 81819 185015 35788 142102 90283 149227 41850 136258 138523 137516 31979 105537 66139 39398 39969 36704 29165 54505 134406 14672 35778 26816 19633 125106 20808 10704 57930
shrinkage=0.2


Tree=8
num_leaves=31
num_cat=0
split_feature=494 581 462 961 546 449 964 585 711 120 964 963 963 23 964 712 964 963 964 706 651 963 760 963 964 772 964 963 33 523
split_gain=8684.61 3742.07 2574.25 2881.25 2484.55 1996.78 1387.77 1234.85 1192.52 1079.02 1047.73 969.264 937.99 909.469 889.677 745.934 724.707 755.188 751.714 724.43 718.24 755.56 700.852 643.646 618.294 601.058 563.84 556.326 534.117 519.997
threshold=0.030350000597536567 0.038850000128149993 0.19545000046491626 1.4656950000000002 0.03615000098943711 0.19144999980926516 0.98183650000000011 0.034350000321865089 0.20275000482797625 0.11665000021457674 1.126425 0.69978250000000009 0.84097800000000011 0.10294999927282335 0.91912650000000007 0.18284999579191211 0.93665300000000018 0.89753250000000018 0.99908300000000005 0.12615000456571582 0.13765000551939013 0.83847850000000024 0.12705000489950183 0.83847850000000024 0.89731600000000011 0.025750000029802326 0.94320300000000012 0.89029750000000007 0.14324999600648883 0.16225000470876697
decision_type=2 2 2 2 2 2 2 2 2 2 2 2 2 2 2 2 2 2 2 2 2 2 2 2 2 2 2 2 2 2
left_child=4 7 3 10 6 -4 11 19 9 20 12 -1 14 -11 -3 -10 -14 -18 -19 -2 21 24 -22 -8 -5 -6 -23 -28 -15 -7
right_child=1 2 5 8 25 29 23 -9 15 13 -12 -13 16 28 -16 -17 17 18 -20 -21 22 26 -24 -25 -26 -27 27 -29 -30 -31
leaf_value=0.19580147717382165 0.25719810618346528 0.30334662282085123 0.29153050217770204 0.37054793324313851 0.23037160475206836 0.21534163040290122 0.090150127591392556 0.29145270630826275 0.32732843732690875 0.35158561273930261 0.14232796186694352 0.25159296529534242 0.35991300278956839 0.27957853801485921 0.25793403284286459 0.22904904501125861 0.28670155540880449 0.37341520146639307 0.30580096964408415 0.19455478170072785 0.35461325407137023 0.43591263970966559 0.25969199784136343 0.18600774363276668 0.30092028867589837 0.29177359404629061 0.32096200067744213 0.40182380042180627 0.13768342417643295 0.112259624361184
leaf_weight=20071 36485 90943 16193 21210 8037 4347 3853 43988 8490 7798 1579 32828 17251 5084 21297 4856 23988 11761 14922 9258 11069 10876 4328 10271 6717 30873 4924 11020 1341 3561
leaf_count=20071 36485 90943 16193 21210 8037 4347 3853 43988 8490 7798 1579 32828 17251 5084 21297 4856 23988 11761 14922 9258 11069 10876 4328 10271 6717 30873 4924 11020 1341 3561
internal_value=0 1.51705 1.57008 1.59712 1.19446 1.2565 1.07777 1.33764 1.7356 1.77954 1.52267 1.15212 1.52978 1.5284 1.47365 1.45785 1.62253 1.56226 1.67802 1.2226 1.83047 1.88413 1.63966 0.79929 1.76901 1.39545 2.00401 1.88426 1.24981 0.844617
internal_weight=0 393286 303555 279454 105933 24101 67023 89731 97713 84367 181741 52899 180162 14223 112240 13346 67922 50671 26683 45743 70144 54747 15397 14124 27927 38910 26820 15944 6425 7908
internal_count=499219 393286 303555 279454 105933 24101 67023 89731 97713 84367 181741 52899 180162 14223 112240 13346 67922 50671 26683 45743 70144 54747 15397 14124 27927 38910 26820 15944 6425 7908
shrinkage=0.2


Tree=9
num_leaves=31
num_cat=0
split_feature=887 177 964 585 963 964 200 206 963 888 964 963 964 964 963 707 770 963 964 964 141 581 963 141 791 672 964 963 963 963
split_gain=6600.47 4190.79 2417.37 2195.27 1821.99 1829.18 1770.92 1414.39 1338.67 1245.73 1142.55 1432.08 1479.49 990.545 928.145 840.962 761.337 734.571 710.91 627.92 591.778 588.027 579.44 573.28 503.164 492.111 468.727 593.581 442.736 881.845
threshold=0.027350000105798248 0.023950000293552879 1.0393550000000003 0.037949999794363982 0.85620200000000013 0.91615450000000009 0.18075000494718554 0.028749999590218071 0.79983750000000009 0.017150000669062141 0.93354550000000003 0.92716900000000013 0.97701950000000004 0.86510250000000022 0.8926090000000001 0.1698499992489815 0.20645000040531161 0.83182650000000014 1.126425 0.99999950000000004 0.16115000098943713 0.031250000000000007 0.82164100000000007 0.19235000014305118 0.0089499996975064295 0.10135000199079515 0.98567450000000012 0.95078650000000009 0.94739950000000006 0.99999950000000004
decision_type=2 2 2 2 2 2 2 2 2 2 2 2 2 2 2 2 2 2 2 2 2 2 2 2 2 2 2 2 2 2
left_child=6 7 3 15 5 8 9 16 20 24 -6 12 14 -10 -12 21 -2 -15 28 22 -5 -3 -11 -7 -1 -16 -13 -28 -4 -30
right_child=1 2 18 4 10 23 -8 -9 13 19 11 26 -14 17 25 -17 -18 -19 -20 -21 -22 -23 -24 -25 -26 -27 27 -29 29 -31
leaf_value=0.10286394147729194 0.16730589615288405 0.20883858134021682 0.13747757365378815 0.25368682010984361 0.33121420750730779 0.21999544640745419 0.10391282019631787 0.21839119422475928 0.36581741904789233 0.20428033576589974 0.2565187929782588 0.39994545874080839 0.21340847728036016 0.25671279494108551 0.3434592506099528 0.16195229999373839 0.063289191970213265 0.31056070379362971 0.077347864490531562 0.15243160992643109 0.21029563880012311 0.24661195829195492 0.25783393707590374 0.13230049514855421 0.17039763460384233 0.25883482349037357 0.27210268866601112 0.35585264228099384 0.26480997543137014 0.13339669968778636
leaf_weight=5942 20215 29350 4117 79135 17086 38803 10759 29931 5722 29262 22432 2811 19167 26588 10658 8134 3270 16374 2618 6576 14947 37608 11165 3230 17149 3704 7430 6218 5604 3214
leaf_count=5942 20215 29350 4117 79135 17086 38803 10759 29931 5722 29262 22432 2811 19167 26588 10658 8134 3270 16374 2618 6576 14947 37608 11165 3230 17149 3704 7430 6218 5604 3214
internal_value=0 1.20942 1.24771 1.26489 1.30636 1.24964 0.897315 0.947816 1.30362 0.955297 1.42346 1.36859 1.29232 1.43824 1.40968 1.11339 0.764114 1.38618 0.861964 1.04874 1.23397 1.15027 1.09535 1.06628 0.765096 1.60817 1.62788 1.55129 0.958147 1.08456
internal_weight=0 418366 364950 349397 274305 184799 80853 53416 142766 70094 89506 72420 55961 48684 36794 75092 23485 42962 15553 47003 94082 66958 40427 42033 23091 14362 16459 13648 12935 8818
internal_count=499219 418366 364950 349397 274305 184799 80853 53416 142766 70094 89506 72420 55961 48684 36794 75092 23485 42962 15553 47003 94082 66958 40427 42033 23091 14362 16459 13648 12935 8818
shrinkage=0.2


Tree=10
num_leaves=31
num_cat=0
split_feature=170 904 609 520 961 676 749 622 519 165 1 28 751 736 10 130 843 675 718 141 961 708 675 742 195 781 195 706 961 27
split_gain=4737.11 2981.77 2768.43 1879.2 1667.42 1113.94 1253.64 1078.03 1063.5 1032.08 988.499 948.244 847.626 751.116 722.943 702.886 660.533 639.699 614.63 541.864 545.729 490.501 489.649 480.471 459.221 437.522 435.099 423.532 412.14 400.389
threshold=0.021249999292194847 0.017350000329315666 0.034549999982118614 0.20435000211000445 1.4874050000000003 0.12034999951720239 0.14244999736547473 0.035050000995397575 0.19604999572038653 0.017250000499188903 0.14285000413656238 0.11985000222921373 0.11015000194311143 0.095049999654293074 0.19054999947547915 0.21014999598264697 0.19405000656843188 0.11284999921917917 0.13675000518560412 0.17484999448060992 1.0888250000000002 0.18394999951124194 0.096950002014637007 0.10895000025629999 0.19045000523328784 0.16685000061988833 0.15214999765157702 0.11455000191926958 1.7275000000000003 0.094949997961521163
decision_type=2 2 2 2 2 2 2 2 2 2 2 2 2 2 2 2 2 2 2 2 2 2 2 2 2 2 2 2 2 2
left_child=9 11 7 4 12 10 22 15 -5 -1 18 24 16 -14 -12 17 19 -3 28 20 -4 -11 -7 -8 -2 -9 -18 -20 -6 -22
right_child=1 2 3 8 5 6 23 25 -10 21 14 -13 13 -15 -16 -17 26 -19 27 -21 29 -23 -24 -25 -26 -27 -28 -29 -30 -31
leaf_value=0.095423953160105171 0.15396883472059514 0.16088472555603875 0.20083500555590161 0.17857430673090008 0.24745133994424873 0.25749638715519624 0.1936839736560666 0.19496140224426645 0.078749559113009016 0.16079969003649111 0.22182445033151676 0.012122617834370818 0.19287351138281278 0.11609217554879653 0.11613207141096207 0.05142200181154008 0.18336214288470146 0.080708467270347806 0.26544765115237773 0.15927527827331189 0.23402204296382997 0.08195632988478975 0.18502591669111623 0.066243682348500338 0.071091432463775459 0.14644934776361485 0.097845231286315171 0.18847202710389749 0.28648665918539767 0.19526423903537524
leaf_weight=21588 35375 38468 84048 13775 20022 7399 1764 47665 6186 28391 15876 2181 12977 8392 3093 2935 8508 4440 4606 8454 48674 3551 7519 3595 2893 8811 3304 7539 23538 13652
leaf_count=21588 35375 38468 84048 13775 20022 7399 1764 47665 6186 28391 15876 2181 12977 8392 3093 2935 8508 4440 4606 8454 48674 3551 7519 3595 2893 8811 3304 7539 23538 13652
internal_value=0 0.96086 0.986701 1.03474 1.05566 1.16368 0.955819 0.844486 0.738191 0.646021 1.22012 0.701965 1.0011 0.8136 1.02295 0.730557 1.02515 0.762942 1.28726 1.04254 1.05676 0.760173 1.10485 0.540963 0.738517 0.936964 0.797209 1.08833 1.34272 1.12766
internal_weight=0 445689 405240 302921 282960 94951 20277 102319 19961 53530 74674 40449 188009 21369 18969 45843 166640 42908 55705 154828 146374 31942 14918 5359 38268 56476 11812 12145 43560 62326
internal_count=499219 445689 405240 302921 282960 94951 20277 102319 19961 53530 74674 40449 188009 21369 18969 45843 166640 42908 55705 154828 146374 31942 14918 5359 38268 56476 11812 12145 43560 62326
shrinkage=0.2


Tree=11
num_leaves=31
num_cat=0
split_feature=868 205 964 963 964 964 963 898 76 963 964 964 963 807 194 963 963 667 964 660 963 963 964 660 963 964 672 963 664 736
split_gain=3574.61 2569.59 1719.23 1789.88 1904.68 1200.47 1378.12 1115.8 1083.82 1055.18 1274.56 792.536 1036.22 758.419 751.772 670.896 1920.18 598.967 576.48 515.142 525.227 494.423 616.007 481.643 472.115 781.908 447.746 441.79 436.88 402.408
threshold=0.022950000129640106 0.027250000275671486 1.0198050000000003 0.88029450000000009 0.94059200000000009 0.95346150000000007 0.93149150000000003 0.17115000635385516 0.16225000470876697 0.81565300000000007 0.90264350000000015 0.86510250000000022 0.77911200000000014 0.018250000663101677 0.023449999280273918 0.99999950000000004 0.96611600000000009 0.11924999952316286 0.97340850000000001 0.091350000351667418 0.85273300000000007 0.83930050000000012 0.8783175000000002 0.086750000715255751 0.6275130000000001 0.82564800000000005 0.088950000703334822 0.75314650000000005 0.094250001013278975 0.12174999713897706
decision_type=2 2 2 2 2 2 2 2 2 2 2 2 2 2 2 2 2 2 2 2 2 2 2 2 2 2 2 2 2 2
left_child=8 7 3 4 9 23 17 14 13 11 21 12 24 -1 29 16 -4 18 -7 20 -12 22 -11 -5 -3 27 -8 -26 -19 -2
right_child=1 2 15 5 -6 6 26 -9 -10 10 19 -13 -14 -15 -16 -17 -18 28 -20 -21 -22 -23 -24 -25 25 -27 -28 -29 -30 -31
leaf_value=0.0802746192880186 0.10317960290834068 0.12602135414072232 0.084873692553647226 0.27545510255378369 0.11977877342081117 0.20756569514713791 0.26375051808863786 0.039452895527934406 0.023184570708741508 0.25119693271127058 0.15792477473639074 0.13859169428099452 0.21318182826213455 0.12880911176695506 0.14339197003492471 0.045973874999508543 0.21948053311786958 0.16785004242373791 0.15093268385937719 0.13539604685083292 0.20857704390880893 0.25629930211342539 0.17536007493441516 0.20308982205272877 0.1766400386187163 0.14041430666349786 0.18335723092408476 0.24405881399311277 0.068717744916998488 -0.0032877244041379823
leaf_weight=19395 17951 15152 13521 8537 44317 11803 8393 6586 5999 6312 19970 65057 16278 38331 36553 5146 6175 3016 18394 16276 13880 9012 13337 6465 30827 28075 4137 4449 4333 1542
leaf_count=19395 17951 15152 13521 8537 44317 11803 8393 6586 5999 6312 19970 65057 16278 38331 36553 5146 6175 3016 18394 16276 13880 9012 13337 6465 30827 28075 4137 4449 4333 1542
internal_value=0 0.774049 0.805532 0.823674 0.78928 0.973208 0.898869 0.586629 0.52047 0.824638 0.919353 0.777951 0.83629 0.562512 0.632384 0.551375 0.635375 0.803034 0.865343 0.823177 0.893472 1.08756 0.998609 1.22135 0.788677 0.826604 1.18604 0.925714 0.547006 0.473787
internal_weight=0 435494 372862 348020 282942 65078 50076 62632 63725 238625 78787 159838 94781 57726 56046 24842 19696 37546 30197 50126 33850 28661 19649 15002 78503 63351 12530 35276 7349 19493
internal_count=499219 435494 372862 348020 282942 65078 50076 62632 63725 238625 78787 159838 94781 57726 56046 24842 19696 37546 30197 50126 33850 28661 19649 15002 78503 63351 12530 35276 7349 19493
shrinkage=0.2


Tree=12
num_leaves=31
num_cat=0
split_feature=587 845 642 654 964 961 258 77 66 716 684 461 963 964 833 675 963 961 196 322 689 718 961 707 716 961 44 675 71 67
split_gain=2842.28 1963.31 1684.75 1478.53 1152.7 1102.79 1101.24 965.739 816.199 755.009 718.816 705.605 647.299 823.076 598.88 597.378 569.677 566.285 519.399 508.46 457.302 618.504 415.849 409.262 404.677 404.371 403.312 402.605 398.414 381.33
threshold=0.028050000779330734 0.033749999478459365 0.13585000485181811 0.10424999892711641 0.99999950000000004 1.3374550000000003 0.16315000504255298 0.11904999986290933 0.13784999400377276 0.14754999428987506 0.12025000154972078 0.212849996984005 0.83593450000000014 0.88875350000000009 0.036949999630451209 0.1179499998688698 0.58042749999999999 1.4874050000000003 0.15394999831914905 0.13605000078678134 0.1090499982237816 0.094149999320507063 1.5857750000000002 0.18724999576807025 0.13045000284910205 1.6734050000000005 0.11914999783039094 0.099050000309944167 0.18094999343156817 0.070150002837181105
decision_type=2 2 2 2 2 2 2 2 2 2 2 2 2 2 2 2 2 2 2 2 2 2 2 2 2 2 2 2 2 2
left_child=4 6 5 22 9 18 14 19 29 12 11 17 13 16 26 -12 -1 -5 27 20 25 -22 -4 -11 -23 -7 -2 -3 -6 -9
right_child=1 2 3 10 28 7 -8 8 -10 23 15 -13 -14 -15 -16 -17 -18 -19 -20 -21 21 24 -24 -25 -26 -27 -28 -29 -30 -31
leaf_value=0.064008528516242086 0.090380025053467039 0.14015618386953352 0.13568804565262471 0.094169086514631545 0.055979140976142205 0.17087136352879009 0.010895126725260952 0.20109164667808793 0.060252763996082939 0.072684401658548767 0.098003273017610609 0.041612609734203602 0.13549236424353822 0.066306772067803263 0.12858342867285549 0.019948800321596179 0.12180478526939342 0.13900997300854065 0.095034659719583053 0.1184008309711867 0.19374732161237776 0.15105994346505394 0.19447692670586242 -0.017375852893828283 0.066572284137937088 0.20858513230067011 -0.014923316396895082 0.1072949276387065 -0.042572310863831557 0.12684236989799011
leaf_weight=8232 29998 108407 13979 23789 16586 27067 5782 3899 6115 8318 7653 5855 22913 23621 21466 8045 39817 21399 14008 6606 6679 5140 7340 2665 4058 19612 1529 17292 1821 9528
leaf_count=8232 29998 108407 13979 23789 16586 27067 5782 3899 6115 8318 7653 5855 22913 23621 21466 8045 39817 21399 14008 6606 6679 5140 7340 2665 4058 19612 1529 17292 1821 9528
internal_value=0 0.636715 0.667887 0.550378 0.462069 0.71319 0.46887 0.800392 0.604098 0.502334 0.477144 0.534697 0.531152 0.484376 0.514084 0.290007 0.559514 0.577019 0.657823 0.855856 0.883719 0.737116 0.779643 0.254157 0.568927 0.933583 0.426365 0.678178 0.231147 0.742016
internal_weight=0 375246 316471 88060 123973 228411 58775 88704 19542 105566 66741 51043 94583 71670 52993 15698 48049 45188 139707 69162 62556 15877 21319 10983 9198 46679 31527 125699 18407 13427
internal_count=499219 375246 316471 88060 123973 228411 58775 88704 19542 105566 66741 51043 94583 71670 52993 15698 48049 45188 139707 69162 62556 15877 21319 10983 9198 46679 31527 125699 18407 13427
shrinkage=0.2


Tree=13
num_leaves=31
num_cat=0
split_feature=136 142 618 519 961 129 644 724 763 65 843 527 73 656 964 682 759 196 651 696 613 724 7 685 70 961 2 112 127 24
split_gain=2258.03 1954.12 1489.11 1297.27 1233.61 1079.92 984.437 905.36 802.014 833.042 780.087 608.963 608.137 584.948 582.928 540.469 524.682 469.757 488.998 463.063 428.057 426.854 619.933 509.876 402.257 450.457 388.837 387.343 374.739 365.191
threshold=0.019150000065565113 0.21685000509023669 0.036749999970197685 0.21675000339746478 1.4874050000000003 0.22954999655485156 0.12115000188350679 0.12615000456571582 0.1608499959111214 0.15644999593496325 0.18055000156164172 0.18575000017881396 0.14844999462366107 0.018350000493228439 0.96375300000000019 0.12224999815225603 0.12085000053048135 0.17864999920129779 0.12804999947547915 0.11164999753236772 0.043850000947713859 0.12525000423192981 0.11455000191926958 0.11365000158548356 0.15554999560117724 1.1000350000000001 0.1171500012278557 0.01415000017732382 0.072450000792741789 0.085450001060962691
decision_type=2 2 2 2 2 2 2 2 2 2 2 2 2 2 2 2 2 2 2 2 2 2 2 2 2 2 2 2 2 2
left_child=10 2 6 4 7 26 20 13 9 21 14 -5 -11 -4 27 -10 -8 18 24 -9 28 22 -6 -23 25 -15 -3 -1 -2 -24
right_child=1 5 3 11 8 -7 16 19 15 12 -12 -13 -14 17 -16 -17 -18 -19 -20 -21 -22 23 29 -25 -26 -27 -28 -29 -30 -31
leaf_value=0.046750685226379624 0.085122861526656407 0.11120120627819799 0.077990338062707124 0.086134343729314444 0.16638978178112829 -0.028855705735595455 0.059763871273627769 0.096981369152400521 0.11923584817639202 0.12685752328805319 0.005303144797945916 0.013281252996106841 0.02153636913031183 0.11250489790360144 0.030632472260587452 0.027415812237059196 -0.023344159640079076 0.071348629318380208 0.085800787261766973 0.042651703975961748 0.10663808985625212 0.14489677760694805 0.14981470775798963 0.083475092744503876 0.075681025171247418 0.13627893261003871 0.045329424093350862 0.093276512147290144 0.038551620260703919 0.08534210000877418
leaf_weight=9771 29844 5691 22825 12137 39591 6255 7814 11721 5741 4828 9433 7380 4018 85929 12391 4634 4972 10671 20585 13506 28422 13814 7011 8882 8186 50682 9684 26761 8994 7046
leaf_count=9771 29844 5691 22825 12137 39591 6255 7814 11721 5741 4828 9433 7380 4018 85929 12391 4634 4972 10671 20585 13506 28422 13814 7011 8882 8186 50682 9684 26761 8994 7046
internal_value=0 0.499144 0.514267 0.543219 0.5585 0.206039 0.391583 0.517934 0.653629 0.685599 0.289822 0.292931 0.395095 0.540571 0.34059 0.391122 0.137231 0.560099 0.57322 0.339472 0.439935 0.71926 0.767895 0.604298 0.593722 0.606625 0.348558 0.404163 0.37169 0.587491
internal_weight=0 440863 419233 339187 319670 21630 80046 224105 95565 85190 58356 19517 8846 198878 48923 10375 12786 176053 165382 25227 67260 76344 53648 22696 144797 136611 15375 36532 38838 14057
internal_count=499219 440863 419233 339187 319670 21630 80046 224105 95565 85190 58356 19517 8846 198878 48923 10375 12786 176053 165382 25227 67260 76344 53648 22696 144797 136611 15375 36532 38838 14057
shrinkage=0.2


Tree=14
num_leaves=31
num_cat=0
split_feature=964 963 964 963 963 963 963 964 963 964 667 963 964 963 676 748 964 963 613 673 401 964 795 964 516 964 964 79 743 635
split_gain=1943.53 2130.61 1852.06 1482.85 1459.39 1427.93 1035.5 953.486 1067.99 951.449 880.51 779.838 720.711 1132.49 669.672 627.527 534.866 551.303 508.757 462.774 459.385 416.389 406.351 378.53 361.456 357.18 353.437 345.526 343.795 318.868
threshold=0.99999950000000004 0.87320150000000007 0.92809649999999999 0.90276000000000012 0.99999950000000004 0.78735250000000012 0.96172700000000011 0.8487610000000001 0.64029199999999997 0.87917950000000011 0.10615000128746034 0.83346100000000012 0.94741850000000005 0.9144675000000001 0.078749999403953566 0.072549998760223403 0.77489700000000006 0.71594150000000012 0.044649999588727958 0.066550001502037062 0.026250000111758712 0.90867149999999997 0.032150000333786018 0.81754900000000008 0.19725000113248828 1.0528500000000001 1.028475 0.18055000156164172 0.091749999672174468 0.067850001156330123
decision_type=2 2 2 2 2 2 2 2 2 2 2 2 2 2 2 2 2 2 2 2 2 2 2 2 2 2 2 2 2 2
left_child=1 2 5 -2 6 7 27 8 -1 -7 12 -11 -3 -14 -12 21 -10 -18 -16 -17 -4 -13 -9 -19 -22 29 -8 -5 -21 -6
right_child=3 10 20 4 25 9 26 22 16 11 14 15 13 -15 18 19 17 23 -20 28 24 -23 -24 -25 -26 -27 -28 -29 -30 -31
leaf_value=0.050291102279617264 -0.0053310927797702136 0.16636345813469522 0.011098837781720277 0.062266367049276329 0.018500326428375648 0.12794677677555685 0.18648693694909965 0.025045111905957151 0.13188046378220056 0.070707484727926401 0.1233233195601998 0.15837672745094938 0.089741488654184895 0.16461213454775087 -0.021781424457287042 0.13227679561036282 0.061448844173487331 0.12630279717709517 0.071571395595428647 0.092799671928206984 0.05727794989702039 0.10491640169713615 0.060500070951147844 0.086484118262739162 -0.0050692072077529304 -0.029894110934449478 0.10774685568716247 -0.044449453585412114 0.023405741134721339 0.31906849172380236
leaf_weight=31050 18199 13148 12615 22754 379 31827 3196 17494 12618 48800 7307 10719 27016 11530 3201 4495 22331 14636 8633 5466 55628 12771 49565 27479 3986 6931 7958 1282 5980 225
leaf_count=31050 18199 13148 12615 22754 379 31827 3196 17494 12618 48800 7307 10719 27016 11530 3201 4495 22331 14636 8633 5466 55628 12771 49565 27479 3986 6931 7958 1282 5980 225
internal_value=0 0.403003 0.372391 0.212385 0.314206 0.407507 0.399728 0.349932 0.408036 0.491513 0.561803 0.438046 0.629646 0.560685 0.378579 0.542634 0.471124 0.434261 0.231601 0.389497 0.22886 0.646558 0.256254 0.50161 0.265546 -0.0851984 0.651543 0.282873 0.282723 0.652335
internal_weight=0 438295 367460 60924 42725 295231 35190 175173 108114 120058 70835 88231 51694 38546 19141 39431 77064 64446 11834 15941 72229 23490 67059 42115 59614 7535 11154 24036 11446 604
internal_count=499219 438295 367460 60924 42725 295231 35190 175173 108114 120058 70835 88231 51694 38546 19141 39431 77064 64446 11834 15941 72229 23490 67059 42115 59614 7535 11154 24036 11446 604
shrinkage=0.2


Tree=15
num_leaves=31
num_cat=0
split_feature=296 302 715 961 24 119 684 675 7 201 129 961 708 295 679 684 653 901 733 109 722 326 141 316 742 964 963 963 963 963
split_gain=1657.8 1648.57 1147.8 1124.14 910.071 986.61 907.533 857.445 805.792 766.929 662.546 728.592 649.675 641.628 507.451 541.464 462.87 451.976 450.777 424.828 421.184 403.025 397.539 374.573 367.052 346.696 515.165 410.637 371.865 371.991
threshold=0.19235000014305118 0.016849999316036705 0.20535000413656238 1.6734050000000005 0.11924999952316286 0.11275000125169755 0.11895000189542772 0.10045000165700914 0.134150005877018 0.18124999850988391 0.17164999991655353 0.96192150000000021 0.20775000005960467 0.16974999755620959 0.13065000623464587 0.09575000032782556 0.16245000064373019 0.027350000105798248 0.10535000264644624 0.14784999936819079 0.094350002706050887 0.16194999963045123 0.13884999603033069 0.0079499999992549437 0.09744999930262567 0.95991050000000022 0.86823250000000007 0.87617900000000015 0.99999950000000004 0.93149150000000003
decision_type=2 2 2 2 2 2 2 2 2 2 2 2 2 2 2 2 2 2 2 2 2 2 2 2 2 2 2 2 2 2
left_child=1 16 3 6 14 -6 8 -8 9 10 11 25 -4 -2 17 -16 23 -5 -13 -7 -20 -19 -12 -1 -17 27 -27 -3 29 -28
right_child=13 2 12 4 5 19 7 -9 -10 -11 22 18 -14 -15 15 24 -18 21 20 -21 -22 -23 -24 -25 -26 26 28 -29 -30 -31
leaf_value=-0.019025808682018763 0.03358872231797657 0.068379754996157172 0.046179514012038729 0.026990400403449973 0.091323376859656177 0.013051812013265045 0.059680300388396591 -0.014842616277342372 0.031630143475528456 0.025110210349656277 0.064763684332416124 0.091985483109404839 -0.019754184868900324 -0.04435500668823017 0.11495826507488521 0.099530114717378826 -0.035058532120154397 0.12589242912087714 0.086550163812191563 -0.11563174609806995 0.031959844916507878 0.074436815279913179 0.002987355967288224 0.040209613955391604 -0.0071978527912959075 0.014790708030928267 0.055065583083205576 0.13330450095394997 -0.010297394963447686 0.11245770403796085
leaf_weight=4962 9727 94658 26096 2336 8191 4481 14600 10703 23137 14206 8401 101537 7754 7468 4801 1850 4664 36395 11986 1331 10700 7312 8267 30621 4250 12235 13353 4064 2306 6827
leaf_count=4962 9727 94658 26096 2336 8191 4481 14600 10703 23137 14206 8401 101537 7754 7468 4801 1850 4664 36395 11986 1331 10700 7312 8267 30621 4250 12235 13353 4064 2306 6827
internal_value=0 0.314676 0.332328 0.347011 0.461418 0.233025 0.322924 0.140788 0.33771 0.352109 0.363841 0.37634 0.155381 -0.00131599 0.517582 0.323573 0.120921 0.563515 0.431454 -0.0820894 0.304011 0.586421 0.170619 0.159747 0.125852 0.325034 0.239086 0.355262 0.328937 0.372408
internal_weight=0 482024 441777 407927 70947 14003 336980 25303 311677 288540 274334 257666 33850 17195 56944 10901 40247 46043 124223 5812 22686 43707 16668 35583 6100 133443 34721 98722 22486 20180
internal_count=499219 482024 441777 407927 70947 14003 336980 25303 311677 288540 274334 257666 33850 17195 56944 10901 40247 46043 124223 5812 22686 43707 16668 35583 6100 133443 34721 98722 22486 20180
shrinkage=0.2


Tree=16
num_leaves=31
num_cat=0
split_feature=516 582 270 48 655 640 961 65 63 75 59 618 257 717 523 960 44 412 64 94 96 765 835 709 613 963 964 669 183 663
split_gain=1318.12 1240.98 1194.23 1092.2 925.982 1034.17 820.065 735.035 696.004 605.73 593.338 591.449 587.041 541.361 483.208 451.763 444.252 408.063 396.928 394.531 377.572 355.481 333.241 315.317 348.333 290.403 341.008 279.914 278.766 273.025
threshold=0.23725000023841861 0.025150000117719177 0.18014999479055407 0.022349999286234382 0.11885000020265581 0.10565000027418138 1.5334750000000004 0.12264999747276308 0.020750000141561035 0.14864999800920489 0.10005000233650209 0.046350000426173217 0.18945000320672992 0.13984999805688861 0.20474999397993091 1.9432850000000002 0.09704999998211862 0.030949999578297142 0.1357500031590462 0.10724999755620958 0.070849999785423293 0.074850000441074385 0.17085000127553943 0.16364999860525134 0.033449999988079078 0.85110000000000008 0.9116915000000001 0.1690500006079674 0.0081500001251697558 0.10085000097751619
decision_type=2 2 2 2 2 2 2 2 2 2 2 2 2 2 2 2 2 2 2 2 2 2 2 2 2 2 2 2 2 2
left_child=1 13 3 8 6 15 9 25 27 16 -9 -7 -4 18 -2 -6 23 -10 28 -12 -18 -13 -11 24 -5 26 -8 -3 -1 -23
right_child=14 2 12 4 5 11 7 10 17 22 19 21 -14 -15 -16 -17 20 -19 -20 -21 -22 29 -24 -25 -26 -27 -28 -29 -30 -31
leaf_value=-0.034537838730792553 0.018991203464554504 0.0075841144839758267 0.029029403553761119 0.04906182826436184 0.051217557038847832 -0.016014124111927094 0.096791078160935462 0.087553428717932813 0.031674522150815773 0.043026204276744369 0.054102197048654571 0.087005686160640638 -0.048142038366128563 -0.033150316091140462 -0.052438755745559007 0.09801354201484358 0.07038110180313617 0.072535993820923239 -0.019767794939048358 -0.046212844302025109 0.0075467258056498981 0.050218926918347596 -0.015393986351338327 0.032905612052462438 0.074581069978969128 0.11848900058720904 0.038133097150338462 -0.089721914349258886 0.039136332628818868 0.007526566070431547
leaf_weight=2150 10253 18774 12048 25736 26690 12567 21669 6533 26475 21739 2990 4590 5861 6047 6008 11945 6431 15499 5741 3298 9441 10704 4761 9599 126853 18929 4852 1262 46163 13611
leaf_count=2150 10253 18774 12048 25736 26690 12567 21669 6533 26475 21739 2990 4590 5861 6047 6008 11945 6431 15499 5741 3298 9441 10704 4761 9599 126853 18929 4852 1262 46163 13611
internal_value=0 0.252462 0.271573 0.282749 0.304833 0.21071 0.33352 0.438177 0.160617 0.303707 0.226715 0.101043 0.0188692 0.118005 -0.0370012 0.328429 0.3247 0.233814 0.149749 0.00743926 0.165029 0.179786 0.162652 0.340326 0.351385 0.497829 0.430298 0.00727568 0.179289 0.131603
internal_weight=0 482958 422857 404948 342938 80107 262831 58271 62010 204560 12821 41472 17909 60101 16261 38635 178060 41974 54054 6288 15872 28905 26500 162188 152589 45450 26521 20036 48313 24315
internal_count=499219 482958 422857 404948 342938 80107 262831 58271 62010 204560 12821 41472 17909 60101 16261 38635 178060 41974 54054 6288 15872 28905 26500 162188 152589 45450 26521 20036 48313 24315
shrinkage=0.2


Tree=17
num_leaves=31
num_cat=0
split_feature=964 963 963 963 843 11 960 5 668 963 963 964 836 736 258 964 963 816 963 671 678 964 389 595 960 961 935 964 964 624
split_gain=1170.14 1308.28 1058.31 894.41 823.299 695.046 752.794 712.921 614.502 611.859 552.885 750.208 532.995 455.175 454.878 403.402 484.857 399.222 396.478 385.199 438.409 376.991 354.943 354.333 352.46 343.927 298.116 287.836 283.91 275.885
threshold=0.98695600000000006 0.90538050000000014 0.90821650000000009 0.99999950000000004 0.20295000076293948 0.15055000036954883 1.5927150000000003 0.13135000318288806 0.08025000244379045 0.94739950000000006 0.76556150000000012 0.85306850000000012 0.18075000494718554 0.099649999290704741 0.02485000062733889 0.88327350000000016 0.83680300000000019 0.028749999590218071 0.56695950000000006 0.13184999674558642 0.12415000051259996 1.0253450000000002 0.21814999729394915 0.13595000654459002 1.6812500000000001 1.8294050000000002 0.050650000572204597 0.80408000000000013 0.91837200000000008 0.11985000222921373
decision_type=2 2 2 2 2 2 2 2 2 2 2 2 2 2 2 2 2 2 2 2 2 2 2 2 2 2 2 2 2 2
left_child=1 4 29 9 5 6 8 -7 10 -4 11 18 24 -10 -8 -12 -17 -16 -1 22 -21 -11 25 -15 -6 -19 -9 -20 -18 -2
right_child=2 -3 3 -5 12 7 14 26 13 21 15 -13 -14 23 17 16 28 19 27 20 -22 -23 -24 -25 -26 -27 -28 -29 -30 -31
leaf_value=0.0067866251339293582 -0.0089679360672452104 0.097253687941509237 0.023703801247495868 -0.028800024869906134 0.0023315943524430949 0.037848676725547682 0.0073182810386281695 -0.073114531174113082 0.028985017651931757 0.10945411049662568 0.077704652237567284 0.0031057486145795775 -0.019624914276026653 -0.010022168244179357 0.025593374070519773 0.029707999193677177 0.094988721626257655 0.064428912934027235 0.073888062253679485 0.059613450160700909 -0.0052707847434195826 0.050772797307036932 0.0024444352158738366 -0.17045829231750165 0.050876726181385862 0.092287590333735736 -0.0012841978821587819 0.038116861580449732 0.0533762473419577 -0.093590116837688531
leaf_weight=8315 27656 17083 22114 7535 10443 15456 6731 4026 32390 7028 21807 25496 13286 9920 11723 35449 8161 65643 17254 12723 6193 11619 3038 583 14006 24283 5426 18804 33396 1632
leaf_count=8315 27656 17083 22114 7535 10443 15456 6731 4026 32390 7028 21807 25496 13286 9920 11723 35449 8161 65643 17254 12723 6193 11619 3038 583 14006 24283 5426 18804 33396 1632
internal_value=0 0.215195 0.0815628 0.172514 0.203748 0.218217 0.229966 0.0569419 0.193138 0.231025 0.220314 0.15223 0.0630968 0.0862644 0.28975 0.268456 0.234454 0.303536 0.230776 0.321933 0.191853 0.364448 0.348401 -0.0946382 0.150707 0.359758 -0.159399 0.276168 0.307741 -0.0684165
internal_weight=0 421635 77584 48296 404552 366817 341909 24908 211575 40761 168682 69869 37735 42893 130334 98813 77006 123603 44373 111880 18916 18647 92964 10503 24449 89926 9452 36058 41557 29288
internal_count=499219 421635 77584 48296 404552 366817 341909 24908 211575 40761 168682 69869 37735 42893 130334 98813 77006 123603 44373 111880 18916 18647 92964 10503 24449 89926 9452 36058 41557 29288
shrinkage=0.2


Tree=18
num_leaves=31
num_cat=0
split_feature=936 2 586 64 705 13 645 650 932 717 589 960 77 614 194 74 461 702 76 960 578 961 838 64 694 909 608 751 961 963
split_gain=1046.03 957.481 880.564 931.601 833.457 623.128 545.336 520.26 505.294 485.577 476.781 484.61 500.322 414.202 403.978 389.978 379.012 353.567 343.602 336.82 309.244 277.588 272.153 271.549 269.8 262.682 265.57 259.07 257.251 256.169
threshold=0.18845000118017199 0.19305000454187396 0.042249999940395362 0.022750000469386581 0.11775000020861627 0.13585000485181811 0.12904999405145648 0.10604999959468843 0.14455000311136249 0.120449997484684 0.17095000296831134 1.6734000000000002 0.12264999747276308 0.050149999558925636 0.19645000249147418 0.14764999598264697 0.15585000067949298 0.10684999823570253 0.022750000469386581 0.073140350000000007 0.11645000055432321 1.7162350000000004 0.046450000256299979 0.15715000033378604 0.091250002384185805 0.1722499951720238 0.14594999700784686 0.095849998295307173 1.1000350000000001 0.80076000000000003
decision_type=2 2 2 2 2 2 2 2 2 2 2 2 2 2 2 2 2 2 2 2 2 2 2 2 2 2 2 2 2 2
left_child=1 2 4 18 14 -3 10 21 -2 -6 11 16 -13 -9 19 -14 17 28 -4 -1 -12 -8 -7 27 -19 26 -10 29 -5 -21
right_child=8 5 3 6 9 22 7 13 25 -11 20 12 15 -15 -16 -17 -18 24 -20 23 -22 -23 -24 -25 -26 -27 -28 -29 -30 -31
leaf_value=-0.052366755234094821 0.04558542070845728 0.029767756751073928 -0.0084504301664054728 0.04591809399512578 0.018467799650449018 -0.076676143489033816 0.041138195729166903 -0.010869672033849857 0.0035628337465638798 -0.038896770510044032 0.051433896969553264 0.074628382377469771 0.052420821919651042 0.03049122769027551 -0.036254303438194593 -0.023154587593833667 0.0068651050526650648 0.046355726901545984 0.031918838972301959 0.028278020434102037 -0.021026759745912657 0.09298603891121443 -0.015115254578712489 -0.0090037168203911527 -0.0035415453100028139 -0.069909886781648431 -0.065694324710715901 0.0089719474779720466 0.067420698892558181 0.049145921157379514
leaf_weight=1902 4691 11891 18482 72974 11101 3970 16953 14824 9081 12604 3860 53883 10117 27936 3675 3741 9614 8754 15512 47924 6046 5461 10391 5975 8586 4516 2929 13577 32021 46228
leaf_count=1902 4691 11891 18482 72974 11101 3970 16953 14824 9081 12604 3860 53883 10117 27936 3675 3741 9614 8754 15512 47924 6046 5461 10391 5975 8586 4516 2929 13577 32021 46228
internal_value=0 0.165186 0.175975 0.206019 0.111096 -0.0204743 0.22534 0.145448 -0.061728 -0.0601653 0.250182 0.260805 0.329558 0.0807613 0.145132 0.160095 0.225507 0.240532 0.0498535 0.155508 0.0360423 0.268853 -0.160667 0.162489 0.108244 -0.143948 -0.066638 0.173998 0.262379 0.19262
internal_weight=0 478002 451750 308764 142986 26252 274770 65174 21217 23705 209596 199690 67741 42760 119281 13858 131949 122335 33994 115606 9906 22414 14361 113704 17340 16526 12010 107729 104995 94152
internal_count=499219 478002 451750 308764 142986 26252 274770 65174 21217 23705 209596 199690 67741 42760 119281 13858 131949 122335 33994 115606 9906 22414 14361 113704 17340 16526 12010 107729 104995 94152
shrinkage=0.2


Tree=19
num_leaves=31
num_cat=0
split_feature=578 710 718 929 961 96 653 641 124 844 705 115 201 10 589 755 584 7 961 624 203 299 192 614 292 713 639 322 960 678
split_gain=849.811 842.706 1009.2 872.153 691.347 609.063 591.068 554.934 476.486 429.691 410.35 397.857 354.108 339.479 336.895 336.482 295.064 293.091 401.85 317.953 262.736 258.074 266.316 235.086 235.054 233.328 232.401 231.208 227.367 225.247
threshold=0.21175000071525577 0.14844999462366107 0.12775000184774402 0.030350000597536567 1.7275000000000003 0.12564999610185626 0.13024999946355822 0.099150002002716078 0.13774999976158145 0.21965000033378604 0.14124999940395358 0.10514999926090242 0.18124999850988391 0.13505000621080401 0.15505000203847888 0.20805000513792041 0.047650000080466277 0.11344999819993974 1.0724350000000002 0.11665000021457674 0.01415000017732382 0.026050000451505188 0.23625000566244128 0.060149999335408218 0.1009500026702881 0.11294999718666078 0.10464999824762346 0.2071500048041344 2.0219900000000002 0.11384999752044679
decision_type=2 2 2 2 2 2 2 2 2 2 2 2 2 2 2 2 2 2 2 2 2 2 2 2 2 2 2 2 2 2
left_child=1 3 16 5 6 13 9 -8 15 12 28 -10 17 20 -2 21 -3 18 19 -5 -1 -6 27 -9 -22 -12 -21 -23 -4 -20
right_child=14 2 10 4 8 -7 7 23 11 -11 25 -13 -14 -15 -16 -17 -18 -19 29 26 24 22 -24 -25 -26 -27 -28 -29 -30 -31
leaf_value=-0.030064875684491146 0.0093546231389630505 0.010234637729765279 -0.021403890865733341 0.035363391442739832 -0.0053963721147678419 -0.063621964961845093 0.043829345803836989 -0.014625018355725853 0.055209054923191725 -0.028085970271136781 0.017635939538491709 -0.039881530460116166 0.0016622539329961502 -0.018240032108133603 -0.068272214092425995 -0.018312282212725468 0.045124309375656507 0.017335536622600688 0.058421322451768558 0.010095488156248127 0.027048566242759906 0.077823597719521645 0.0056480854081918759 0.015017020904204113 -0.0063425790502729673 -0.064117730984862897 -0.10293861834377856 0.02431103677910483 0.025148091875517288 0.028461883148300438
leaf_weight=3951 3874 20859 11092 103800 1941 4031 16344 20958 3438 4226 1630 3606 11162 10362 5290 1981 18117 23580 56135 2149 66704 36619 2486 21870 9653 9744 1100 3542 6751 12224
leaf_count=3951 3874 20859 11092 103800 1941 4031 16344 20958 3438 4226 1630 3606 11162 10362 5290 1981 18117 23580 56135 2149 66704 36619 2486 21870 9653 9744 1100 3542 6751 12224
internal_value=0 0.130075 0.0269344 0.146748 0.171211 0.0622366 0.15086 0.0623824 0.275047 0.175281 -0.113573 0.032649 0.18163 0.079146 -0.177281 0.311712 0.132261 0.191352 0.205423 0.167175 0.101125 0.329629 0.345859 0.00255804 0.114136 -0.262008 -0.14087 0.36552 -0.0189534 0.26532
internal_weight=0 490055 68193 421862 327161 94701 273548 59172 53613 214376 29217 7044 210150 90670 9164 46569 38976 198988 175408 107049 80308 44588 42647 42828 76357 11374 3249 40161 17843 68359
internal_count=499219 490055 68193 421862 327161 94701 273548 59172 53613 214376 29217 7044 210150 90670 9164 46569 38976 198988 175408 107049 80308 44588 42647 42828 76357 11374 3249 40161 17843 68359
shrinkage=0.2


Tree=20
num_leaves=31
num_cat=0
split_feature=964 963 963 964 963 964 963 964 963 963 722 747 674 962 961 672 964 963 964 963 963 964 449 963 674 687 756 963 963 964
split_gain=812.703 994.504 928.133 649.29 485.877 476.871 914.752 491.739 587.399 401.057 334.582 332.208 310.541 302.126 299.783 298.409 296.439 526.608 287.567 361.036 280.459 329.949 257.208 254.932 250.001 248.623 240.62 228.425 357.096 226.802
threshold=0.96375300000000019 0.88246950000000013 0.90276000000000012 1.0353750000000004 0.93869950000000013 0.90942950000000011 0.82506200000000007 0.86318100000000009 0.77911200000000014 0.85620200000000013 0.11124999821186067 0.12674999982118609 0.07544999942183496 2.5790300000000004 1.8872850000000001 0.088950000703334822 0.82094450000000008 0.56695950000000006 0.88875350000000009 0.84942950000000017 0.75022050000000007 0.79009850000000015 0.16504999995231631 0.72591250000000007 0.099950000643730177 0.087750002741813674 0.13385000079870227 0.99999950000000004 0.9766490000000001 0.83287850000000019
decision_type=2 2 2 2 2 2 2 2 2 2 2 2 2 2 2 2 2 2 2 2 2 2 2 2 2 2 2 2 2 2
