tree
version=v3
num_class=1
num_tree_per_iteration=1
label_index=0
max_feature_idx=141
objective=regression
feature_names=F0_query_dim0 F0_query_dim1 F0_query_dim2 F0_query_dim3 F0_query_dim4 F0_query_dim5 F0_query_dim6 F0_query_dim7 F0_query_dim8 F0_query_dim9 F0_query_dim10 F0_query_dim11 F0_query_dim12 F0_query_dim13 F0_query_dim14 F0_query_dim15 F0_query_dim16 F0_query_dim17 F0_query_dim18 F0_query_dim19 F0_query_dim20 F0_query_dim21 F0_query_dim22 F0_query_dim23 F0_query_dim24 F0_query_dim25 F0_query_dim26 F0_query_dim27 F0_query_dim28 F0_query_dim29 F0_query_dim30 F0_query_dim31 F0_query_dim32 F0_query_dim33 F0_query_dim34 F0_query_dim35 F0_query_dim36 F0_query_dim37 F0_query_dim38 F0_query_dim39 F0_query_dim40 F0_query_dim41 F0_query_dim42 F0_query_dim43 F0_query_dim44 F0_query_dim45 F0_query_dim46 F0_query_dim47 F0_query_dim48 F0_query_dim49 F0_query_dim50 F0_query_dim51 F0_query_dim52 F0_query_dim53 F0_query_dim54 F0_query_dim55 F0_query_dim56 F0_query_dim57 F0_query_dim58 F0_query_dim59 F0_query_dim60 F0_query_dim61 F0_query_dim62 F0_query_dim63 F0_query_dim64 F0_query_dim65 F0_query_dim66 F0_query_dim67 F0_query_dim68 F0_query_dim69 F0_query_dim70 F0_query_dim71 F0_query_dim72 F0_query_dim73 F0_query_dim74 F0_query_dim75 F0_query_dim76 F0_query_dim77 F0_query_dim78 F0_query_dim79 F0_query_dim80 F0_query_dim81 F0_query_dim82 F0_query_dim83 F0_query_dim84 F0_query_dim85 F0_query_dim86 F0_query_dim87 F0_query_dim88 F0_query_dim89 F0_query_dim90 F0_query_dim91 F0_query_dim92 F0_query_dim93 F0_query_dim94 F0_query_dim95 F0_query_dim96 F0_query_dim97 F0_query_dim98 F0_query_dim99 F0_query_dim100 F0_query_dim101 F0_query_dim102 F0_query_dim103 F0_query_dim104 F0_query_dim105 F0_query_dim106 F0_query_dim107 F0_query_dim108 F0_query_dim109 F0_query_dim110 F0_query_dim111 F0_query_dim112 F0_query_dim113 F0_query_dim114 F0_query_dim115 F0_query_dim116 F0_query_dim117 F0_query_dim118 F0_query_dim119 F0_query_dim120 F0_query_dim121 F0_query_dim122 F0_query_dim123 F0_query_dim124 F0_query_dim125 F0_query_dim126 F0_query_dim127 F1_c_10th_to_c_1st F1_c_20th_to_c_1st F1_c_30th_to_c_1st F1_c_40th_to_c_1st F1_c_50th_to_c_1st F1_c_60th_to_c_1st F1_c_70th_to_c_1st F1_c_80th_to_c_1st F1_c_90th_to_c_1st F1_c_100th_to_c_1st F2_d_1st F3_d_10th F4_d_1st_to_d_10th F5_d_1st_to_c_1st
feature_infos=[0:205] [0:187] [0:210] [0:187] [0:218] [0:170] [0:217] [0:213] [0:223] [0:196] [0:210] [0:187] [0:187] [0:187] [0:217] [0:213] [0:223] [0:192] [0:210] [0:180] [0:178] [0:202] [0:217] [0:193] [0:225] [0:192] [0:210] [0:174] [0:217] [0:202] [0:217] [0:190] [0:205] [0:181] [0:186] [0:192] [0:218] [0:187] [0:167] [0:213] [0:223] [0:182] [0:193] [0:175] [0:190] [0:170] [0:184] [0:188] [0:241] [0:185] [0:173] [0:169] [0:183] [0:187] [0:184] [0:177] [0:225] [0:198] [0:178] [0:173] [0:217] [0:202] [0:191] [0:174] [0:205] [0:204] [0:166] [0:178] [0:218] [0:218] [0:179] [0:178] [0:223] [0:177] [0:165] [0:171] [0:206] [0:187] [0:179] [0:185] [0:241] [0:178] [0:182] [0:172] [0:184] [0:169] [0:160] [0:172] [0:225] [0:185] [0:183] [0:218] [0:217] [0:180] [0:174] [0:198] [0:205] [0:204] [0:203] [0:167] [0:218] [0:218] [0:228] [0:191] [0:223] [0:204] [0:203] [0:174] [0:206] [0:218] [0:228] [0:193] [0:241] [0:191] [0:203] [0:218] [0:172] [0:187] [0:228] [0:198] [0:225] [0:186] [0:203] [0:218] [0:217] [0:176] [0:228] [0:198] [1.0329200000000001:2082630] [1.075:2156160] [1.09291:2181680] [1.1234200000000001:2223740] [1.1560600000000001:2255570] [1.17648:2268720] [1.1873200000000002:2303490] [1.20214:2328960] [1.2114799999999999:2347120] [1.2244299999999999:2366720] [338.63999999999999:115572] [607.875:135906] [0.071641899999999994:0.97764899999999999] [0.016712099999999997:1381730]
tree_sizes=2896 2891 2853 2878 2851 2827 2850 2793 2787 2799 2780 2774 2791 2748 2743 2762 2724 2779 2778 2686 2766 2773 2767 2777 2761 2717 2701 2738 2825 2728 2736 2718 2711 2800 2722 2738 2754 2740 2695 2734 2768 2718 2744 2700 2737 2716 2671 2715 2697 2706 2758 2713 2698 2722 2729 2708 2674 2685 2710 2751 2712 2724 2713 2678 2759 2676 2705 2710 2715 2730 2722 2752 2686 2696 2688 2760 2768 2746 2758 2681 2660 2721 2726 2727 2743 2722 2707 2658 2709 2688 2719 2734 2760 2717 2818 2769 2718 2703 2685 2725

Tree=0
num_leaves=31
num_cat=0
split_feature=138 140 137 132 140 135 141 140 137 133 137 141 130 137 137 140 140 140 140 137 140 135 141 113 140 141 141 110 136 141
split_gain=1.67081e+07 3.40299e+06 2.6121e+06 2.54227e+06 1.54987e+06 629230 530824 476552 472225 419878 384299 378730 340968 283337 220796 216180 209388 186002 165931 136486 129081 120431 113092 182569 106023 105772 103666 100838 97105.6 158148
threshold=60737.350000000013 0.85454150000000018 1.5719150000000004 1.7863250000000004 0.81302150000000017 1.5232150000000002 0.9019545000000001 0.81458750000000013 1.7522500000000003 1.5914350000000002 1.4132300000000002 0.94689699999999999 1.9401700000000002 1.4635300000000002 1.4281950000000003 0.83578700000000006 0.81217600000000012 0.74982400000000005 0.8642525000000002 1.756305 0.86711550000000004 1.6280850000000002 0.93255050000000017 48.500000000000007 0.77884100000000012 1.0801950000000005 1.0151850000000002 120.50000000000001 1.9075650000000002 0.98336450000000009
decision_type=2 2 2 2 2 2 2 2 2 2 2 2 2 2 2 2 2 2 2 2 2 2 2 2 2 2 2 2 2 2
left_child=3 5 6 4 17 7 10 24 11 20 -3 -4 15 27 22 -5 -7 -1 -11 -18 -6 -19 -9 -24 -2 -13 -15 -8 29 -10
right_child=1 2 8 12 9 16 13 14 28 18 -12 25 -14 26 -16 -17 19 21 -20 -21 -22 -23 23 -25 -26 -27 -28 -29 -30 -31
leaf_value=0.67073448214677123 1.3951716333459072 6.5152349595929371 2.9803612783696156 0.5608537023137421 2.1278862496372759 1.1241385319102593 7.759360590224408 4.6692083818393479 2.1406383737517833 1.3351465711127206 4.157075059323093 4.15396233281776 0.34966250097079515 5.375502843667638 3.0508370296179712 1.0213881988695686 2.205562372188139 1.4339625560885039 1.9313077665884952 1.3923868624186468 2.974491286145458 0.92795022067867738 6.0913043478260871 28.980000000000004 2.3719730051607781 6.111074918566775 7.4295254833040421 21.345454545454547 1.8204741379310345 3.3349236641221376
leaf_weight=95809 7953 3341 23749 153215 24123 22955 3253 3436 11216 52466 16014 10991 296149 7209 13978 55554 22005 25852 28996 13214 10271 69105 46 20 10076 1228 1138 22 9280 7336
leaf_count=95809 7953 3341 23749 153215 24123 22955 3253 3436 11216 52466 16014 10991 296149 7209 13978 55554 22005 25852 28996 13214 10271 69105 46 20 10076 1228 1138 22 9280 7336
internal_value=0 14.2695 18.4943 3.81754 6.08879 9.99544 26.0284 13.3126 14.8362 8.97373 22.8207 17.2294 2.43827 31.3705 17.0331 3.41702 7.97066 4.33671 7.73674 9.50231 11.9035 5.32856 24.1336 65.1364 9.70542 21.7533 28.2777 39.2531 11.7434 13.0645
internal_weight=0 188460 94777 811540 306622 93683 30977 35509 63800 115856 19355 35968 504918 11622 17480 208769 58174 190766 81462 35219 34394 94957 3502 66 18029 12219 8347 3275 27832 18552
internal_count=1000000 188460 94777 811540 306622 93683 30977 35509 63800 115856 19355 35968 504918 11622 17480 208769 58174 190766 81462 35219 34394 94957 3502 66 18029 12219 8347 3275 27832 18552
shrinkage=0.2


Tree=1
num_leaves=31
num_cat=0
split_feature=138 140 137 131 140 137 137 140 141 140 136 136 141 135 140 141 129 134 132 141 141 140 141 141 110 141 136 128 38 56
split_gain=1.07747e+07 2.43747e+06 1.72086e+06 1.40056e+06 853513 599626 441754 381546 322200 310068 264428 244142 223017 221468 186153 152318 149925 119996 112810 105965 103204 95797.2 85132.5 84947.4 83625.2 81298.2 76084.6 86827.6 85113.2 76176
threshold=59380.850000000013 0.86238150000000002 1.6087450000000001 1.7913450000000004 0.82950150000000022 1.503125 1.4635300000000002 0.79222250000000005 0.92585850000000003 0.81781650000000006 1.7648150000000002 1.8088100000000003 0.98336450000000009 1.6358150000000002 0.77218400000000009 0.85019250000000013 2.0120850000000003 1.3167900000000001 1.6148850000000001 0.86063050000000019 1.0525100000000003 0.81051850000000014 0.85636950000000012 0.82666600000000023 123.50000000000001 0.84811300000000012 1.3515500000000003 1.1639450000000002 106.50000000000001 16.500000000000004
decision_type=2 2 2 2 2 2 2 2 2 2 2 2 2 2 2 2 2 2 2 2 2 2 2 2 2 2 2 2 2 2
left_child=3 5 6 4 14 7 15 -2 22 -7 -6 12 25 19 -1 -3 21 -9 -16 -11 -10 -5 -8 -19 -25 -4 28 -28 -17 -29
right_child=1 2 11 16 10 9 8 17 20 13 -12 -13 -14 -15 18 26 -18 23 -20 -21 -22 -23 -24 24 -26 -27 27 29 -30 -31
leaf_value=0.54766088112540401 1.3417285707651549 4.2470735341145405 1.7242531198898399 0.36216583287968379 1.8249823994603993 0.98463800457240502 2.7402539206386702 4.7323656570399493 4.4608755525750485 1.7952328803933171 1.1386634840290843 1.6795327636566766 3.4002896860305536 1.3032950529884755 1.1545724577714143 7.3040871579948616 0.22599102729539708 2.5057951429995855 0.72442624901140362 2.6006387863513685 7.0517498491921176 0.62083911123208868 3.628176852660741 3.4349413018219579 16.390599099434912 2.5005865609258837 4.933662338874572 4.8223240891617722 19.144922031402587 7.5952539414167406
leaf_weight=143899 7885 3520 7530 153930 36175 42541 9081 1502 7886 17116 59207 18003 9717 27764 41590 846 202945 9840 58963 10569 667 91196 8237 5587 20 19036 2913 586 25 1224
leaf_count=143899 7885 3520 7530 153930 36175 42541 9081 1502 7886 17116 59207 18003 9717 27764 41590 846 202945 9840 58963 10569 667 91196 8237 5587 20 19036 2913 586 25 1224
internal_value=0 10.9565 14.9329 2.92679 4.45771 8.06638 20.4021 12.4554 18.293 6.95405 6.9948 11.4083 12.9021 8.51215 3.46777 26.389 1.76568 15.1289 4.5117 10.5135 23.3146 2.29201 15.8129 14.2992 17.4058 11.4027 29.6318 28.0481 38.2198 33.4875
internal_weight=0 212095 89271 787905 339834 122824 34985 24834 25871 97990 95382 54286 36283 55449 244452 9114 448071 16949 100553 27685 8553 245126 17318 15447 5607 26566 5594 4723 871 1810
internal_count=1000000 212095 89271 787905 339834 122824 34985 24834 25871 97990 95382 54286 36283 55449 244452 9114 448071 16949 100553 27685 8553 245126 17318 15447 5607 26566 5594 4723 871 1810
shrinkage=0.2


Tree=2
num_leaves=31
num_cat=0
split_feature=138 138 138 140 140 136 140 133 129 137 141 130 140 137 137 137 136 136 141 140 140 140 128 114 75 141 112 141 128 141
split_gain=6.93977e+06 1.39923e+06 1.3092e+06 628061 494001 486921 330522 303586 270771 208994 180451 146650 122454 121945 103727 101812 95918.4 93145.6 92360.4 86443.8 86237.7 86230.9 81523 96470.4 108845 80052.2 140942 79177.6 78749.3 72239.5
threshold=62466.650000000009 49159.900000000009 74969.35000000002 0.8389645 0.84376150000000016 1.6311650000000002 0.87797700000000012 1.6911950000000002 1.6712950000000004 1.503125 0.85220600000000002 1.3940050000000002 0.78519700000000003 1.4281950000000003 1.5457350000000001 1.5166550000000003 1.5990250000000004 1.4697250000000002 0.98336450000000009 0.88713050000000016 0.79222250000000005 0.79474600000000006 1.2378950000000002 29.500000000000004 14.500000000000002 0.83422600000000013 127.50000000000001 0.94689699999999999 1.2109350000000001 0.88872450000000003
decision_type=2 2 2 2 2 2 2 2 2 2 2 2 2 2 2 2 2 2 2 2 2 2 2 2 2 2 2 2 2 2
left_child=1 8 3 16 11 10 13 14 12 18 17 20 -1 25 -6 -12 21 -5 -8 -7 -3 -2 -20 24 -24 -4 28 -11 -27 -16
right_child=2 4 6 5 7 19 9 -9 -10 27 15 -13 -14 -15 29 -17 -18 -19 22 -21 -22 -23 23 -25 -26 26 -28 -29 -30 -31
leaf_value=0.39117556287262062 0.94014951358301324 0.81051905822990844 2.7099011340505603 2.8045159120695513 2.7847148958653722 1.3107848638832751 4.3384639007499199 0.95627566816458964 0.23481123783441041 2.4892538911181212 3.6754613600747952 0.60676141007333251 0.68762266935222882 2.118222115303698 1.4562751106328893 2.6708737507608866 0.81307470047070651 1.7462931859503579 5.9772407422041951 1.904794410266951 1.430508038906356 1.658072346621567 9.9738914276544861 3.2650334958846758 29.598972111940384 4.1387207082614736 20.480392901870339 3.6465687452589508 14.85104265511036 2.1300146740106718
leaf_weight=136358 11272 22624 2392 4647 3354 24827 5351 45360 360255 4043 5467 128135 94269 11487 26218 15410 22858 11714 802 16190 14874 16471 26 26 20 1397 22 5696 28 8407
leaf_count=136358 11272 22624 2392 4647 3354 24827 5351 45360 360255 4043 5467 128135 94269 11487 26218 15410 22858 11714 802 16190 14874 16471 26 26 20 1397 22 5696 28 8407
internal_value=0 2.55354 9.73665 8.3277 4.542 10.103 15.5389 6.52781 1.71568 18.7234 12.721 3.54283 2.56174 12.2218 8.61365 14.6697 5.58218 10.2343 23.249 7.72624 5.28222 6.8319 32.78 65.0133 92.5327 17.1012 22.9723 15.8306 21.746 8.0993
internal_weight=0 839854 160146 128856 248972 78255 31290 83339 590882 15964 37238 165633 230627 15326 37979 20877 50601 16361 6225 41017 37498 27743 874 72 46 3839 1447 9739 1425 34625
internal_count=1000000 839854 160146 128856 248972 78255 31290 83339 590882 15964 37238 165633 230627 15326 37979 20877 50601 16361 6225 41017 37498 27743 874 72 46 3839 1447 9739 1425 34625
shrinkage=0.2


Tree=3
num_leaves=31
num_cat=0
split_feature=138 138 131 140 135 140 140 137 128 141 136 141 140 141 135 131 131 141 130 141 137 128 140 136 128 116 111 69 14 141
split_gain=4.49194e+06 1.21498e+06 554537 473739 379568 344512 302213 291209 118681 116461 119887 104882 101622 94093.9 81503.4 81281.4 80390.7 89577.2 79679.9 75440.9 71628.9 87711.7 69876 62472.7 57513.2 82114.8 53430.6 90144.3 135217 53251
threshold=58059.850000000013 71319.150000000009 1.6678750000000002 0.83268150000000007 1.6358150000000002 0.85289200000000009 0.80153649999999999 1.5166550000000003 1.6606950000000003 0.95513850000000022 1.3515500000000003 0.87174750000000001 0.90874600000000016 0.86503400000000019 1.4932300000000003 1.5363150000000003 1.7081450000000002 0.92585850000000003 1.3651150000000003 0.7868845000000001 1.4281950000000003 1.2202350000000002 0.78698750000000006 1.4453800000000003 1.2705950000000001 13.500000000000002 71.500000000000014 38.500000000000007 12.500000000000002 1.0658200000000002
decision_type=2 2 2 2 2 2 2 2 2 2 2 2 2 2 2 2 2 2 2 2 2 2 2 2 2 2 2 2 2 2
left_child=2 3 6 15 11 20 -1 9 13 10 -7 14 -9 -4 -5 22 17 -6 -8 -20 21 -3 -2 26 -12 -26 -13 -28 -29 -14
right_child=1 5 8 4 16 7 18 12 -10 -11 24 23 29 -15 -16 -17 -18 -19 19 -21 -22 -23 -24 -25 25 -27 27 28 -30 -31
leaf_value=0.43381490850020427 0.60226264104761473 2.1589851222362144 0.29197939739537693 2.0440002097428258 0.94536690785068656 4.7129816675893546 1.4536606999201578 1.8383989081868728 0.14931041830748046 4.5538620960225185 2.7198774216410451 3.2166473232916126 2.4605443456646223 0.62665899587235774 1.3244687438969027 0.44528731662186721 0.67760573677140834 1.5468808815227773 0.67920350677568553 1.0782078700132196 1.2468157861261899 15.120928052493506 1.0764330219209421 2.1043164842476894 1.4912388131732035 19.397625455856325 2.8304540558044731 5.6084351660743836 26.393795361405331 3.8275929551078627
leaf_weight=130302 21365 3724 254076 9585 23780 1424 9737 16859 253461 2312 9900 791 5122 38723 18357 26273 16953 16970 45128 32681 13985 21 29730 17117 21 20 65 31 21 1466
leaf_count=130302 21365 3724 254076 9585 23780 1424 9737 16859 253461 2312 9900 791 5122 38723 18357 26273 16953 16970 45128 32681 13985 21 29730 17117 21 20 65 31 21 1466
internal_value=0 6.77761 1.78551 5.52836 6.92582 10.9006 3.13451 12.6325 1.24753 16.2996 14.9834 9.06967 10.4934 1.68121 7.85646 3.65582 5.218 5.97931 4.57144 4.23396 7.2742 11.1583 4.39081 10.9504 13.7542 51.1303 19.0335 38.9791 70.0126 13.8237
internal_weight=0 235892 764108 181038 103670 54854 217848 37124 546260 13677 11365 45967 23447 292799 27942 77368 57703 40750 87546 77809 17730 3745 51095 18025 9941 41 908 117 52 6588
internal_count=1000000 235892 764108 181038 103670 54854 217848 37124 546260 13677 11365 45967 23447 292799 27942 77368 57703 40750 87546 77809 17730 3745 51095 18025 9941 41 908 117 52 6588
shrinkage=0.2


Tree=4
num_leaves=31
num_cat=0
split_feature=138 133 140 140 137 137 140 141 140 137 136 140 137 141 137 128 132 136 141 141 127 9 85 96 141 141 134 128 92 9
split_gain=2.88919e+06 763338 550340 423465 316851 213716 167166 144236 126681 96153.5 92360.5 89555.5 85197.1 78123.9 71940.3 72769.7 66307.4 65565.5 85186.7 62462.3 103743 185964 68569.8 80714.4 60033.5 57014.3 55908.8 54344.7 53405.9 72524.7
threshold=64580.700000000004 1.7203850000000003 0.87279300000000015 0.82637150000000015 1.6542450000000002 1.4883650000000002 0.84959200000000012 0.89669250000000023 0.82176349999999998 1.5861750000000001 2.1069150000000003 0.74372450000000001 1.4132300000000002 0.8026795000000001 1.5166550000000003 1.3132050000000002 1.4730550000000002 1.7806450000000005 0.85220600000000002 0.93952350000000007 3.5000000000000004 55.500000000000007 4.5000000000000009 22.500000000000004 1.0409300000000001 0.97785850000000007 1.4743250000000001 1.797525 119.50000000000001 21.500000000000004
decision_type=2 2 2 2 2 2 2 2 2 2 2 2 2 2 2 2 2 2 2 2 2 2 2 2 2 2 2 2 2 2
left_child=1 3 5 11 7 8 27 12 -2 -5 25 -1 -4 -11 28 -16 -17 18 -7 -10 21 -21 23 -22 -6 -8 -13 -3 -9 -30
right_child=2 6 4 9 24 17 10 14 19 13 -12 26 -14 -15 15 16 -18 -19 -20 20 22 -23 -24 -25 -26 -27 -28 -29 29 -31
leaf_value=0.26352271292814222 1.0211678883866622 0.21979205051156794 3.0362646409918863 1.4872067186291751 1.0668114906365354 0.67222178172213976 0.56296117876583007 3.1649973858236802 1.9737871821126252 0.67653172780547843 0.29356899168726219 0.96932593079904095 1.611754079862844 1.0910440690820769 2.2012088944982064 12.24196690148429 3.7102119310292299 0.33914481684721021 1.201452483594079 5.323722230377844 18.551380791871445 27.639756565093997 1.9633013914745057 1.1789425230026245 1.7912789801452889 1.1614861053883594 0.51100566109574475 0.079693567990532774 0.88735700503394421 12.110644474283594
leaf_weight=64083 8125 341161 1950 13359 15485 25898 38083 5780 9814 33161 66331 12054 12102 40278 9422 38 886 9213 22944 59 23 20 319 20 6494 7644 91169 163987 37 61
leaf_count=64083 8125 341161 1950 13359 15485 25898 38083 5780 9814 33161 66331 12054 12102 40278 9422 38 886 9213 22944 59 23 20 319 20 6494 7644 91169 163987 37 61
internal_value=0 1.71724 6.79334 3.17599 9.2944 5.08347 1.11667 11.3925 8.05527 4.96827 2.22163 2.24617 9.04717 4.51937 13.4238 11.8366 20.3054 4.14261 4.60417 10.3921 22.0346 54.8668 14.8695 52.3559 6.40433 3.31507 2.82263 0.871558 16.2175 39.3664
internal_weight=0 871310 128690 254104 52255 76435 617206 30276 18380 86798 112058 167306 14052 73439 16224 10346 924 58055 48842 10255 441 79 362 43 21979 45727 103223 505148 5878 98
internal_count=1000000 871310 128690 254104 52255 76435 617206 30276 18380 86798 112058 167306 14052 73439 16224 10346 924 58055 48842 10255 441 79 362 43 21979 45727 103223 505148 5878 98
shrinkage=0.2


Tree=5
num_leaves=31
num_cat=0
split_feature=138 140 137 129 137 140 141 140 136 137 140 141 101 140 138 27 140 119 139 79 49 21 19 37 0 61 132 141 127 135
split_gain=1.87198e+06 601441 408434 209678 185938 132364 125468 103645 101038 91411.9 73328 61964.7 58668.9 57969.2 57396.2 108261 55794.9 55719.1 49958 51183.7 73185.3 69902.4 56198.8 64277.4 52641 85124.3 48839.4 46840.8 48430.1 46358.7
threshold=57002.80000000001 0.86519450000000009 1.6421250000000003 1.4898450000000001 1.6087450000000001 0.79825850000000009 0.93952350000000007 0.79222250000000005 1.3781650000000003 1.4132300000000002 0.78607450000000012 0.93952350000000007 126.50000000000001 0.79825850000000009 86135.250000000015 4.5000000000000009 0.91915500000000017 126.50000000000001 92689.450000000012 33.500000000000007 100.50000000000001 102.50000000000001 72.500000000000014 19.500000000000004 1.0000000180025095e-35 13.500000000000002 1.9983550000000003 0.82476950000000027 132.50000000000003 1.8056150000000002
decision_type=2 2 2 2 2 2 2 2 2 2 2 2 2 2 2 2 2 2 2 2 2 2 2 2 2 2 2 2 2 2
left_child=3 4 6 7 5 -2 8 -1 17 -7 -5 -11 18 -6 -13 -16 29 -3 -8 -20 21 22 24 -24 25 -21 -12 -10 -29 -4
right_child=1 2 16 10 13 9 12 -9 27 11 26 14 -14 -15 15 -17 -18 -19 19 20 -22 -23 23 -25 -26 -27 -28 28 -30 -31
leaf_value=0.26954654418935131 0.48612046967879552 2.7085918322306046 0.95010981532111893 0.092533669423521259 0.17712064765216909 1.9380275748486397 2.1079883181099124 0.56749550613963207 1.0201811219165289 0.91873908041229679 0.34701346572861214 1.8884694321352935 11.616814199752278 0.52780643215589851 19.673151622215908 0.67654094696044931 1.3925768560665173 13.312380155324938 2.1631449624737313 18.269226663008979 12.921256414304176 13.029376080993451 3.6619915462127239 16.95862204845135 2.4929498324173882 2.8534284481876777 0.16473307117591193 1.570723566647672 10.75371388922567 0.53117111883870749
leaf_weight=106271 23327 2224 29847 311269 25910 4436 9297 83312 8604 36210 99279 1973 27 69243 21 28 7422 20 751 23 39 33 33 26 587 38 144191 19181 23 16355
leaf_count=106271 23327 2224 29847 311269 25910 4436 9297 83312 8604 36210 99279 1973 27 69243 21 28 7422 20 751 23 39 33 33 26 587 38 144191 19181 23 16355
internal_value=0 4.23084 6.23336 1.09449 3.05615 4.34597 8.61328 2.0024 7.56076 5.39311 0.784216 4.89453 11.5275 2.16158 10.282 44.0897 4.41789 14.0155 11.4114 16.7065 22.3854 20.1603 18.0605 47.6076 15.3702 43.3297 1.1953 7.03988 7.90861 4.00905
internal_weight=0 255678 94530 744322 161148 65995 40906 189583 30052 42668 554739 38232 10854 95153 2022 49 53624 2244 10827 1530 779 740 707 59 648 61 243470 27808 19204 46202
internal_count=1000000 255678 94530 744322 161148 65995 40906 189583 30052 42668 554739 38232 10854 95153 2022 49 53624 2244 10827 1530 779 740 707 59 648 61 243470 27808 19204 46202
shrinkage=0.2


Tree=6
num_leaves=31
num_cat=0
split_feature=138 140 136 137 138 141 141 140 137 128 105 140 137 105 62 111 141 51 68 18 141 71 13 135 141 135 128 21 130 140
split_gain=1.20583e+06 432100 219326 198787 123661 110012 90456.8 83902.5 77202 74918.3 96673.4 73857.6 68325.8 64903.2 74877.1 64678.6 57796.1 56804.2 102467 46893.3 68743.2 182077 57041.1 46429.2 44914.6 54330 44312.6 100328 43053.3 40384.8
threshold=55992.950000000004 0.87688949999999999 1.6541950000000003 1.5288150000000003 42011.950000000004 0.81703350000000008 1.0316700000000003 0.87483250000000001 1.5288150000000003 1.2483850000000001 90.500000000000014 0.8031640000000001 1.8539350000000001 4.5000000000000009 7.5000000000000009 129.50000000000003 0.88623300000000016 1.0000000180025095e-35 24.500000000000004 11.500000000000002 0.96386600000000011 5.5000000000000009 4.5000000000000009 1.3347350000000002 1.0409300000000001 1.9058950000000003 1.2356650000000002 130.50000000000003 1.4686750000000004 0.76924150000000002
decision_type=2 2 2 2 2 2 2 2 2 2 2 2 2 2 2 2 2 2 2 2 2 2 2 2 2 2 2 2 2 2
left_child=4 3 6 5 -1 29 8 28 9 23 13 -5 16 14 -11 19 -13 18 -8 20 -7 -22 -23 -3 -4 -26 -10 -28 -6 -2
right_child=1 2 24 11 7 15 17 -9 26 10 -12 12 -14 -15 -16 -17 -18 -19 -20 -21 21 22 -24 -25 25 -27 27 -29 -30 -31
leaf_value=0.10479461773402646 0.27130673825308554 2.8988870385834118 0.60697387171861872 0.19427410797640304 0.37945609053064877 1.6086574767319437 1.304895281791687 0.58962580245480944 0.80538756273054979 18.595475346391851 14.445442800389396 0.46690402226457239 0.21995922644548438 1.9603999919026212 4.1320410745899849 9.5891398662015011 0.82070543887462988 2.4850915063692978 20.34634987741709 0.99447165471879684 23.467464318275454 11.676662289457662 1.8681133348134258 1.5206059971948245 1.5573938422011389 0.60225231446990002 1.3636216930269263 15.543040464520454 0.18569769934690308 0.81195713564596472
leaf_weight=456255 7627 1061 28413 47032 61963 6180 26 30242 10557 22 36 56242 27544 237 41 38 27499 2280 20 7699 20 28 155 12442 5064 4498 10054 20 176639 20066
leaf_count=456255 7627 1061 28413 47032 61963 6180 26 30242 10557 22 36 56242 27544 237 41 38 27499 2280 20 7699 20 28 155 12442 5064 4498 10054 20 176639 20066
internal_value=0 3.30053 5.35166 2.5342 0.840976 4.47351 7.09157 1.37896 6.68428 8.51155 23.2614 2.02201 2.46604 17.3855 45.9138 6.74511 2.91543 13.1274 47.9189 6.63393 8.63807 26.7452 16.8444 8.14452 3.66577 5.54046 5.45858 6.95886 1.18008 3.31528
internal_weight=0 274901 74771 200130 725099 41813 36796 268844 34470 13839 336 158317 111285 300 63 14120 83741 2326 46 14082 6383 203 183 13503 37975 9562 20631 10074 238602 27693
internal_count=1000000 274901 74771 200130 725099 41813 36796 268844 34470 13839 336 158317 111285 300 63 14120 83741 2326 46 14082 6383 203 183 13503 37975 9562 20631 10074 238602 27693
shrinkage=0.2


Tree=7
num_leaves=31
num_cat=0
split_feature=137 141 137 140 141 110 140 130 128 136 141 80 141 128 23 9 140 43 72 125 46 34 19 119 10 108 91 118 21 141
split_gain=816087 473696 173354 147763 129498 116077 77693.5 62984.5 62694.1 60517.4 55940.8 55606.5 49913.5 48880.6 99608 46467.4 49822.3 80851.1 45269.5 57886.7 44215 53654.4 41966.8 41480.9 56741.8 69613.6 141794 38566.8 38024.4 36512.1
threshold=1.7289150000000002 0.80625050000000009 1.4533900000000002 0.88019900000000006 1.0151850000000002 127.50000000000001 0.88977200000000001 1.3039750000000001 1.5507050000000002 2.1002850000000008 0.91051800000000016 127.50000000000001 1.0981750000000001 1.2132250000000002 86.500000000000014 63.500000000000007 0.93191100000000004 11.500000000000002 128.50000000000003 110.50000000000001 24.500000000000004 3.5000000000000004 3.5000000000000004 17.500000000000004 73.500000000000014 60.500000000000007 48.500000000000007 38.500000000000007 130.50000000000003 1.1227000000000003
decision_type=2 2 2 2 2 2 2 2 2 2 2 2 2 2 2 2 2 2 2 2 2 2 2 2 2 2 2 2 2 2
left_child=1 7 5 8 6 13 11 -1 10 12 -2 -4 -5 15 20 -3 -17 -18 -8 28 21 -15 23 -6 25 -25 -27 -23 -20 -24
right_child=3 2 4 9 22 -7 18 -9 -10 -11 -12 -13 -14 14 -16 16 17 -19 19 -21 -22 27 29 24 -26 26 -28 -29 -30 -31
leaf_value=0.59554212811232943 0.14442204973104916 1.3354505292233285 0.57359457907226763 0.50924555321212894 1.3095702878909536 14.270555519235547 0.97905149333869446 0.25248510849859623 0.047199519473068829 0.1928165872202306 0.42555253662453807 1.2128086956284019 1.3632358072486184 13.948324291602425 15.186315170327823 2.2129713650922787 14.86479753057162 1.4912229312211276 1.80267342967449 12.720816308259964 -0.69935837338368101 1.5347164137979572 1.304142265041722 2.7332250266345017 14.401473953723908 3.2927628662071977 21.935034243762495 11.254126200675964 10.362829471202126 3.4093769132923541
leaf_weight=26410 330813 8641 62397 38702 404 29 18975 113011 322432 28858 30962 5964 2946 23 30 1910 33 40 1792 20 84 89 4432 511 20 51 24 20 21 356
leaf_count=26410 330813 8641 62397 38702 404 29 18975 113011 322432 28858 30962 5964 2946 23 30 1910 33 40 1792 20 84 89 4432 511 20 51 24 20 21 356
internal_value=0 2.7983 4.39307 0.698679 3.95956 8.17037 3.66179 1.58735 0.556639 2.07707 0.842411 3.14681 2.84827 8.0018 21.9375 7.67912 12.0448 37.6841 5.35369 10.0994 14.4384 25.8517 8.53902 14.3968 19.6294 17.8417 46.2914 16.5905 9.50913 7.30336
internal_weight=0 245287 105866 754713 94967 10899 89169 139421 684207 70506 361775 68361 41648 10870 246 10624 1983 73 20808 1833 216 132 5798 1010 606 586 75 109 1813 4788
internal_count=1000000 245287 105866 754713 94967 10899 89169 139421 684207 70506 361775 68361 41648 10870 246 10624 1983 73 20808 1833 216 132 5798 1010 606 586 75 109 1813 4788
shrinkage=0.2


Tree=8
num_leaves=31
num_cat=0
split_feature=137 140 140 137 141 134 141 48 140 57 40 141 23 141 21 19 65 5 141 49 134 126 7 72 91 140 97 141 93 49
split_gain=538233 304923 148624 101626 89548.2 89258.2 72628.2 48678.2 47413.3 46924 46202.3 38887.1 35629 35550.5 36472.8 34802.5 39068.7 72774.9 36010.9 101892 35624.9 62309.1 63572.9 59636.8 34130.2 34111.4 34057.4 53294.2 57720.9 95879.9
threshold=1.6584550000000002 0.83268150000000007 0.85040850000000001 1.3939100000000002 0.96386600000000011 1.8763850000000002 0.89136650000000006 129.50000000000003 0.75885700000000023 123.50000000000001 120.50000000000001 1.1227000000000003 81.500000000000014 0.8209010000000001 132.50000000000003 2.5000000000000004 1.0000000180025095e-35 29.500000000000004 1.0658200000000002 71.500000000000014 1.3727400000000001 6.5000000000000009 13.500000000000002 41.500000000000007 131.50000000000003 0.73194550000000003 23.500000000000004 0.88623300000000016 9.5000000000000018 110.50000000000001
decision_type=2 2 2 2 2 2 2 2 2 2 2 2 2 2 2 2 2 2 2 2 2 2 2 2 2 2 2 2 2 2
left_child=1 25 8 26 7 6 -4 10 -2 15 -5 -8 -13 -12 24 16 17 -6 -18 -20 21 22 -17 -24 -15 -1 27 -3 29 -29
right_child=2 3 5 4 9 -7 11 -9 -10 -11 13 12 -14 14 -16 20 18 -19 19 -21 -22 -23 23 -25 -26 -27 -28 28 -30 -31
leaf_value=0.047760301421886579 0.024902827400986236 1.5952625694226636 0.26940152714045201 0.51198403423701844 2.2761111040504614 0.15102115012733247 0.59595979870167559 1.1841778784786141 0.13330853482531602 10.540159861607986 0.60036430445649136 1.2531119416047187 4.1647511117395606 1.1814439659784222 9.3631864807822485 1.0757528281980946 1.6602299372279743 15.718561971932651 1.8029069330118881 15.843927411522186 1.0586152329876475 1.1627543381121876 5.6453716605901718 19.744633686542514 8.4407186040511508 0.33242509280480381 0.92206733917370876 4.8632401682942819 2.4556953003101927 18.753689885139465
leaf_weight=22143 304930 2080 47678 47496 49 91442 37004 6450 342815 22 6986 1459 190 7221 22 31 1301 24 79 28 7862 146 24 24 26 70283 1368 206 589 22
leaf_count=22143 304930 2080 47678 47496 49 91442 37004 6450 342815 22 6986 1459 190 7221 22 31 1301 24 79 28 7862 146 24 24 26 70283 1368 206 589 22
internal_value=0 2.56673 0.633666 3.96974 3.70916 1.4436 2.17286 3.30684 0.411379 6.57038 3.0338 3.19154 7.94297 4.6127 6.16086 6.46431 10.921 33.4777 9.75149 27.386 5.64814 18.0549 40.6778 63.475 6.03744 1.32113 8.72256 10.6644 17.508 31.0177
internal_weight=0 174482 825518 82056 77791 177773 86331 68201 647745 9590 61751 38653 1649 14255 7269 9568 1481 73 1408 107 8087 225 79 48 7247 92426 4265 2897 817 228
internal_count=1000000 174482 825518 82056 77791 177773 86331 68201 647745 9590 61751 38653 1649 14255 7269 9568 1481 73 1408 107 8087 225 79 48 7247 92426 4265 2897 817 228
shrinkage=0.2


Tree=9
num_leaves=31
num_cat=0
split_feature=133 141 137 136 127 110 90 141 111 23 131 101 48 72 128 105 141 137 137 82 59 140 129 51 27 120 99 141 140 104
split_gain=361553 250310 86956.8 61977.4 59068.5 58834.8 147580 57213 53811.6 99333.2 51114.5 47314 40661.7 41996.6 38133.6 43450.7 55392.1 135818 42177.1 37232.8 117461 36279.3 31806.8 39669.1 44629.2 41384.2 35495.8 30087.7 29215.6 30291.3
threshold=1.6526150000000002 0.85220600000000002 1.5613850000000002 1.4541650000000004 131.50000000000003 127.50000000000001 8.5000000000000018 0.91950950000000009 129.50000000000003 16.500000000000004 1.8301600000000002 132.50000000000003 115.50000000000001 74.500000000000014 1.2356650000000002 90.500000000000014 0.95513850000000022 1.5166550000000003 1.4132300000000002 114.50000000000001 36.500000000000007 0.77884100000000012 1.2260800000000003 7.5000000000000009 10.500000000000002 76.500000000000014 55.500000000000007 1.0525100000000003 0.76816700000000016 28.500000000000004
decision_type=2 2 2 2 2 2 2 2 2 2 2 2 2 2 2 2 2 2 2 2 2 2 2 2 2 2 2 2 2 2
left_child=1 3 4 28 5 8 -7 -2 11 -10 27 14 13 -4 18 -16 -17 -18 19 22 -21 -5 26 24 -24 -25 -3 -9 -1 -30
right_child=7 2 12 21 -6 6 -8 10 9 -11 -12 -13 -14 -15 15 16 17 -19 -20 20 -22 -23 23 25 -26 -27 -28 -29 29 -31
leaf_value=0.15887004101825011 0.05647584845305921 1.3959758779644735 0.088178398756625073 0.081554467663002381 10.869065759579343 20.855521450042726 -2.8823394970460372 0.31437982421841754 18.417973395586014 1.2256238807992239 0.092090069726023321 9.1316648823874331 0.74713246393706201 0.53339738866418374 1.2813996740312099 2.1358131082666421 20.826217104618749 3.1065019999780965 0.67706362116691299 0.045406962663699424 18.897354774475101 0.26093676600237997 3.3538887630809437 1.0889137250108598 12.657305909648088 9.4997549011157112 -0.83796880737179902 0.76334049858532105 0.37695714118629647 0.91632877256508416
leaf_weight=5974 618763 2565 12695 74791 24 20 22 32142 20 41 49087 28 18427 25493 3470 240 24 62 17628 39 20 113595 55 234 33 26 320 7333 7570 9259
leaf_count=5974 618763 2565 12695 74791 24 20 22 32142 20 41 49087 28 18427 25493 3470 240 24 62 17628 39 20 113595 55 234 33 26 320 7333 7570 9259
internal_value=0 1.71153 3.20034 1.13708 4.75892 4.71102 42.107 0.389976 4.6477 34.3123 1.14173 4.57457 2.51565 1.92696 4.52803 7.444 18.482 40.2577 3.99892 7.28463 32.1795 0.948602 6.83032 15.8614 34.2134 9.64999 5.74095 1.9889 2.69415 3.36855
internal_weight=0 292675 81486 211189 24871 24847 42 707325 24805 61 88562 24744 56615 38188 24716 3796 326 86 20920 3292 59 188386 3233 348 88 260 2885 39475 22803 16829
internal_count=1000000 292675 81486 211189 24871 24847 42 707325 24805 61 88562 24744 56615 38188 24716 3796 326 86 20920 3292 59 188386 3233 348 88 260 2885 39475 22803 16829
shrinkage=0.2


Tree=10
num_leaves=31
num_cat=0
split_feature=136 140 140 16 90 22 139 81 4 129 141 122 80 96 74 132 40 80 141 24 29 32 141 28 54 77 94 7 112 125
split_gain=241223 144845 96458.3 54634.8 52259.2 73787.8 51827 48584.5 170851 47397.8 47517.1 35338 34650.2 34388.7 76082.2 31999.6 28764 28090.3 27981.7 47986.1 95944.3 37121.2 27851.6 33072.5 52957 103161 131261 27879.2 25930.5 51800.8
threshold=1.6073050000000002 0.8454345000000002 0.88977200000000001 33.500000000000007 131.50000000000003 4.5000000000000009 92689.450000000012 89.500000000000014 1.0000000180025095e-35 1.6080600000000003 0.96833650000000004 52.500000000000007 128.50000000000003 129.50000000000003 9.5000000000000018 1.9787300000000003 39.500000000000007 22.500000000000004 0.92585850000000003 99.500000000000014 17.500000000000004 118.50000000000001 0.99479650000000019 35.500000000000007 43.500000000000007 13.500000000000002 25.500000000000004 71.500000000000014 49.500000000000007 10.500000000000002
decision_type=2 2 2 2 2 2 2 2 2 2 2 2 2 2 2 2 2 2 2 2 2 2 2 2 2 2 2 2 2 2
left_child=1 -1 9 4 16 -6 12 28 -9 10 -2 -10 13 22 -15 -4 -3 -18 -19 21 -21 -20 -5 -24 27 26 -26 -25 -8 -30
right_child=2 3 15 6 5 -7 7 8 11 -11 -12 -13 -14 14 -16 -17 17 18 19 20 -22 -23 23 24 25 -27 -28 -29 29 -31
leaf_value=0.19945541540100167 0.10378526515421659 0.10318881251718098 0.4137181909519636 0.54786759322599898 15.841022347978182 -0.92491131055922748 0.98519640526863261 18.612213904857636 0.39457035769586979 0.020942796718444255 0.46451525659889203 7.733885387813344 1.2529294371059363 -0.28980745375156403 15.434922666549681 0.091070524482015358 0.13042447724153389 0.51782580706140824 0.98221678333207851 2.0300275229025582 17.197892431779341 7.9342420661161031 0.79333560157875682 1.3973457043658042 4.3909184286991758 -0.082888472742504549 24.729838653044268 9.0448925781249994 4.3571678437579138 0.88160476988069036
leaf_weight=88361 337122 9054 44568 21467 21 21 1625 30 115 439220 15268 34 4077 32 20 16980 5101 10959 3435 69 22 31 1149 409 30 45 22 20 312 381
leaf_count=88361 337122 9054 44568 21467 21 21 1625 30 115 439220 15268 34 4077 32 20 16980 5101 10959 3435 69 22 31 1149 409 30 45 22 20 312 381
internal_value=0 1.80526 0.417648 3.02608 2.04193 37.2903 3.97535 8.33594 24.2093 0.323891 0.597073 10.3466 3.57609 3.1035 28.7908 1.62353 1.99029 2.67076 3.38012 5.81712 28.4849 5.22198 3.04578 6.97316 13.5406 34.642 64.9792 8.76937 7.11016 12.2318
internal_weight=0 146842 853158 58481 28713 42 29768 2497 179 791610 352390 149 27271 23194 52 61548 28671 19617 14516 3557 91 3466 23142 1675 526 97 52 429 2318 693
internal_count=1000000 146842 853158 58481 28713 42 29768 2497 179 791610 352390 149 27271 23194 52 61548 28671 19617 14516 3557 91 3466 23142 1675 526 97 52 429 2318 693
shrinkage=0.2


Tree=11
num_leaves=31
num_cat=0
split_feature=140 137 133 141 138 113 63 103 39 65 84 16 19 38 31 30 30 118 81 140 72 48 87 33 63 127 141 33 87 112
split_gain=163211 150466 54156.8 59090.8 45571.8 53749.7 63395.3 167295 245403 50082.2 62518.1 39588.1 38089.8 36649.2 63783.2 36611.5 35150.2 53226 35012.8 28274.9 28077.6 34787.2 26872.2 71105.3 37420 39944.7 23558.5 23405.8 35553 23045.9
threshold=0.82254400000000016 1.5613850000000002 1.7814150000000002 0.91356950000000003 86135.250000000015 23.500000000000004 41.500000000000007 39.500000000000007 5.5000000000000009 9.5000000000000018 32.500000000000007 44.500000000000007 6.5000000000000009 72.500000000000014 24.500000000000004 30.500000000000004 121.50000000000001 24.500000000000004 102.50000000000001 0.7188205000000002 124.50000000000001 120.50000000000001 65.500000000000014 1.0000000180025095e-35 16.500000000000004 13.500000000000002 1.0981750000000001 89.500000000000014 28.500000000000004 127.50000000000001
decision_type=2 2 2 2 2 2 2 2 2 2 2 2 2 2 2 2 2 2 2 2 2 2 2 2 2 2 2 2 2 2
left_child=19 4 3 20 12 18 13 9 -9 10 -8 -5 -2 22 -15 -10 26 -18 -6 -1 21 -3 27 -24 -25 -26 -13 -7 -29 -14
right_child=1 2 -4 11 5 6 7 8 15 -11 -12 16 29 14 -16 -17 17 -19 -20 -21 -22 -23 23 24 25 -27 -28 28 -30 -31
leaf_value=-0.022046702278269131 0.70812455556022758 0.0068449492233545713 0.077292590617167936 0.28378916190808862 0.36005987982640714 0.24138113078951512 2.4711350775862999 30.680197515270926 -0.056295541286468513 0.23196918239419381 12.788833483527689 0.59169195161979793 0.30212119623853173 1.2852581153453237 11.352677179605534 10.663019253657415 2.0743766292929648 12.980886161869222 7.4961354017257698 0.067520765603433827 0.3431014366660014 0.26757744803115135 14.242838214692615 -1.1969046390975515 -1.1109676111312141 10.047118640668465 1.6737067521142448 9.4731415254729132 -1.0170951088269553 1.4316018784224416
leaf_weight=216213 18073 53333 172384 27798 1547 738 76 22 25 178 34 16568 26313 71 39 26 96 22 28 405173 26235 33217 21 75 21 33 846 28 24 743
leaf_count=216213 18073 53333 172384 27798 1547 738 76 22 25 178 34 16568 26313 71 39 26 96 22 28 405173 26235 33217 21 75 21 33 846 28 24 743
internal_value=0 1.01468 0.774148 1.19682 2.66689 6.45037 10.9329 22.3644 65.123 11.5263 28.3012 2.16111 2.41655 7.00258 24.2731 27.0423 3.33785 20.539 2.43462 0.181778 0.809259 0.534557 4.98156 17.2519 8.46732 28.5393 3.22129 2.65175 23.1575 1.66569
internal_weight=0 378614 330499 158115 48115 2986 1411 361 73 288 110 45330 45129 1050 110 51 17532 118 1575 621386 112785 86550 940 150 129 54 17414 790 52 27056
internal_count=1000000 378614 330499 158115 48115 2986 1411 361 73 288 110 45330 45129 1050 110 51 17532 118 1575 621386 112785 86550 940 150 129 54 17414 790 52 27056
shrinkage=0.2


Tree=12
num_leaves=31
num_cat=0
split_feature=140 135 136 128 141 111 96 110 26 64 141 120 43 59 125 140 85 49 54 130 1 91 8 61 69 77 121 139 114 51
split_gain=119562 75872.6 44310 34630.8 34437.1 45315.8 61369.5 47162.5 33633.5 42179.3 31425.8 38943.9 37846.5 73173.5 31208.3 29691.2 26406.1 26288.7 25422.4 25331.8 30898.1 22658.3 22549.2 22440.5 34489.9 21711.9 33791.6 21524 66564.3 57743.9
threshold=0.89654500000000004 1.5088750000000004 1.6311650000000002 1.9417850000000001 0.77810450000000009 129.50000000000003 37.500000000000007 133.50000000000003 11.500000000000002 131.50000000000003 1.0316700000000003 114.50000000000001 2.5000000000000004 13.500000000000002 127.50000000000001 0.76311750000000023 1.0000000180025095e-35 131.50000000000003 30.500000000000004 1.4574950000000002 27.500000000000004 38.500000000000007 15.500000000000002 126.50000000000001 17.500000000000004 15.500000000000002 122.50000000000001 100207.00000000001 36.500000000000007 18.500000000000004
decision_type=2 2 2 2 2 2 2 2 2 2 2 2 2 2 2 2 2 2 2 2 2 2 2 2 2 2 2 2 2 2
left_child=1 4 10 15 -1 7 -7 8 9 14 18 12 13 -12 17 -3 -14 -6 27 -18 -21 -19 -17 25 -25 26 -10 -2 -29 -30
right_child=2 3 -4 -5 5 6 -8 -9 23 -11 11 -13 16 -15 -16 22 19 21 -20 20 -22 -23 -24 24 -26 -27 -28 28 29 -31
leaf_value=0.12520092209082934 0.65716141948860607 0.008128250300138402 0.23740088672062587 -0.046658879370698951 0.52488633051669875 1.7283770559186284 11.679664504528047 9.0742256774902348 0.39103207834770537 9.1152389386425856 13.839050796627999 9.4986049075921368 7.1926665386983331 1.1140931585255791 8.0739136760885071 0.021418403346398242 0.77715095687372926 1.7272803823463621 0.18996976745502347 1.3113988053798675 10.167673093539019 10.308622757196426 0.11946832955545572 0.62086274087909732 8.9769231582510063 -0.079247469178834046 8.6253679597377779 0.57031143044496513 2.7549903901219368 13.346876752717154
leaf_weight=36023 11100 257568 44692 137616 19419 110 32 25 6116 23 28 24 28 51 22 129283 1217 32 5823 40 26 20 342030 62 29 8225 20 231 50 35
leaf_count=36023 11100 257568 44692 137616 19419 110 32 25 6116 23 28 24 28 51 22 129283 1217 32 5823 40 26 20 342030 62 29 8225 20 231 50 35
internal_value=0 0.30778 1.72733 0.226795 1.308 2.02773 19.8546 1.95326 1.9213 2.77759 3.02193 7.55404 6.86444 28.121 2.72709 0.313661 5.58353 2.68456 2.65019 4.92053 24.0012 25.139 0.462864 0.764971 16.4189 0.665779 2.08936 3.51749 11.6556 35.5818
internal_weight=0 936655 63345 866497 70158 34135 142 33993 33968 19516 18653 1414 1390 79 19493 728881 1311 19471 17239 1283 66 52 471313 14452 91 14361 6136 11416 316 85
internal_count=1000000 936655 63345 866497 70158 34135 142 33993 33968 19516 18653 1414 1390 79 19493 728881 1311 19471 17239 1283 66 52 471313 14452 91 14361 6136 11416 316 85
shrinkage=0.2


Tree=13
num_leaves=31
num_cat=0
split_feature=131 141 112 110 132 127 16 51 12 107 134 75 141 29 72 80 113 103 106 74 6 43 21 141 137 22 45 118 11 140
split_gain=88902.7 82514.4 39962.4 70205.4 46472.4 81476.1 126068 36156.8 34865.2 32310.8 32277.4 35551.6 29279.8 42810.5 27674.1 38323.7 24065.7 41534.8 24425.1 23824.7 24460.6 53825 22076.3 22056.6 42750.1 22729.9 29123 48072.8 22018.6 55256.2
threshold=1.5823250000000002 0.88123950000000006 38.500000000000007 133.50000000000003 1.2720500000000003 26.500000000000004 55.500000000000007 64.500000000000014 26.500000000000004 5.5000000000000009 1.3167900000000001 119.50000000000001 1.1227000000000003 21.500000000000004 123.50000000000001 120.50000000000001 25.500000000000004 9.5000000000000018 48.500000000000007 16.500000000000004 113.50000000000001 21.500000000000004 130.50000000000003 1.0525100000000003 1.4281950000000003 2.5000000000000004 17.500000000000004 26.500000000000004 2.5000000000000004 0.90874600000000016
decision_type=2 2 2 2 2 2 2 2 2 2 2 2 2 2 2 2 2 2 2 2 2 2 2 2 2 2 2 2 2 2
left_child=1 10 22 4 5 7 8 16 -7 12 11 28 -6 -14 15 -12 17 -4 -18 20 -11 -22 23 -3 -25 26 27 -26 29 -1
right_child=-2 2 3 -5 9 6 -8 -9 -10 19 14 -13 13 -15 -16 -17 18 -19 -20 -21 21 -23 -24 24 25 -27 -28 -29 -30 -31
leaf_value=1.241352433555579 0.023078196999954535 0.16977494699900378 -2.7379348581487482 11.828377204727044 0.79618595018031291 -0.38681349870635245 19.682344322938189 8.8404225701093679 8.5854677661259977 0.55424069610807591 -0.0090108115665197813 9.1240194237232206 0.0077553018279697588 12.497618475414459 0.21554482886750478 0.17710400911981503 -2.5468344500084887 8.9689359598689613 4.8514177413213826 0.13786284856047121 12.493084669113159 0.81789273268410145 5.0308094186022103 9.8595206623985661 0.92096562277187 0.58907091489039276 1.0966738948837305 14.142548076672988 0.39017092453353297 9.3807571368558076
leaf_weight=713 683770 32508 22 22 8473 41 26 20 30 9238 125648 20 23 21 56550 68318 119 27 21 9849 22 56 38 21 22 1660 78 22 2587 35
leaf_count=713 683770 32508 22 22 8473 41 26 20 30 9238 125648 20 23 21 56550 68318 119 27 21 9849 22 56 38 21 22 1660 78 22 2587 35
internal_value=0 0.756602 1.78727 2.67377 2.62938 14.8854 38.8374 3.76894 17.0215 2.4939 0.503435 3.5846 4.11454 29.8441 0.462171 0.282709 -0.509704 18.5639 -7.18548 1.77369 2.9201 20.5545 1.06438 1.0377 4.44217 3.91357 17.0876 37.6588 3.33251 8.11103
internal_weight=0 316230 62359 28010 27988 306 97 209 71 27682 253871 3355 8517 44 250516 193966 189 49 140 19165 9316 78 34349 34311 1803 1782 122 44 3335 748
internal_count=1000000 316230 62359 28010 27988 306 97 209 71 27682 253871 3355 8517 44 250516 193966 189 49 140 19165 9316 78 34349 34311 1803 1782 122 44 3335 748
shrinkage=0.2


Tree=14
num_leaves=31
num_cat=0
split_feature=141 132 19 8 40 141 1 48 7 92 26 80 46 22 32 104 132 123 141 134 75 82 111 112 81 40 102 94 56 38
split_gain=69751.4 61861 44137.7 30567.3 29942.1 23569.5 65658.2 24654.7 25224.1 39660.2 23566.6 23156.7 36309.3 25428.3 23052 39748.9 23141.8 65497.6 32923.2 22919.4 51370.3 38650.8 28268.4 25539.9 65928.5 26418.4 33970.3 22603.5 26100.7 35479.1
threshold=0.77448550000000016 1.5666750000000003 4.5000000000000009 51.500000000000007 120.50000000000001 1.0525100000000003 51.500000000000007 131.50000000000003 93.500000000000014 33.500000000000007 16.500000000000004 115.50000000000001 9.5000000000000018 11.500000000000002 132.50000000000003 65.500000000000014 1.3112150000000002 111.50000000000001 0.95937950000000016 1.3418650000000003 115.50000000000001 113.50000000000001 116.50000000000001 108.50000000000001 18.500000000000004 83.500000000000014 21.500000000000004 108.50000000000001 44.500000000000007 83.500000000000014
decision_type=2 2 2 2 2 2 2 2 2 2 2 2 2 2 2 2 2 2 2 2 2 2 2 2 2 2 2 2 2 2
left_child=-1 2 3 5 10 7 11 -2 -9 -10 19 13 -13 -7 16 -16 17 18 -5 20 21 22 23 27 -25 -26 -27 28 -4 -30
right_child=1 -3 4 14 -6 6 -8 8 9 -11 -12 12 -14 -15 15 -17 -18 -19 -20 -21 -22 -23 -24 24 25 26 -28 -29 29 -31
leaf_value=0.0078844700859278423 0.20470476195831094 0.06313863907070498 -0.46227803867322348 1.1097718250430233 0.40676015273152077 5.6800887035286953 10.506677616003788 0.78918300589957802 10.919408287525178 -0.7238677637143569 -0.053174230232962028 9.5452590418713434 0.58154115560008035 -1.5301414666398792 11.578034593377796 0.30856281951550518 0.582303612123518 11.485411103566488 9.3719065189361572 0.15741471467245133 10.979969706535341 8.9274762609730605 6.7568897835413608 12.311292566299439 -0.12718906999373483 11.600809414386751 -0.056000638008117679 5.904252355439322 0.87527771982378322 7.5669879793682533
leaf_weight=601190 24048 275752 927 545 14999 23 33 2310 25 22 26429 28 51 131 21 31 12463 27 20 40132 20 23 30 25 126 20 20 28 467 34
leaf_count=601190 24048 275752 927 545 14999 23 33 2310 25 22 26429 28 51 131 21 31 12463 27 20 40132 20 23 30 25 126 20 20 28 467 34
internal_value=0 0.578793 1.16836 2.03492 0.754451 1.42039 10.7865 1.32604 4.41254 27.3468 0.473421 4.87381 18.7928 -2.26644 3.28539 24.2985 3.20169 9.31056 7.01118 0.940275 4.51486 3.92209 3.36368 2.80957 13.682 6.472 28.862 1.38331 0.831585 6.64703
internal_weight=0 398810 123058 39778 83280 26671 266 26405 2357 47 68281 233 79 154 13107 52 13055 592 565 41852 1720 1700 1677 1647 191 166 40 1456 1428 501
internal_count=1000000 398810 123058 39778 83280 26671 266 26405 2357 47 68281 233 79 154 13107 52 13055 592 565 41852 1720 1700 1677 1647 191 166 40 1456 1428 501
shrinkage=0.2


Tree=15
num_leaves=31
num_cat=0
split_feature=140 137 141 110 111 60 67 114 56 29 123 109 109 124 35 30 58 128 50 141 130 48 40 125 112 121 11 107 39 19
split_gain=55786.8 40216.8 25930.4 117022 42139.3 103919 35271.5 43439.5 58957.2 93334 39811.7 68704.6 28711 46902.4 28709.5 41772.2 22254.6 21513.7 21293.8 24451.5 27238.8 28020.3 30603.5 25256.4 20487.2 20664.7 38523.3 19566.9 26791.3 18768.1
threshold=0.90299750000000001 1.4727150000000002 0.91950950000000009 116.50000000000001 104.50000000000001 50.500000000000007 31.500000000000004 52.500000000000007 50.500000000000007 26.500000000000004 65.500000000000014 31.500000000000004 33.500000000000007 10.500000000000002 50.500000000000007 2.5000000000000004 31.500000000000004 1.179775 36.500000000000007 0.80982450000000006 1.6667350000000003 122.50000000000001 119.50000000000001 132.50000000000003 49.500000000000007 125.50000000000001 1.0000000180025095e-35 3.5000000000000004 118.50000000000001 93.500000000000014
decision_type=2 2 2 2 2 2 2 2 2 2 2 2 2 2 2 2 2 2 2 2 2 2 2 2 2 2 2 2 2 2
left_child=1 2 24 4 6 16 7 10 12 -10 14 -12 -9 -14 29 -16 -6 -17 19 -3 21 22 -21 -24 25 -1 -27 28 -26 -4
right_child=-2 18 3 -5 5 -7 -8 8 9 -11 11 -13 13 -15 15 17 -18 -19 -20 20 -22 -23 23 -25 27 26 -28 -29 -30 -31
leaf_value=0.056179995655917331 0.25126287611088122 0.013590965970792446 -0.62974357965573491 16.209881695508958 -1.486176253673507 17.79461515426636 -0.57429877100955873 0.24280588662082503 1.5857474247614542 19.620568827607414 0.90073523120406807 12.261439771036947 -0.19269239814193162 11.390834566642498 9.618350165230888 -0.53170156025368243 6.6514567756652845 5.2352672874927526 -0.049384237801304076 0.029331693727619991 0.016426750897234242 0.34446543642868077 0.27023030192377034 6.0762439891695976 0.7797475399028424 10.541164023535593 0.94066809612076474 0.24844275418879558 6.3431013056210119 5.3191814400933008
leaf_weight=16174 47929 564369 593 20 41 20 630 110 24 22 68 31 27 29 28 92 20 36 138548 64010 102145 25205 29249 30 3225 21 82 7165 35 22
leaf_count=16174 47929 564369 593 20 41 20 630 110 24 22 68 31 27 29 28 92 20 36 138548 64010 102145 25205 29249 30 3225 21 82 7165 35 22
internal_value=0 0.150629 1.3203 4.97996 4.13144 26.419 3.07695 6.54046 19.3762 51.0555 3.41268 22.2906 10.5976 29.0296 0.988657 13.1047 5.9095 5.45129 0.114515 0.178306 0.46057 0.786792 0.534027 1.3809 1.07182 0.370816 14.4903 2.16632 4.19738 -2.08468
internal_weight=0 952071 28515 1813 1793 81 1712 1082 212 46 870 99 166 56 771 156 61 128 923556 785008 220639 118494 93289 29279 26702 16277 103 10425 3260 615
internal_count=1000000 952071 28515 1813 1793 81 1712 1082 212 46 870 99 166 56 771 156 61 128 923556 785008 220639 118494 93289 29279 26702 16277 103 10425 3260 615
shrinkage=0.2


Tree=16
num_leaves=31
num_cat=0
split_feature=138 56 141 21 22 80 10 32 100 7 88 65 110 60 125 57 7 29 11 128 104 141 85 12 141 49 54 81 103 56
split_gain=41498.1 47659.9 31658.9 43002.5 31423.5 60266.1 44345.2 54992.1 38401.8 85566.2 34984.4 34735.7 93818.1 42979.3 31163 80081.7 28670.5 28126.2 26805.3 23574.5 31703.3 31915.5 23313.8 31295.1 23205.9 67699.3 31602.5 22942.3 60746 25075
threshold=75758.500000000015 29.500000000000004 0.94689699999999999 117.50000000000001 28.500000000000004 127.50000000000001 13.500000000000002 99.500000000000014 92.500000000000014 47.500000000000007 46.500000000000007 49.500000000000007 43.500000000000007 87.500000000000014 1.5000000000000002 56.500000000000007 115.50000000000001 38.500000000000007 11.500000000000002 1.8377700000000001 27.500000000000004 0.93952350000000007 120.50000000000001 6.5000000000000009 1.0801950000000005 105.50000000000001 98.500000000000014 116.50000000000001 50.500000000000007 76.500000000000014
decision_type=2 2 2 2 2 2 2 2 2 2 2 2 2 2 2 2 2 2 2 2 2 2 2 2 2 2 2 2 2 2
left_child=19 18 27 4 8 6 -6 11 16 10 -10 13 17 14 15 -8 -4 -13 22 20 -1 -22 24 -24 -2 26 -26 -3 29 -29
right_child=1 2 3 -5 5 -7 7 -9 9 -11 -12 12 -14 -15 -16 -17 -18 -19 -20 -21 21 -23 23 -25 25 -27 -28 28 -30 -31
leaf_value=-0.0099529607703265129 0.24230645686762908 0.30611937383885146 0.37412889752348188 9.8942895369096249 0.18843443599499521 9.6055305049969615 1.4445365223539881 11.900224116325379 -1.0950263848213051 16.030680432319642 6.4819350065329138 -0.16840474665164951 16.63104944328467 8.5289668756372787 0.32559464777812402 15.269515690349397 7.9789669990539558 7.814476900834304 -0.16856447503741398 -0.041383963685058561 0.056297324607432676 0.23970856589836598 -0.29495918637230284 10.759455448389055 0.5322399313118974 11.77908999002897 8.7791404581069941 -0.16325008736716376 12.808923306351616 7.6008484101295473
leaf_weight=309475 7191 7035 2328 22 496 39 83 25 65 20 39 55 24 34 377 21 20 26 9109 172273 449302 41451 21 20 263 26 20 99 21 20
leaf_count=309475 7191 7035 2328 22 496 39 83 25 65 20 39 55 24 34 377 21 20 26 9109 172273 449302 41451 21 20 263 26 20 99 21 20
internal_value=0 1.37434 3.00525 5.39248 5.12694 9.3726 8.05135 13.5183 3.10029 20.2513 8.73167 11.6641 28.2409 8.28437 5.85557 21.1806 2.19453 11.97 0.311647 0.128643 0.200883 0.358945 1.70617 25.4872 1.57616 10.0618 5.5753 1.78285 14.4587 5.7082
internal_weight=0 27499 10849 3674 3652 1180 1141 645 2472 124 104 620 105 515 481 104 2348 81 16650 972501 800228 490753 7541 41 7500 309 283 7175 140 119
internal_count=1000000 27499 10849 3674 3652 1180 1141 645 2472 124 104 620 105 515 481 104 2348 81 16650 972501 800228 490753 7541 41 7500 309 283 7175 140 119
shrinkage=0.2


Tree=17
num_leaves=31
num_cat=0
split_feature=132 18 141 128 96 24 123 110 91 135 82 95 113 99 85 56 114 92 9 140 132 22 76 107 61 141 133 16 83 126
split_gain=33328.7 23856 26780.2 40283.4 38074 35369.5 60287.3 33581.8 31693.9 27176.7 89437.7 41759.1 42720.8 33562.9 26172.1 29159.5 36782.9 45197.2 58424.1 23890.3 41412.2 33943 81562.9 21173.9 21044.4 20715.9 21879.7 22319.8 20553.2 19747.3
threshold=1.4581450000000002 29.500000000000004 0.82666600000000023 1.2036750000000003 129.50000000000003 125.50000000000001 12.500000000000002 127.50000000000001 132.50000000000003 1.3347350000000002 113.50000000000001 94.500000000000014 21.500000000000004 50.500000000000007 1.0000000180025095e-35 45.500000000000007 70.500000000000014 69.500000000000014 23.500000000000004 0.93191100000000004 1.4543550000000003 63.500000000000007 38.500000000000007 124.50000000000001 67.500000000000014 0.98336450000000009 2.0982000000000007 44.500000000000007 51.500000000000007 30.500000000000004
decision_type=2 2 2 2 2 2 2 2 2 2 2 2 2 2 2 2 2 2 2 2 2 2 2 2 2 2 2 2 2 2
left_child=1 2 -1 7 5 19 -7 8 9 10 11 13 -13 14 -4 -16 17 24 -19 23 21 -21 -23 28 -17 -2 27 -27 -5 -11
right_child=25 -3 3 4 -6 6 -8 -9 -10 29 -12 12 -14 -15 15 16 -18 18 -20 20 -22 22 -24 -25 -26 26 -28 -29 -30 -31
leaf_value=0.10185902484239465 0.0049878365524693375 -0.034630218732265003 6.7023142622363183 0.70155307585033555 8.5987970811625321 -0.47888125078036237 13.746553046594967 6.4297450134859364 6.6329753867785133 0.17557101396325525 13.449485535207003 13.645632066726685 1.6303606214194464 -2.5369503530544968 0.002156824913740574 -0.82431244952338079 9.4332071082932618 13.050495897606016 -0.9046843325807935 0.70552029162138508 9.4241585920596957 0.29677562015397213 16.30741233468056 6.6052043085512908 5.2740095774332687 0.096709938401585718 -0.032687183556105434 0.41324766579177902 0.070326789662947017 -0.37119941938455936
leaf_weight=56285 829541 26949 31 7602 24 26 22 34 30 12791 23 20 29 123 573 140 28 28 21 294 29 35 20 23 27 22880 21616 14594 2832 3330
leaf_count=56285 829541 26949 31 7602 24 26 22 34 30 12791 23 20 29 123 573 140 28 28 21 294 29 35 20 23 27 22880 21616 14594 2832 3330
internal_value=0 0.646008 0.907504 1.70413 3.20798 3.12024 30.2055 0.752052 0.689967 0.633206 5.58022 4.18968 32.6728 2.75233 4.99144 3.90928 13.0643 8.64375 35.3485 3.00025 10.8103 7.7931 30.5941 2.71794 0.808219 0.0656893 0.637764 1.09992 2.65113 0.313143
internal_weight=0 111369 84420 28135 10907 10883 48 17228 17194 17164 1043 1020 49 971 848 817 244 216 49 10835 378 349 55 10457 167 888631 59090 37474 10434 16121
internal_count=1000000 111369 84420 28135 10907 10883 48 17228 17194 17164 1043 1020 49 971 848 817 244 216 49 10835 378 349 55 10457 167 888631 59090 37474 10434 16121
shrinkage=0.2


Tree=18
num_leaves=31
num_cat=0
split_feature=140 16 40 131 141 78 72 1 57 112 132 129 89 73 127 68 55 48 141 133 119 77 128 115 125 114 140 19 138 65
split_gain=27856.1 22143.4 33086.2 30915.3 23977.5 56676 126706 26188.9 36000 21605.2 23717.6 25605.1 47191.1 21412.9 41999.5 21153.9 40935.9 21096.7 18307.2 28199.7 65527.8 76661.3 43159.1 27377.9 18682.5 18015.3 17930.6 16448.8 19914.4 71716.3
threshold=0.92253550000000006 29.500000000000004 115.50000000000001 1.6048250000000002 1.0981750000000001 73.500000000000014 56.500000000000007 35.500000000000007 13.500000000000002 37.500000000000007 1.3112150000000002 1.2260800000000003 5.5000000000000009 78.500000000000014 82.500000000000014 64.500000000000014 39.500000000000007 111.50000000000001 1.0316700000000003 1.4472950000000002 11.500000000000002 14.500000000000002 1.2225150000000002 19.500000000000004 6.5000000000000009 12.500000000000002 0.79647250000000014 11.500000000000002 86135.250000000015 2.5000000000000004
decision_type=2 2 2 2 2 2 2 2 2 2 2 2 2 2 2 2 2 2 2 2 2 2 2 2 2 2 2 2 2 2
left_child=1 2 17 4 9 7 -7 -6 -9 -3 11 13 -13 -11 15 -15 -17 -1 -2 20 21 -20 24 -23 -22 -14 -12 28 -28 -30
right_child=18 3 -4 -5 5 6 -8 8 -10 10 26 12 25 14 -16 16 -18 -19 19 -21 22 23 -24 -25 -26 -27 27 -29 29 -31
leaf_value=-0.13368263609158387 0.16526527607760966 0.031251382934921017 0.043393454514552336 0.010494839091368557 -0.41967174510493327 1.6598451985915503 19.710206485929945 8.8398409299552441 0.85853604558226349 0.41171947109009288 0.041691923375901475 12.352256882758368 -1.6283602518641525 0.70625085560667433 9.9195060358047495 0.26073736786842344 9.8579069972038269 -0.0037523603348492912 18.593538951873779 0.53424087212219562 3.2872362468031144 8.7859153175354017 7.378541324984643 -1.5535418811298554 -2.3821536622060244 5.1123875948889506 0.2833878504375959 0.061947908624030872 12.617430780579646 0.65746949051247272
leaf_weight=113378 12494 85357 169161 427983 299 60 21 32 77 2773 36896 21 35 298 25 40 32 89403 20 3486 31 20 31 21 93 29 39652 18086 24 122
leaf_count=113378 12494 85357 169161 427983 299 60 21 32 77 2773 36896 21 35 298 25 40 32 89403 20 3486 31 20 31 21 93 29 39652 18086 24 122
internal_value=0 0.0828405 -0.109582 0.199812 0.542743 7.53584 31.6978 2.73897 16.0084 0.524096 0.844373 3.49938 20.6273 3.03982 9.92826 7.24791 22.6307 -0.381992 1.40505 3.35822 14.4459 42.2102 3.51932 17.4505 -4.82403 7.13021 0.753249 1.1005 1.45986 13.1175
internal_weight=0 983804 371942 611862 183879 489 81 408 109 183390 98033 3253 85 3168 395 370 72 202781 16196 3702 216 61 155 41 124 64 94780 57884 39798 146
internal_count=1000000 983804 371942 611862 183879 489 81 408 109 183390 98033 3253 85 3168 395 370 72 202781 16196 3702 216 61 155 41 124 64 94780 57884 39798 146
shrinkage=0.2


Tree=19
num_leaves=31
num_cat=0
split_feature=137 128 110 9 114 141 71 105 4 66 140 125 68 4 10 121 109 24 40 112 128 73 72 49 122 90 64 141 117 48
split_gain=21079.1 27166.4 62721 22786.4 31192.2 96066.1 35234.7 19876.7 49000 37445.1 19556.1 20859.8 30129.5 32884.4 27476 36052 62889.6 19348.4 18537.1 27073.8 27546.3 17904.8 17701.1 17695.7 17525.3 17483.5 17415.6 31456.4 73607.9 17314.7
threshold=1.4727150000000002 1.1639450000000002 127.50000000000001 67.500000000000014 52.500000000000007 0.92918000000000012 53.500000000000007 54.500000000000007 1.0000000180025095e-35 7.5000000000000009 0.89379800000000009 2.5000000000000004 108.50000000000001 13.500000000000002 79.500000000000014 36.500000000000007 42.500000000000007 45.500000000000007 113.50000000000001 23.500000000000004 1.1825550000000002 76.500000000000014 120.50000000000001 110.50000000000001 103.50000000000001 5.5000000000000009 74.500000000000014 0.85019250000000013 7.5000000000000009 9.5000000000000018
decision_type=2 2 2 2 2 2 2 2 2 2 2 2 2 2 2 2 2 2 2 2 2 2 2 2 2 2 2 2 2 2
left_child=1 21 3 10 7 6 -6 26 9 -9 -3 14 23 -14 15 22 17 -17 -10 -20 -21 -1 -12 24 29 -23 -5 -28 -29 -13
right_child=-2 2 -4 4 5 -7 -8 8 18 -11 11 12 13 -15 -16 16 -18 -19 19 20 -22 25 -24 -25 -26 -27 27 28 -30 -31
leaf_value=-0.017839205821777622 0.011415542516158459 0.15476214451291015 9.4504033603975852 0.046398050165785257 0.5076082965502372 12.411274341533058 7.3993322298356468 14.879523406028747 -0.46637608197109759 2.641042851805687 -0.66829452738165862 5.5186347138314025 11.583809345960617 1.1818745830847373 9.469381950015114 0.54479747772697473 14.123992481439011 7.6987857526540751 -1.1682304243887625 11.030129727482796 1.5441118602951369 1.1219424740339956 5.0911675891876227 4.579960792263349 5.0465950091679899 0.17601508042828964 0.054492730398972837 15.124586330760611 -0.0018937687720021895 -0.30805354108851329
leaf_weight=19072 968167 6310 31 930 195 38 35 20 121 20 146 21 20 31 21 62 23 20 31 25 24 1122 25 36 27 2576 84 22 31 714
leaf_count=19072 968167 6310 31 930 195 38 35 20 121 20 146 21 20 31 21 62 23 20 31 25 24 1122 25 36 27 2576 84 22 31 714
internal_value=0 0.884091 2.34837 2.19425 5.64903 15.4774 7.78174 3.63527 11.8377 43.8014 1.464 5.26423 2.74082 26.3053 12.4776 9.82451 24.4098 11.4484 5.47675 17.2873 31.9196 0.301275 0.86866 1.23482 0.211281 2.31508 1.78261 12.3087 31.3851 -0.707884
internal_weight=0 31833 9063 9032 1576 268 230 1308 241 40 7456 1146 849 51 297 276 105 82 201 80 49 22770 171 798 762 3698 1067 137 53 735
internal_count=1000000 31833 9063 9032 1576 268 230 1308 241 40 7456 1146 849 51 297 276 105 82 201 80 49 22770 171 798 762 3698 1067 137 53 735
shrinkage=0.2


Tree=20
num_leaves=31
num_cat=0
split_feature=86 141 129 98 135 125 57 128 51 23 132 82 119 103 141 17 36 141 92 5 69 93 74 51 82 47 114 109 32 23
split_gain=19943.4 25201.3 26667.2 35515.7 29995.8 46142.5 33278.9 32611.2 21770.7 20486.4 19125.4 94879.4 89989.1 31110.2 18405.4 17164.9 20383 16611.7 56495.1 22022.9 17708.2 15814.6 15472.2 23355.4 30059.8 25234.8 17857.6 39205 18416 18169
threshold=30.500000000000004 0.78867750000000014 1.6115350000000002 6.5000000000000009 1.4563650000000004 120.50000000000001 123.50000000000001 1.2585050000000002 13.500000000000002 117.50000000000001 1.2720500000000003 114.50000000000001 110.50000000000001 79.500000000000014 1.0231400000000002 1.5000000000000002 19.500000000000004 0.99479650000000019 84.500000000000014 48.500000000000007 128.50000000000003 112.50000000000001 38.500000000000007 68.500000000000014 66.500000000000014 112.50000000000001 106.50000000000001 51.500000000000007 59.500000000000007 49.500000000000007
decision_type=2 2 2 2 2 2 2 2 2 2 2 2 2 2 2 2 2 2 2 2 2 2 2 2 2 2 2 2 2 2
left_child=1 -1 3 4 5 6 7 17 9 -5 11 12 13 15 -6 16 -10 20 19 -19 22 -11 23 26 25 -25 29 28 -28 -3
right_child=-2 2 -4 8 14 -7 -8 -9 10 21 -12 -13 -14 -15 -16 -17 -18 18 -20 -21 -22 -23 -24 24 -26 -27 27 -29 -30 -31
leaf_value=0.00092391038081811284 -0.046406078309284268 0.15036978166974646 -0.0023001725114754428 0.10851886941090534 0.15823147714015606 8.5716868762312259 6.6426042629612825 7.2388981969192123 -1.6053606470425923 0.64018243723853785 -0.065211716028314312 14.663123817443847 13.427197751544771 6.5177747470991951 0.61824100304079332 -0.82978728002751889 6.0072462635881765 0.27922293297410794 11.64565853243289 7.3363691520690928 5.0869870987805461 5.0473692034230098 -0.25385612239922162 1.0944624716858911 7.791219614183202 8.4264075553417204 -0.23124601390800981 8.9601828098297123 6.3133780743394583 0.95983706457694284
leaf_weight=531257 182637 3508 110718 36438 75585 29 36 29 24 2490 49644 20 21 28 3647 391 34 153 23 20 33 33 1072 307 34 20 95 31 21 1622
leaf_count=531257 182637 3508 110718 36438 75585 29 36 29 24 2490 49644 20 21 28 3647 391 34 153 23 20 33 33 1072 307 34 20 95 31 21 1622
internal_value=0 0.133479 0.372751 0.61532 1.07271 3.05192 2.88711 2.73043 0.172596 0.733404 -0.262985 5.78187 3.06968 0.249147 0.897027 -1.76758 14.286 2.59057 11.6658 5.47539 2.32678 3.48913 2.21313 2.87528 10.6569 7.7145 2.34293 13.2101 4.76778 2.03153
internal_weight=0 817363 286106 175388 86265 7033 7004 6968 89123 38961 50162 518 498 477 79232 449 58 6939 196 173 6743 2523 6710 5638 361 327 5277 147 116 5130
internal_count=1000000 817363 286106 175388 86265 7033 7004 6968 89123 38961 50162 518 498 477 79232 449 58 6939 196 173 6743 2523 6710 5638 361 327 5277 147 116 5130
shrinkage=0.2


Tree=21
num_leaves=31
num_cat=0
split_feature=8 48 133 104 138 91 107 35 140 58 7 32 31 127 126 91 123 87 103 138 127 40 112 71 111 82 33 138 47 49
split_gain=20038.2 28661.8 25966.7 25582.5 23696.4 63317.6 32083.9 42829.9 78530.5 44860.6 38519.8 57554.7 36806.6 71895.4 29760.7 26275.9 24785.8 46977.5 24678.2 22315 27767.1 21781.1 21181 20988 27009.4 20262.1 49882.8 20259.4 18796 26044.7
threshold=45.500000000000007 113.50000000000001 1.5639850000000002 28.500000000000004 74969.35000000002 125.50000000000001 1.5000000000000002 36.500000000000007 0.93191100000000004 77.500000000000014 108.50000000000001 14.500000000000002 38.500000000000007 4.5000000000000009 118.50000000000001 110.50000000000001 114.50000000000001 13.500000000000002 119.50000000000001 73534.750000000015 136.50000000000003 110.50000000000001 48.500000000000007 3.5000000000000004 122.50000000000001 60.500000000000007 23.500000000000004 59380.850000000013 12.500000000000002 94.500000000000014
decision_type=2 2 2 2 2 2 2 2 2 2 2 2 2 2 2 2 2 2 2 2 2 2 2 2 2 2 2 2 2 2
left_child=1 21 3 -2 -5 6 7 14 9 12 16 -12 -9 -14 15 -6 18 -18 28 -3 22 27 -21 -24 25 -25 -27 -1 -8 -30
right_child=2 19 -4 4 5 -7 10 8 -10 -11 11 -13 13 -15 -16 -17 17 -19 -20 20 -22 -23 23 24 -26 26 -28 -29 29 -31
leaf_value=-0.056023870639494502 0.0019645316311618106 0.019923785598554879 0.019561309674097752 0.19616193422207928 0.22305440043843683 9.5737681648693975 -1.2730586074035743 0.96618110765389797 15.092299473827536 11.829726873040201 13.071989343383095 1.7195240808788101 -1.5604619789123537 14.67580917775631 8.1359428712299895 6.7134400473191196 11.9655916172266 0.95702883899211888 6.2912479362487801 0.10610942819137026 7.1637324353059135 -0.0060024214588347245 -0.065904148934213605 0.97729759681251371 7.7212476234436043 -0.32556817829608919 11.736414214471978 -0.21863408660126621 0.013588814799342444 2.6406133257812519
leaf_weight=73029 29919 237827 429221 42553 618 32 406 223 22 20 22 95 20 24 21 26 20 69 25 4874 24 123363 753 1698 25 32 24 52809 2043 163
leaf_count=73029 29919 237827 429221 42553 618 32 406 223 22 20 22 95 20 24 21 26 20 69 25 4874 24 123363 753 1698 25 32 24 52809 2043 163
internal_value=0 -0.0897554 0.193374 0.730837 1.19573 3.57183 3.20046 8.15372 17.8818 13.468 1.50349 19.2709 10.0462 36.4784 3.63347 2.42544 0.740917 17.1543 0.186957 0.152934 1.8595 -0.328604 1.74945 4.0958 5.96891 5.50373 24.2193 -0.621323 -0.112327 1.03849
internal_weight=0 494458 505542 76321 46402 3849 3817 974 309 287 2843 117 267 44 665 644 2726 89 2637 245257 7430 249201 7406 2532 1779 1754 56 125838 2612 2206
internal_count=1000000 494458 505542 76321 46402 3849 3817 974 309 287 2843 117 267 44 665 644 2726 89 2637 245257 7430 249201 7406 2532 1779 1754 56 125838 2612 2206
shrinkage=0.2


Tree=22
num_leaves=31
num_cat=0
split_feature=6 130 141 72 112 110 141 19 140 9 52 57 62 107 135 108 121 33 94 125 83 73 85 91 141 48 2 101 51 48
split_gain=17062.1 21299.1 18176.5 20379.9 19445.9 25142 114577 16865.2 14460.7 12351.2 49127.3 12650 30619.6 12335.2 11462.4 31526.1 20086 18073.6 31852.4 20497.7 30047.1 39635 17712.9 22481.5 12108.1 17912.7 27002.6 14766 11299.6 20141.6
threshold=7.5000000000000009 1.5393350000000001 0.72989350000000008 119.50000000000001 83.500000000000014 127.50000000000001 0.86945649999999997 6.5000000000000009 0.93191100000000004 65.500000000000014 28.500000000000004 54.500000000000007 19.500000000000004 131.50000000000003 1.4161550000000003 106.50000000000001 117.50000000000001 1.0000000180025095e-35 28.500000000000004 60.500000000000007 54.500000000000007 47.500000000000007 88.500000000000014 22.500000000000004 0.89136650000000006 131.50000000000003 4.5000000000000009 132.50000000000003 51.500000000000007 53.500000000000007
decision_type=2 2 2 2 2 2 2 2 2 2 2 2 2 2 2 2 2 2 2 2 2 2 2 2 2 2 2 2 2 2
left_child=1 2 -1 4 -4 13 -7 8 -2 11 -11 -10 -13 -6 15 16 17 18 -5 22 -21 -22 28 -24 -16 27 -27 -26 -19 -30
right_child=7 -3 3 14 5 6 -8 -9 9 10 -12 12 -14 -15 24 -17 -18 19 -20 20 21 -23 23 -25 25 26 -28 -29 29 -31
leaf_value=0.012340064809607783 0.0068606500064516719 0.0041577952671990118 0.024231133597331329 0.14691866718489549 0.23514988364075917 -0.44521672775348026 16.515964312780472 -0.077700716096097203 0.20254496596482996 0.48857898338317451 8.6708355276971254 0.88306132203848786 8.5306584334373472 4.5944309344658487 0.18207094677052696 8.3062942158092152 6.6853153575550426 -0.22460760764181328 10.521848719716074 0.16133927924292429 12.991402363777162 2.0967743386240567 1.24111217397546 8.9376725292205812 0.44830132806752498 9.5234674464572571 0.47769218285878501 5.419638614604871 2.490615633643336 -0.94451409274881548
leaf_weight=82942 187816 466242 59053 29 18916 66 21 150945 1239 142 37 129 25 26 25024 22 22 1037 20 70 22 34 63 20 5669 22 33 24 180 110
leaf_count=82942 187816 466242 59053 29 18916 66 21 150945 1239 142 37 129 25 26 25024 22 22 1037 20 70 22 34 63 20 5669 22 33 24 180 110
internal_value=0 0.136525 0.415502 0.681109 0.404442 1.28357 18.2443 -0.139153 0.0595833 3.07994 10.8994 2.07514 10.6228 1.20567 1.34784 3.93293 3.4182 3.00168 21.9079 2.39855 14.6188 31.884 1.30652 15.4785 1.21099 2.51981 20.48 2.3463 0.420106 5.93818
internal_weight=0 659667 193425 110483 78082 19029 87 340333 189388 1572 179 1393 154 18942 32401 1629 1607 1585 49 1536 126 56 1410 83 30772 5748 55 5693 1327 290
internal_count=1000000 659667 193425 110483 78082 19029 87 340333 189388 1572 179 1393 154 18942 32401 1629 1607 1585 49 1536 126 56 1410 83 30772 5748 55 5693 1327 290
shrinkage=0.2


Tree=23
num_leaves=31
num_cat=0
split_feature=112 141 132 106 88 105 87 95 30 29 33 72 80 138 132 108 110 101 106 139 59 125 141 38 105 135 36 110 30 18
split_gain=15629.6 23842.1 23628.6 49687.6 61088.8 40474.4 26717.7 40788.7 23076.3 17826.6 21748.9 17776.6 16041.5 14642.8 13384.4 22671.5 49563.5 21062.2 18057.7 18189.4 60419.5 21533.4 16219.5 54553 71884.3 16827.9 39989.3 13850.1 17850.3 38143
threshold=30.500000000000004 0.88367150000000005 1.2720500000000003 58.500000000000007 35.500000000000007 5.5000000000000009 26.500000000000004 20.500000000000004 29.500000000000004 36.500000000000007 30.500000000000004 115.50000000000001 109.50000000000001 60505.750000000007 1.7571950000000005 13.500000000000002 130.50000000000003 132.50000000000003 16.500000000000004 100207.00000000001 4.5000000000000009 58.500000000000007 1.0658200000000002 42.500000000000007 21.500000000000004 1.6097800000000004 24.500000000000004 24.500000000000004 121.50000000000001 2.5000000000000004
decision_type=2 2 2 2 2 2 2 2 2 2 2 2 2 2 2 2 2 2 2 2 2 2 2 2 2 2 2 2 2 2
left_child=11 -2 3 5 -5 -3 7 -7 -8 10 -10 12 13 -1 15 17 27 18 19 22 -21 -22 -4 25 -25 26 -24 -17 -29 -30
right_child=1 2 14 4 -6 6 8 -9 9 -11 -12 -13 -14 -15 -16 16 -18 -19 -20 20 21 -23 23 24 -26 -27 -28 28 29 -31
leaf_value=-0.05690917902577141 0.0097090996863439111 6.9019795368879278 0.42889273877887568 0.59262483119964604 16.224487202167513 -0.20677305436134341 -3.2120218827345663 9.5596427183884849 8.8643593168258672 -2.1748085901141168 -0.24833521409468218 0.022122929797790777 -0.0047333941127838553 -0.20437950788850712 0.038729673306001279 0.16008215172096327 9.5544454555619858 6.6757908662160235 0.12436252512026076 11.280837683655598 -1.395631083570994 5.7248144377832837 11.124425026178361 0.74978927952902663 13.975046545459378 0.23845532211982823 -0.20917742314438026 -0.17173001471705807 10.422620636522771 -0.1111997613175349
leaf_weight=67932 516266 39 11162 20 20 50 107 26 20 32 22 177059 98101 44624 48594 17579 22 21 8932 27 65 23 20 35 31 343 33 8731 20 44
leaf_count=67932 516266 39 11162 20 20 50 107 26 20 32 22 177059 98101 44624 48594 17579 22 21 8932 27 65 23 20 35 31 343 33 8731 20 44
internal_value=0 0.133647 0.591215 8.96243 42.0428 4.49211 -0.0631196 15.6718 -6.67007 6.90743 20.4552 -0.122944 -0.319252 -0.576877 0.561818 0.941763 0.327411 1.72547 1.69331 2.5086 15.0234 2.32697 2.38478 8.19096 34.8083 3.75475 20.3383 0.287834 -0.736677 15.9031
internal_weight=0 612284 96018 336 40 296 257 76 181 74 42 387716 210657 112556 95682 47088 26396 20692 20671 11739 115 88 11624 462 66 396 53 26374 8795 64
internal_count=1000000 612284 96018 336 40 296 257 76 181 74 42 387716 210657 112556 95682 47088 26396 20692 20671 11739 115 88 11624 462 66 396 53 26374 8795 64
shrinkage=0.2


Tree=24
num_leaves=31
num_cat=0
split_feature=126 141 129 141 107 26 125 138 49 103 132 13 37 105 27 81 135 74 32 52 96 76 32 112 11 75 111 58 107 111
split_gain=14526 16798.7 17852.1 24228.7 22855.3 22472.1 21220.5 19009.2 61014.4 128281 23719.9 99379.5 23932.6 38412.9 23913 21049.4 16452.1 25318.2 61044.7 32742.2 18801 24950.8 16942.9 17212.2 19909.1 16331.7 34595.4 13889.4 13761.6 13227
threshold=21.500000000000004 0.71802850000000007 1.7276150000000003 1.0525100000000003 1.5000000000000002 4.5000000000000009 132.50000000000003 75758.500000000015 103.50000000000001 35.500000000000007 1.4118250000000001 36.500000000000007 102.50000000000001 31.500000000000004 27.500000000000004 39.500000000000007 1.3347350000000002 70.500000000000014 31.500000000000004 97.500000000000014 1.0000000180025095e-35 64.500000000000014 11.500000000000002 117.50000000000001 16.500000000000004 74.500000000000014 47.500000000000007 119.50000000000001 36.500000000000007 38.500000000000007
decision_type=2 2 2 2 2 2 2 2 2 2 2 2 2 2 2 2 2 2 2 2 2 2 2 2 2 2 2 2 2 2
left_child=1 -1 3 4 -3 6 16 27 10 15 11 14 25 -14 -9 -10 17 19 -19 20 21 -6 -22 -24 -25 -12 -27 29 -2 -5
right_child=28 2 -4 7 5 -7 -8 8 9 -11 12 -13 13 -15 -16 -17 -18 18 -20 -21 22 -23 23 24 -26 26 -28 -29 -30 -31
leaf_value=-0.012292290094470144 -0.026383256610632785 0.1590946627911764 -0.022134228707960977 0.073200918389053862 1.2613247623542945 -0.033320962447073395 5.3262199161514161 -3.1533406138420106 -3.8058933486541116 17.39472293761958 0.042739189390363641 14.315807028917167 0.35924663986478533 11.02423857016997 4.8692578087682312 4.486358148574829 0.086085419076720293 13.777648534476757 -1.4892977411096746 7.3225704842600328 -1.5862268031827806 9.2712621098472976 0.35868714014595415 9.1606930351257319 0.23677372515201567 -0.072824932267077466 9.9958576611110157 5.5479282784461974 -0.20258639317852559 0.65499833398252061
leaf_weight=402686 161702 71863 114658 4625 60 112597 31 42 24 28 895 26 35 22 23 25 107575 20 22 29 173 21 424 20 20 39 21 20 19913 2361
leaf_count=402686 161702 71863 114658 4625 60 112597 31 42 24 28 895 26 35 22 23 25 107575 20 22 29 173 21 424 20 20 39 21 20 19913 2361
internal_value=0 0.0841065 0.225118 0.35301 0.305579 0.146273 0.47128 2.04986 5.76299 32.9786 3.86308 19.3277 2.47249 22.3778 -1.57288 2.12424 0.463797 5.01353 28.9034 3.67032 2.33977 16.6899 0.515035 3.66415 23.4937 1.28442 17.2561 1.42447 -0.228514 1.34913
internal_weight=0 818385 415699 301041 292855 220992 108395 8186 1180 77 1103 91 1012 57 65 49 108364 789 42 747 718 81 637 464 40 955 60 7006 181615 6986
internal_count=1000000 818385 415699 301041 292855 220992 108395 8186 1180 77 1103 91 1012 57 65 49 108364 789 42 747 718 81 637 464 40 955 60 7006 181615 6986
shrinkage=0.2


Tree=25
num_leaves=31
num_cat=0
split_feature=13 138 95 86 56 79 41 95 115 81 104 110 119 0 93 18 22 22 82 62 79 35 48 109 50 73 25 46 131 141
split_gain=12897.2 30756.3 31012 42343.6 47776.1 90270.2 25345.8 54696.9 23058.9 67154.6 144163 31776.9 20835.9 17937.8 39247.3 17603 17409.3 16426 16019.6 17859.2 15603.2 18208.9 15440.1 32708.8 37304.1 16521.5 15320.7 14898.2 14836.8 14855
threshold=6.5000000000000009 82676.550000000017 65.500000000000014 35.500000000000007 52.500000000000007 24.500000000000004 54.500000000000007 100.50000000000001 22.500000000000004 82.500000000000014 35.500000000000007 40.500000000000007 8.5000000000000018 68.500000000000014 34.500000000000007 9.5000000000000018 24.500000000000004 22.500000000000004 97.500000000000014 114.50000000000001 8.5000000000000018 19.500000000000004 105.50000000000001 1.0000000180025095e-35 48.500000000000007 37.500000000000007 27.500000000000004 16.500000000000004 1.5484950000000002 0.89933500000000011
decision_type=2 2 2 2 2 2 2 2 2 2 2 2 2 2 2 2 2 2 2 2 2 2 2 2 2 2 2 2 2 2
left_child=1 28 8 4 6 -6 12 -8 16 13 11 -11 -4 22 27 -2 17 18 19 -3 21 -18 -10 -24 25 -25 -20 -15 29 -1
right_child=15 2 3 -5 5 -7 7 -9 9 10 -12 -13 -14 14 -16 -17 20 -19 26 -21 -22 -23 23 24 -26 -27 -28 -29 -30 -31
leaf_value=0.059604877447645616 0.0073328800606037902 -0.20497032441180618 6.0954313831944624 -0.51638882752178483 2.0896509643644094 18.516133064809054 -0.20853130167180842 14.061483228206635 -0.26432994117539527 -0.95755765504659485 21.311601070165636 7.7563196604068469 0.40927943883378526 3.0143806996016669 10.360446245773979 -0.077414722476336836 6.7782853913307193 4.4533171966269212 1.3486545794978739 4.3273413538932806 -1.6746368836590222 -1.3927515799800556 8.826604729113372 -0.77951574471333762 9.102009387016297 4.3325663539891446 7.5786158335208897 -2.3612445849925279 0.003928138586022911 0.29246270444730427
leaf_weight=108003 289455 1023 31 147 32 23 22 21 571 47 20 26 153 58 23 148249 20 37 75 36 350 24 23 161 20 30 20 32 439072 12196
leaf_count=108003 289455 1023 31 147 32 23 22 21 571 47 20 26 153 58 23 148249 20 37 75 36 350 24 23 161 20 30 20 32 439072 12196
internal_value=0 0.122061 3.3021 11.1785 18.3514 44.7945 11.9445 33.8027 2.0005 5.7322 31.3382 10.7301 6.83636 3.13812 14.9365 -0.106854 -0.379777 1.52642 0.861443 -0.254487 -6.14192 11.6068 1.48195 8.32323 4.41979 0.117145 13.3011 5.51524 0.104861 0.416159
internal_weight=0 562296 3025 429 282 55 227 43 2596 1011 93 73 184 918 113 437704 1585 1191 1154 1059 394 44 805 234 211 191 95 90 559271 120199
internal_count=1000000 562296 3025 429 282 55 227 43 2596 1011 93 73 184 918 113 437704 1585 1191 1154 1059 394 44 805 234 211 191 95 90 559271 120199
shrinkage=0.2


Tree=26
num_leaves=31
num_cat=0
split_feature=104 48 138 21 81 56 12 31 109 100 62 77 78 39 103 120 75 79 9 69 104 61 8 56 59 103 141 0 36 66
split_gain=12046.8 19341.2 19073.2 34536.7 17622.8 21970.8 31440.1 37695.7 31008.4 64302.4 43072.4 21884.9 56935.3 28022.9 47657 67814.2 20888 17223 29375.4 22163.6 17469.8 28621.9 33000.7 17212.5 39309.9 19540.9 20137.2 19484.9 16249.5 13024.9
threshold=55.500000000000007 115.50000000000001 76624.950000000012 127.50000000000001 21.500000000000004 25.500000000000004 86.500000000000014 20.500000000000004 34.500000000000007 92.500000000000014 52.500000000000007 5.5000000000000009 36.500000000000007 21.500000000000004 8.5000000000000018 29.500000000000004 9.5000000000000018 12.500000000000002 80.500000000000014 65.500000000000014 128.50000000000003 12.500000000000002 47.500000000000007 89.500000000000014 2.5000000000000004 1.0000000180025095e-35 0.96833650000000004 4.5000000000000009 78.500000000000014 106.50000000000001
decision_type=2 2 2 2 2 2 2 2 2 2 2 2 2 2 2 2 2 2 2 2 2 2 2 2 2 2 2 2 2 2
left_child=1 -1 -2 4 17 29 8 -8 11 10 28 12 13 -7 -15 -16 -9 18 19 -4 -19 -22 -23 25 -25 26 -13 -26 -10 -6
right_child=2 -3 3 -5 5 6 7 16 9 -11 -12 23 -14 14 15 -17 -18 20 -20 -21 21 22 -24 24 27 -27 -28 -29 -30 -31
leaf_value=-0.053535564847285888 0.022893405364341309 0.021681904695183093 0.24312092726453774 8.6807105517387395 0.021820905610160188 0.0057706913154106591 12.608006942272187 7.3939970785921281 0.45142529012341248 13.86974418640137 8.909304262697697 0.41409384270509086 11.031562679290772 -0.63935591550368187 2.4489475747713678 16.141673854122992 -0.42821696988410418 -0.34421342020807039 8.8948980283737189 6.9262875524434184 -0.75564608214393503 1.78511609349932 11.969242004156113 7.5122715692771109 4.7397625473412601 -0.79059132123046949 7.0778175525940386 -2.2674206030996222 6.3142152082352414 1.9157590026609927
leaf_weight=277530 446972 269559 203 20 1679 256 20 22 190 20 32 60 25 53 39 23 36 2165 20 22 63 35 20 38 22 613 26 57 21 159
leaf_count=277530 446972 269559 203 20 1679 256 20 22 190 20 32 60 25 53 39 23 36 2165 20 22 63 35 20 38 22 613 26 57 21 159
internal_value=0 -0.0823739 0.138122 1.9184 1.77823 3.26806 6.03721 25.6034 5.00252 14.8453 10.3594 2.86668 8.96651 5.85389 18.8209 37.6425 12.6941 -0.220202 7.74755 4.48293 -1.07526 10.7737 27.4422 -0.0935384 11.1324 -1.97256 12.1435 -1.58027 5.17463 0.9283
internal_weight=0 547089 452911 5939 5919 3391 1553 78 1475 263 243 1212 396 371 115 62 58 2528 245 225 2283 118 55 816 117 699 86 79 211 1838
internal_count=1000000 547089 452911 5939 5919 3391 1553 78 1475 263 243 1212 396 371 115 62 58 2528 245 225 2283 118 55 816 117 699 86 79 211 1838
shrinkage=0.2


Tree=27
num_leaves=31
num_cat=0
split_feature=66 141 16 132 82 119 27 1 121 127 76 73 65 34 136 21 67 128 85 124 5 108 92 56 27 39 89 105 120 119
split_gain=11602.1 15816.4 13149.7 20184.1 43127.8 49912.7 145351 23800.8 43417.5 33046 41460.4 19107.3 15560.5 13614.6 13078 45248.9 32204.8 15415.6 24181.9 16306.9 21563.7 15905.5 35698.9 82398.6 20058.3 24215.3 17404.6 38434.1 18098.7 15203.4
threshold=6.5000000000000009 0.88872450000000003 43.500000000000007 1.2720500000000003 114.50000000000001 76.500000000000014 29.500000000000004 21.500000000000004 83.500000000000014 21.500000000000004 43.500000000000007 39.500000000000007 1.0000000180025095e-35 64.500000000000014 1.6774400000000003 130.50000000000003 121.50000000000001 1.2868250000000001 119.50000000000001 120.50000000000001 7.5000000000000009 1.0000000180025095e-35 70.500000000000014 50.500000000000007 7.5000000000000009 9.5000000000000018 32.500000000000007 91.500000000000014 37.500000000000007 31.500000000000004
decision_type=2 2 2 2 2 2 2 2 2 2 2 2 2 2 2 2 2 2 2 2 2 2 2 2 2 2 2 2 2 2
left_child=1 -1 -2 4 5 7 11 12 9 13 -11 -7 -4 -9 15 16 17 21 19 -19 -21 22 26 24 -24 -26 -3 28 -28 -23
right_child=2 14 3 -5 -6 6 -8 8 -10 10 -12 -13 -14 -15 -16 -17 -18 18 -20 20 -22 29 23 -25 25 -27 27 -29 -30 -31
leaf_value=0.0081239856154648633 -0.0574060091719703 -0.29842815058217165 4.6994190118529584 0.0097240537843090464 9.0986399922370911 -1.6714531030438164 17.156483163152423 -1.0902171883293812 10.420891119184949 1.1444682502084309 10.628168821334839 4.9082218174750993 -0.71918092105230413 3.4066325031220916 0.06557371072132559 9.5536924895786104 7.9094469308853155 0.51719796718078836 6.9332613815863926 0.34909113446871443 9.2410417060554035 0.25610568035350151 -2.0672407530449535 14.695355443159739 9.2781306017012835 0.5377951804548502 -0.12312113469925479 9.3049922842979438 4.9123259928491381 -0.25180375992552262
leaf_weight=515433 213574 420 22 193759 25 55 28 170 21 54 28 26 582 32 61688 21 22 3603 24 24 20 6283 37 24 21 32 138 25 36 3773
leaf_count=515433 213574 420 22 193759 25 55 28 170 21 54 28 26 582 32 61688 21 22 3603 24 24 20 6283 37 24 21 32 138 25 36 3773
internal_value=0 0.103483 -0.115654 0.072237 4.45954 3.45183 23.6727 1.02711 8.22794 4.98354 21.914 2.20271 -2.60907 -1.88922 0.528754 1.38321 1.31595 1.25778 3.02787 2.81966 21.9544 0.655503 5.15272 21.4145 7.53124 20.0047 2.15782 9.86125 4.59348 0.327693
internal_weight=0 591624 408376 194802 1043 1018 109 909 305 284 82 81 604 202 76191 14503 14482 14460 3671 3647 44 10789 733 114 90 53 619 199 174 10056
internal_count=1000000 591624 408376 194802 1043 1018 109 909 305 284 82 81 604 202 76191 14503 14482 14460 3671 3647 44 10789 733 114 90 53 619 199 174 10056
shrinkage=0.2


Tree=28
num_leaves=31
num_cat=0
split_feature=38 129 80 72 140 141 130 103 89 141 47 8 134 90 141 64 103 101 92 103 84 138 48 117 83 57 72 24 141 133
split_gain=10044.3 14282.1 12829.2 16917.4 13593 15192.2 35830.6 86324.8 15776.3 12760 13082.1 13580.4 19420.9 42931.3 25895.7 46739.3 22844.6 38357.8 16502.8 15993.4 11672.1 10936.5 24350.5 24381.4 32036.8 17671.1 13865.6 43164.4 13486.9 24289.5
threshold=3.5000000000000004 1.5598850000000002 111.50000000000001 110.50000000000001 0.86333450000000023 1.0981750000000001 1.449025 38.500000000000007 14.500000000000002 0.71802850000000007 50.500000000000007 47.500000000000007 1.4268850000000002 112.50000000000001 0.86945649999999997 16.500000000000004 35.500000000000007 38.500000000000007 116.50000000000001 50.500000000000007 6.5000000000000009 69943.450000000012 104.50000000000001 19.500000000000004 103.50000000000001 120.50000000000001 103.50000000000001 15.500000000000002 0.90768800000000016 1.2954850000000002
decision_type=2 2 2 2 2 2 2 2 2 2 2 2 2 2 2 2 2 2 2 2 2 2 2 2 2 2 2 2 2 2
left_child=1 9 3 4 -2 -6 7 8 -7 -1 20 -12 13 14 18 -16 -17 19 -13 -18 -11 -4 25 24 28 -23 -25 -28 -24 -30
right_child=2 -3 21 -5 5 6 -8 -9 -10 10 11 12 -14 -15 15 16 17 -19 -20 -21 -22 22 23 26 -26 -27 27 -29 29 -31
leaf_value=0.0091856777315398284 -0.071768198366110245 -0.005420534690732553 0.0036612767016094105 -0.0034625461638487752 -0.2891489463235809 5.0253038706630475 0.092797772161884992 12.762031369440017 -1.5341296872225676 0.17323795728622027 0.095391815758823995 0.26222012167391223 0.2845513932969605 9.907757893475619 11.765249125162761 0.093235156292051785 6.4433134975433353 11.50000928965482 5.8173045600002462 0.46468839664307854 0.0033968753974560149 -0.27844253871736169 0.24880685376136313 -0.13813413012635431 6.6614963713814239 4.0545290303857708 -1.3230982520363548 10.451846018135548 4.9558576590364636 0.72077689965983904
leaf_weight=93444 87661 301198 230545 139969 21710 20 1675 31 55 24478 19523 773 15485 22 21 127 25 22 22 63 47776 4075 3878 3634 34 38 33 20 55 3588
leaf_count=93444 87661 301198 230545 139969 21710 20 1675 31 55 24478 19523 773 15485 22 21 127 25 22 22 63 47776 4075 3878 3634 34 38 33 20 55 3588
internal_value=0 0.11082 -0.0896257 -0.248608 -0.539869 -1.21541 1.59233 19.4223 1.07526 0.316697 0.550243 1.04198 1.70809 5.81822 4.90478 13.6099 9.60336 20.1527 2.07973 10.8158 0.304676 0.0727325 0.889905 1.65161 2.6804 -1.19205 -0.456475 15.6014 2.54194 3.92358
internal_weight=0 502979 497021 251121 111152 23491 1781 106 75 201781 108337 36083 16560 1075 1053 258 237 110 795 88 72254 245900 15355 11242 7555 4113 3687 53 7521 3643
internal_count=1000000 502979 497021 251121 111152 23491 1781 106 75 201781 108337 36083 16560 1075 1053 258 237 110 795 88 72254 245900 15355 11242 7555 4113 3687 53 7521 3643
shrinkage=0.2


Tree=29
num_leaves=31
num_cat=0
split_feature=8 80 141 135 103 50 136 117 50 61 2 22 32 11 129 132 67 136 141 130 83 42 116 85 62 131 54 35 132 3
split_gain=9336.6 13359.5 13357.8 21337.7 96996.8 10063.7 21839.4 55311.1 54074.3 47161.5 33658.6 26133.8 19593.6 18312.6 13716.7 17617.3 20809.9 13604.6 12462.7 34216.6 38562.3 14516.5 16553.5 13063.6 12589.8 12598.3 13688.4 12306.8 11242.9 10375.4
threshold=50.500000000000007 119.50000000000001 0.98892500000000017 1.3790750000000001 26.500000000000004 35.500000000000007 1.5031900000000002 16.500000000000004 28.500000000000004 35.500000000000007 18.500000000000004 55.500000000000007 30.500000000000004 5.5000000000000009 1.3363750000000001 1.7653850000000004 123.50000000000001 1.4541650000000004 1.0981750000000001 1.4322850000000003 1.5000000000000002 73.500000000000014 51.500000000000007 122.50000000000001 124.50000000000001 1.4121750000000002 88.500000000000014 26.500000000000004 1.3798550000000003 34.500000000000007
decision_type=2 2 2 2 2 2 2 2 2 2 2 2 2 2 2 2 2 2 2 2 2 2 2 2 2 2 2 2 2 2
left_child=1 -1 -2 4 -4 6 7 11 9 13 12 -5 -11 -9 -8 16 18 -7 23 -20 -21 22 -22 24 25 -16 29 -24 -19 -27
right_child=2 -3 3 5 -6 17 14 8 -10 10 -12 -13 -14 -15 15 -17 -18 28 19 20 21 -23 27 -25 -26 26 -28 -29 -30 -31
leaf_value=-0.044416574325778918 0.014789320482824362 0.020155040387470367 -2.207889418601972 -1.6022222923870022 13.874965453147889 -3.3235761890224382 -0.93747013855127648 4.4377215067545572 13.275431390292944 8.056947388432242 13.731727991104126 5.9371350958233791 -0.38398622843352231 -2.5796856898595308 5.2491849399748309 0.10388131514576809 6.71361786939881 4.0294701161207973 7.2192420664586523 8.5166810035705574 -0.14584073444232534 5.897761840820313 0.83573484177492097 5.5159685111045844 5.2746161165691561 0.22697833705304205 -1.0547822091438075 5.6680173848126394 -0.062243879245379635 0.99291526539608754
leaf_weight=298216 455720 224759 40 148 24 51 405 21 24 22 20 21 22 51 21 10776 22 27 38 26 397 20 49 20 21 2530 263 37 5227 982
leaf_count=298216 455720 224759 40 148 24 51 405 21 24 22 20 21 22 51 21 10776 22 27 38 26 397 20 49 20 21 2530 263 37 5227 982
internal_value=0 -0.0833281 0.110128 0.884066 19.1159 0.829133 1.22627 9.2892 22.6149 14.8922 34.6437 -3.3269 19.1824 -2.66471 1.0563 1.20932 2.88906 -0.36386 2.73581 7.1119 5.02985 3.08871 1.99554 2.08914 1.95558 1.8205 1.68462 14.5737 -0.206084 2.20572
internal_weight=0 522975 477025 21305 64 21241 15936 329 160 136 64 169 44 72 15607 15202 4426 5305 4404 567 529 503 483 3837 3817 3796 3775 86 5254 3512
internal_count=1000000 522975 477025 21305 64 21241 15936 329 160 136 64 169 44 72 15607 15202 4426 5305 4404 567 529 503 483 3837 3817 3796 3775 86 5254 3512
shrinkage=0.2


Tree=30
num_leaves=31
num_cat=0
split_feature=94 132 128 49 141 111 125 141 40 11 91 113 100 61 115 4 114 69 13 112 95 2 97 43 79 32 128 16 90 141
split_gain=8571.78 16942.9 14659.8 23786.9 47738.7 19857.3 16991.5 15808.2 33891.4 18565.4 19552.3 19550 18707.8 20286.6 27727.3 19559 14557 22994.1 15697.3 12776.4 12323.6 15538.8 12284.5 12159.5 11058.2 14342.9 10954.3 10213 16319.7 15755.4
threshold=6.5000000000000009 1.4256650000000002 1.2062250000000001 128.50000000000003 0.79541900000000021 129.50000000000003 132.50000000000003 0.9019545000000001 8.5000000000000018 107.50000000000001 25.500000000000004 113.50000000000001 98.500000000000014 13.500000000000002 108.50000000000001 86.500000000000014 6.5000000000000009 46.500000000000007 14.500000000000002 42.500000000000007 5.5000000000000009 46.500000000000007 70.500000000000014 61.500000000000007 58.500000000000007 21.500000000000004 2.0845850000000006 58.500000000000007 125.50000000000001 0.90768800000000016
decision_type=2 2 2 2 2 2 2 2 2 2 2 2 2 2 2 2 2 2 2 2 2 2 2 2 2 2 2 2 2 2
left_child=1 2 6 5 -5 7 19 -4 -9 10 22 12 13 24 15 16 17 18 -15 -1 -18 -22 -10 -2 -12 -26 -3 28 -21 -29
right_child=23 26 3 4 -6 -7 -8 8 9 -11 11 -13 -14 14 -16 -17 20 -19 -20 27 21 -23 -24 -25 25 -27 -28 29 -30 -31
leaf_value=-0.015958323462127069 -0.0067134250269969891 0.019503745783960087 0.21883888302375332 -0.69126674740442207 11.758458226377314 5.373377391044051 4.5628353874253875 7.5951315602948588 -0.88183913154117133 6.3775718544920288 -1.4420852585370283 6.9643518010775258 5.8655964210629463 5.261844780134119 9.0325427508354181 7.1694808634844698 -0.82985445107183153 9.1024803944996417 -1.6341165546448 0.056592984622202837 0.74912992896551778 6.5488000258155497 4.1246279988970072 -0.10515499703079212 4.811576364835104 -1.4259834552633353 -0.062636826359366585 0.36882100755029651 4.6569452426125926 1.7997944437296742
leaf_weight=18021 353115 477882 4629 28 22 32 34 31 295 24 166 24 32 23 20 22 155 21 31 6185 94 23 21 58506 30 29 75156 4990 31 328
leaf_count=18021 353115 477882 4629 28 22 32 34 31 295 24 166 24 32 23 20 22 155 21 31 6185 94 23 21 58506 30 29 75156 4990 31 328
internal_value=0 0.0846026 0.755882 2.21665 23.9331 2.02622 0.471914 1.88602 5.40704 4.40741 3.73852 6.79672 5.75554 4.52701 8.89858 6.93304 5.09986 17.4345 6.51526 0.446212 1.69877 9.44618 -2.74565 -0.103527 -3.03094 8.72829 0.0417056 1.26805 0.397678 2.2854
internal_weight=0 588379 35341 5752 50 5702 29589 5670 1041 1010 986 670 646 614 389 369 347 75 54 29555 272 117 316 411621 225 59 553038 11534 6216 5318
internal_count=1000000 588379 35341 5752 50 5702 29589 5670 1041 1010 986 670 646 614 389 369 347 75 54 29555 272 117 316 411621 225 59 553038 11534 6216 5318
shrinkage=0.2


Tree=31
num_leaves=31
num_cat=0
split_feature=25 141 50 128 137 30 58 90 2 94 134 21 124 122 122 6 121 114 9 137 47 116 67 68 56 17 53 9 15 9
split_gain=8376.95 9788.85 15030.5 15818.6 25697.5 45119.1 33133.3 44320.7 36614 22000.6 19485.3 23261.1 20364.6 39073.3 27251.7 38519.9 32813.3 66644 24210.6 28170.9 22194.2 36216.8 17463.1 21717 26816.7 56780.9 22416.9 44265.3 19443.7 19317.7
threshold=44.500000000000007 0.91651800000000005 36.500000000000007 1.1639450000000002 1.4281950000000003 77.500000000000014 7.5000000000000009 6.5000000000000009 4.5000000000000009 3.5000000000000004 1.6175650000000004 130.50000000000003 47.500000000000007 99.500000000000014 6.5000000000000009 99.500000000000014 28.500000000000004 3.5000000000000004 78.500000000000014 1.5666450000000003 51.500000000000007 3.5000000000000004 9.5000000000000018 3.5000000000000004 63.500000000000007 29.500000000000004 9.5000000000000018 26.500000000000004 5.5000000000000009 48.500000000000007
decision_type=2 2 2 2 2 2 2 2 2 2 2 2 2 2 2 2 2 2 2 2 2 2 2 2 2 2 2 2 2 2
left_child=1 -1 3 22 5 6 -5 -8 -9 -10 11 12 -6 14 15 16 18 -18 20 -20 -14 -22 23 -3 26 -26 27 -25 29 -28
right_child=-2 2 -4 4 10 -7 7 8 9 -11 -12 -13 13 -15 -16 -17 17 -19 19 -21 21 -23 -24 24 25 -27 28 -29 -30 -31
leaf_value=-0.00066222732292208495 -0.054428492996284675 -1.7776619881850024 -0.083598514487191453 -2.0009001170081655 0.18681018319919745 9.1086055682040747 10.59066757965088 8.2373820419311539 5.1405718886333966 -1.8880441513242603 0.061559598690384298 6.6646565893422007 -0.066945072536957903 9.3640860330490838 0.22228686189725377 9.9501526083265048 15.205154905617238 1.9014350206148429 8.101895472942255 1.559359363862026 8.5884250116348273 1.3150001817566765 -0.88592569649708075 11.133687334710903 0.33548987620975823 12.640601180990537 7.3909083758791283 0.059397284189860025 -1.0451353982284473 -0.63357925750315192
leaf_weight=790275 97872 130 22488 87 12444 32 25 25 23 79 71809 23 598 21 1815 21 20 61 39 81 30 314 1281 22 40 24 24 42 231 24
leaf_count=790275 97872 130 22488 87 12444 32 25 25 23 79 71809 23 598 21 1815 21 20 61 39 81 30 314 1281 22 40 24 24 42 231 24
internal_value=0 0.0358781 0.312762 0.49665 0.557279 10.28 5.55859 14.4664 6.89024 -1.5158 0.527089 1.54519 1.49787 3.83659 3.53358 7.31038 6.53063 25.9315 5.0509 18.4284 3.34676 9.74655 -2.42296 2.3639 5.95798 24.7495 2.45168 19.3309 -1.42026 16.8933
internal_weight=0 902128 111853 89365 87547 271 239 152 127 102 87276 15467 15444 3000 2979 1164 1143 81 1062 120 942 344 1818 537 407 64 343 64 279 48
internal_count=1000000 902128 111853 89365 87547 271 239 152 127 102 87276 15467 15444 3000 2979 1164 1143 81 1062 120 942 344 1818 537 407 64 343 64 279 48
shrinkage=0.2


Tree=32
num_leaves=31
num_cat=0
split_feature=126 135 141 121 11 62 66 87 23 13 106 137 114 128 38 58 136 59 138 47 71 74 26 140 133 115 130 31 140 136
split_gain=7792.24 11458.5 15109.8 18717.9 27867.6 14871.3 17129.9 14770.9 12815.8 18726.7 26816.7 16279.8 47440.8 15956.7 24210.8 13247.2 22683.6 22348.2 16089.3 45645.4 41250.5 24117.8 12751.2 13267.7 12702.5 48214.8 18786.7 12680.7 12563.6 31938.6
threshold=7.5000000000000009 1.826065 0.98336450000000009 118.50000000000001 29.500000000000004 125.50000000000001 14.500000000000002 58.500000000000007 52.500000000000007 108.50000000000001 5.5000000000000009 1.4281950000000003 22.500000000000004 1.2970650000000004 118.50000000000001 16.500000000000004 1.85422 108.50000000000001 78939.200000000012 20.500000000000004 12.500000000000002 34.500000000000007 5.5000000000000009 0.76311750000000023 1.5399950000000002 84.500000000000014 1.449025 118.50000000000001 0.87377350000000009 1.4541650000000004
decision_type=2 2 2 2 2 2 2 2 2 2 2 2 2 2 2 2 2 2 2 2 2 2 2 2 2 2 2 2 2 2
left_child=1 2 22 5 7 8 -7 -5 13 11 -11 12 -10 28 24 16 17 18 -13 20 -20 -21 23 -1 25 26 -15 -26 29 -4
right_child=-2 -3 3 4 -6 6 -8 -9 9 10 -12 15 -14 14 -16 -17 -18 -19 19 21 -22 -23 -24 -25 27 -27 -28 -29 -30 -31
leaf_value=-0.02121999136964817 -0.0237988074482261 -0.0057064145715334412 8.4040948796272286 -0.82044953822439148 7.5189181520257682 8.2527794861793531 0.53024086444466201 4.7003821952002394 -1.7965074083079462 10.053960960395635 1.3634711032619282 0.43292176185904707 11.522177040576935 -0.1585796790492946 7.2651732134819031 -0.10040883229717304 7.5472378349304199 6.6903038806915278 1.7980505442619326 -1.3975349826355503 14.489519408203307 6.441526019573212 -0.01729679133509103 0.12073306240323008 0.19056912488688485 10.072465209484101 6.2419539973849343 5.2390027141571052 -0.59657713605930218 0.22885370901785793
leaf_weight=36959 337852 431516 20 63 35 20 27 28 23 20 49 1247 20 145 20 965 20 25 20 73 21 20 92941 91638 4046 25 21 20 1689 432
leaf_count=36959 337852 431516 20 63 35 20 27 28 23 20 49 1247 20 145 20 965 20 25 20 73 21 20 92941 91638 4046 25 21 20 1689 432
internal_value=0 0.0676398 0.247579 1.51091 13.6145 1.34085 19.0821 4.39134 1.24738 3.16665 19.4123 2.70611 21.9911 0.498872 1.61448 2.35929 4.29561 3.81992 3.28351 13.6959 41.4928 1.44142 0.19572 0.399678 1.4514 9.42143 3.25563 1.07701 -1.72973 2.95295
internal_weight=0 662148 230632 9094 126 8968 47 91 8921 2503 69 2434 43 6418 4277 2391 1426 1406 1381 134 41 93 221538 128597 4257 191 166 4066 2141 452
internal_count=1000000 662148 230632 9094 126 8968 47 91 8921 2503 69 2434 43 6418 4277 2391 1426 1406 1381 134 41 93 221538 128597 4257 191 166 4066 2141 452
shrinkage=0.2


Tree=33
num_leaves=31
num_cat=0
split_feature=6 128 141 140 98 131 70 20 48 101 128 5 103 30 37 13 132 9 21 36 33 50 112 139 123 74 58 138 41 125
split_gain=8284.31 9930.79 9391.93 8411.3 8958.26 11909.5 10280.1 22175.5 15104.8 15839.9 9072.1 16478.3 57227 13598.2 28330.8 15540.8 17678.9 10945 15963.9 10469.3 16740.2 9946.58 23370.7 9909.74 8338.11 16024.2 8263.87 9105.79 14064.7 27931.5
threshold=6.5000000000000009 1.9884000000000002 1.0658200000000002 0.68999350000000015 6.5000000000000009 1.3567750000000001 89.500000000000014 105.50000000000001 138.50000000000003 114.50000000000001 1.1737950000000001 70.500000000000014 41.500000000000007 122.50000000000001 7.5000000000000009 10.500000000000002 1.3112150000000002 7.5000000000000009 85.500000000000014 70.500000000000014 40.500000000000007 85.500000000000014 27.500000000000004 69629.250000000015 76.500000000000014 6.5000000000000009 3.5000000000000004 59162.650000000001 53.500000000000007 128.50000000000003
decision_type=2 2 2 2 2 2 2 2 2 2 2 2 2 2 2 2 2 2 2 2 2 2 2 2 2 2 2 2 2 2
left_child=1 2 3 -1 5 6 10 8 9 24 23 13 -13 15 -15 16 -12 18 -17 -19 -21 -18 -23 -5 -8 -26 -2 -28 -29 -30
right_child=26 -3 -4 4 -6 -7 7 -9 -10 -11 11 12 -14 14 -16 17 21 19 -20 20 -22 22 -24 -25 25 -27 27 28 29 -31
leaf_value=-0.039645222656266521 0.009169628463357277 -0.045581754217034608 0.24712447633555812 0.52567193508366472 -0.0084189412368647441 0.043106339539769806 0.24464747365005024 7.5297901642322547 6.1993390536308297 5.2876015893050603 5.8857352935350864 -0.1301600614372565 12.565107272863388 -0.34429888129234315 9.511371386051179 0.31453694471094507 0.54664245602784833 -0.99971563378198247 5.4345635467105442 -0.11117102796068559 5.748766160011292 7.0451873671623977 -0.49570931775229321 -0.0068300601392187717 -0.69939142025035361 6.7662948758705816 -0.0177715192311571 -0.15701646865649135 0.037513744205087393 7.1681787079030812
leaf_weight=76644 167096 94036 7496 1728 148962 298393 633 20 20 28 26 49 20 28 20 249 1811 618 27 104 24 31 35 7318 23 23 121087 55383 18046 22
leaf_count=76644 167096 94036 7496 1728 148962 298393 633 20 20 28 26 49 20 28 20 249 1811 618 27 104 24 31 35 7318 23 23 121087 55383 18046 22
internal_value=0 0.072174 0.124015 0.108493 0.159577 0.256102 1.1993 4.79944 3.89574 3.12909 0.976827 2.47074 17.7481 2.11617 18.8112 1.8422 3.5314 -1.30314 4.07705 -3.29367 4.93784 3.17267 15.2311 0.474452 2.1679 15.1673 -0.11726 -0.25736 -0.535144 0.230981
internal_weight=0 638366 544330 536834 460190 311228 12835 747 727 707 12088 3042 69 2973 48 2925 1903 1022 276 746 128 1877 66 9046 679 46 361634 194538 73451 18068
internal_count=1000000 638366 544330 536834 460190 311228 12835 747 727 707 12088 3042 69 2973 48 2925 1903 1022 276 746 128 1877 66 9046 679 46 361634 194538 73451 18068
shrinkage=0.2


Tree=34
num_leaves=31
num_cat=0
split_feature=104 138 91 98 102 101 24 28 52 73 44 36 61 34 50 86 11 23 109 16 69 9 54 5 38 12 113 23 63 109
split_gain=7501.42 14829.4 26493.5 18983.6 26689.4 26616.8 91132.9 23323.3 17686.7 17169.5 37701.4 16837.9 13068.5 15900.2 15289.7 16045.4 33520.5 23813.6 12505 11490.7 11445.9 11087 17680.7 22050.4 10866.4 15131.8 36585.9 15948.2 23886.4 11726.5
threshold=67.500000000000014 70824.10000000002 132.50000000000003 1.0000000180025095e-35 125.50000000000001 103.50000000000001 87.500000000000014 75.500000000000014 130.50000000000003 115.50000000000001 5.5000000000000009 73.500000000000014 17.500000000000004 125.50000000000001 82.500000000000014 65.500000000000014 43.500000000000007 67.500000000000014 115.50000000000001 70.500000000000014 131.50000000000003 65.500000000000014 32.500000000000007 9.5000000000000018 52.500000000000007 35.500000000000007 53.500000000000007 28.500000000000004 24.500000000000004 8.5000000000000018
decision_type=2 2 2 2 2 2 2 2 2 2 2 2 2 2 2 2 2 2 2 2 2 2 2 2 2 2 2 2 2 2
left_child=19 -2 3 5 8 9 7 11 18 12 -11 -7 -3 14 15 21 17 -17 20 -1 24 -14 -23 -24 -5 29 27 28 -27 -26
right_child=1 2 -4 4 -6 6 -8 -9 -10 10 -12 -13 13 -15 -16 16 -18 -19 -20 -21 -22 22 23 -25 25 26 -28 -29 -30 -31
